0.4727280410363812, 0.13317942334765753, -0.35476347510289463, 0.3246250143349445, 0.7735790447021682, 0.04478372113629536, -0.3059753566266144, -0.4291505413119541, 0.6382464715778353, -0.6051050992084903, 0.6138910710109708, -0.6993345122910704, 0.09482037757550454, -0.7322270561364514, 0.28144530896352293, -0.5798561002316337, -0.5496346563118131, 0.32469581169172024, -0.7895165175804619, 0.19714725556873847, -0.7785558113861065, -0.4513186122680198, 0.7362052184002346, -0.10106394089732018, 0.6543643085154593, 0.20155242261308248, -0.30691600395768187, 0.017337331679684986, -0.10035058778027772, -0.10895069737345242, 0.7704250804872104, 0.729962103245114, -0.34319911814854687, -0.6402417331716577, -0.2937942223925498, 0.38502088929086176, -0.2930243297507913, 0.37168527366996895, -0.6936429397975463, -0.01365221401954797, -0.5972298591474909, 0.4863680650836433, -0.4467935117259023, 0.09430773854356433, -0.31413791239675376, -0.025518738886584957, 0.7933663330586418, 0.0473229786388647, 0.7548248158901447, 0.44295242366016274, 0.7719121469156645, 0.7478173522530083, -0.2930089222471969, -0.09833104902265188, -0.2937398187737096, -0.35455992129504443, 0.3298053756658732, -0.18208156822585175, 0.6697141572671825, -0.41050713106261355, 0.3186673549645085, -0.6312324214142354, -0.31878510436405744, 0.7115460967661675, 0.34983030573143203, -0.18435283017520254, -0.525611627615362, 0.03829398340790191, -0.16151811241020864, 0.08947322620456455, -0.6544498418103933, -0.07624119998935619, 0.263696571939376, -0.31130283291430616, 0.3568874590102431, 0.42901897497988606, -0.15648858126799503, -0.7432606364633474, 0.49760127558602574, -0.7333031327083337, -0.5050597336905274, 0.31932464153530815, 0.5823553508449149, 0.2665052471768363, 0.6153026606875267, -0.7737011173760058, 0.2929388792853571, -0.09278626936604117, -0.527192632768785, 0.7565699538129294, -0.35438514933382115, -0.3005409537799995, 0.4958921113403447, 0.10887762240688625, -0.10681359648680167, 0.09288542774777198, -0.09761544811676404, 0.5151604285025875, -0.552622579367732, 0.32016405404041803, 0.7111106346689089, -0.5226509019511367, 0.03368523001090973, 0.5795025099748397, 0.6301404338643202, 0.04247970190799677, 0.7674260895804135, -0.20368122791247856, 0.01742338399596266, -0.20491910480627384, 0.7662573226740743, 0.6938154361624478, 0.061126722842418046, 0.1598534753397176, 0.6910205762647397, 0.4412530473223055, 0.7285550326842292, 0.5717221223980327, 0.6333158010697131, 0.5377844624849517, 0.6840895242442862, 0.084401535054339, -0.7552245976303062, -0.5712268320889232, 0.07814971073669952, 0.6526827037706198, 0.5295728587415813, -0.3594171492583895, 0.6607410744943987, 0.43770631125753745, -0.10173948852307402, 0.7588861303472996, 0.47471667296707754, -0.3514462499095807, 0.30759560642437833, 0.36460446475471175, 0.43544128343979316, 0.4475478730736009, 0.18757458369603375, -0.11934726798479967, 0.6051106084410411, 0.7107193255179094, 0.5834594010482799, 0.7717248754200847, -0.6784603463491301, -0.2510448807066722, -0.4828589967885387, -0.5215804693610131, 0.14279743803993594, -0.3405899954984305, 0.1987488472639638, 0.4560667221688921, 0.6206272939417417, -0.4091764017553061, 0.39597639427459974, 0.12767981338943257, 0.017155070131227967, 0.27044726045528367, -0.604843455030514, 0.04951870173230577, -0.5690509157997928, 0.25434965699354883, 0.5646820047584589, -0.47318672861525946, -0.1999405037189007, -0.07307026354084356, -0.04207057613776044, -0.49374141373898106, -0.2987740169476857, -0.11046901633005635, -0.5305924213774085, -0.7890450604100501, 0.5660059234911612, 0.6421107614247625, 0.3844127981019918, 0.6725302496585719, 0.28613757121437544, 0.375983541150569, -0.2609621108827159, 0.4542425614100001, -0.417984973128551, 0.05971710101461869, 0.533941898661739, -0.7520755991543583, 0.5597146194016014, 0.614324920130122, 0.7218521582002062, 0.26669321216207864, 0.3835744841479021, 0.6379594630870116, 0.2153313621593076, -0.35558667532064786, -0.2571080475398432, -0.34562580674141724, 0.7379056876085828, 0.3919589010060298, -0.2071344697904517, 0.42348411514673034, 0.5682119926720686, 0.24938941269125436, -0.2985287563802752, 0.46641792882842026, -0.4966153457632519, -0.5877894330720959, 0.23552480038196189, -0.37848397371552206, -0.10553435512350462, -0.6010420368180274, 0.5707444277658975, 0.7617929582886573, 0.5831832164482043, -0.7335983453703131, 0.11219126023686088, -0.03155659631453833, -0.00399263379900161, 0.7677334010269312, -0.236973359547186, -0.7309647896371312, -0.27204672399532626, 0.28816007795290965, 0.18108824028489712, -0.08690638104258763, -0.5248347470568933, 0.4813897185962337, 0.5143497887878752, -0.12815480587288042, -0.2481227299030495, -0.7304407320689038, 0.3078907905940258, 0.21295059701433283, 0.4539082905276821, -0.5417852707825126, -0.27343382649109604, -0.3848802343100065, 0.20741306262063586, 0.6570182932707129, -0.2608720912357255, -0.24843646836399458, -0.43182859499844284, 0.0859182074079774, 0.4611121597391836, -0.2146996802436476, 0.11326196483266027, 0.18558054634174836, 0.055370321217529606, 0.1833970362023447, 0.09352846085750743, -0.46005598009507787, 0.440681995233698, -0.3287125420505126, -0.40819086665438853, -0.14217833802945135, 0.7604530255262192, 0.01237274869470073, -0.7415371981682505, 0.44953602369699963, -0.484937976058488, 0.21217192946636176, -0.527713184687892, -0.026363873646761626, 0.2629832618185808, 0.7103522491236931, -0.39851446667392915, -0.7821919622583376, 0.6473747380465227, 0.3380321224382601, -0.0840900609042532, 0.7171528023079883, -0.5936164617830889, -0.11818848886852718, -0.7716487019291405, 0.7020675811249304, 0.17698316665102853, -0.3899521818749623, -0.480765110170338, -0.1929703969551586, 0.30371967501167063, -0.31904336136036965, -0.5743780536640668, -0.4393564467820403, 0.3153055568642926, 0.36618056976178837, -0.04800963980815354, 0.3163766942853976, 0.033564386597515705, -0.11246899799771182, -0.3131723980340718, 0.17246789429401732, 0.4307897129722966, -0.22132983215338276, 0.7856312469284918, -0.03144095896340671, -0.04685440898624793, -0.1524360582318931, 0.20747558515178688, 0.2356610326113624, -0.7207018465353164, -0.5704022198140113, -0.03113502778741406, -0.7848727145397805, 0.5850301687710675, 0.28531073727823464, 0.3051569435546213, -0.44862854555111514, 0.736152891311429, -0.38923454501602034, -0.1935991930216312, 0.20212823705863991, 0.43359263498840783, -0.4073660752425797, -0.7789995075901761, -0.10088128565807764, -0.013909324599845618, 0.35414184811524807, -0.5028286988624833, -0.468956407930442, -0.11248066076650398, 0.40207624625084226, -0.24127520527934543, 0.7098910445491935, -0.4726218219804279, -0.4008753622715693, 0.4882769104176037, 0.5206080321600794, 0.5645973829094859, -0.5501251270104976, -0.3824624350633357, 0.44324615382161103, 0.7463376444348966, 0.10286914161283178, 0.10090288896592448, 0.675756070331436, 0.4550389520277569, -0.2648332326957773, 0.4751327007285313, -0.42533344668215545, 0.41853219141748466, 0.299933326293758, 0.48445916791042665, 0.06994766163637056, 0.019590791651145856, -0.41836382626393454, -0.3229647750430875, -0.10058172608124083, -0.5071380974162225, 0.7174894027823107, -0.4448073891140819, -0.052876992416772794, -0.4013211834871889, 0.007852589505237484, 0.18854368679579048, 0.05916384786937545, -0.08518048598485328, 0.35235163766132716, -0.22447800283149488, -0.3504639646130585, -0.7111622132491834, 0.2125509798466818, -0.33447977933858, 0.39757902696785097, -0.7548433646420716, -0.5839292944364977, 0.6303458506030875, 0.37771684981075526, 0.042676198235711005, -0.6188972328116464, -0.09972169933456099, 0.25122350226275136, -0.36979011599923184, -0.34565556177896684, 0.256572594739054, 0.6888131275169405, 0.3486264952451208, -0.5805712959707141, -0.10118178957068635, -0.018084604498661117, 0.08013731724489437, 0.24699471201729684, 0.08212368880081122, -0.5604395463528684, -0.7532698768466011, 0.421602718777107, 0.24566008716474808, -0.3431402484726457, 0.6113149572969605, 0.4947613424988675, 0.33065918914549575, -0.1198686797889561, -0.7632920061934212, 0.2773975940626081
0.10909224671184636, -0.4090265435574306, -0.08069690704127519, 0.7742168782966019, -0.7967299660667756, 0.23517118406866455, -0.36865034281907366, 0.18468041818506076, -0.7920600233278332, -0.586031114156746, -0.0533562963739298, -0.38574091460229987, -0.5632593123105805, -0.21512758426813183, 0.36552032921909494, -0.041339217044847665, -0.7218787458299949, 0.2343175057764748, -0.07940581550248249, 0.6479441077826946, 0.549507038239659, 0.4302689789575618, 0.5541135408528275, -0.20481212924644976, -0.7985324655622947, 0.7288866651796466, 0.28244978186567815, -0.539225210853056, 0.5340435268951755, -0.41313082135855855, -0.2080885396988077, 0.5971823475980234, 0.16395496304257495, 0.2701490041168717, -0.1883647362669979, -0.29676468991832816, 0.707972241686877, -0.4613242288878485, -0.03913187440992749, -0.46916196876800226, -0.07570284890665668, -0.07391366870399252, -0.4304826687731982, 0.1512662449775688, 0.2803609096479498, 0.22212272789448329, 0.02240844277649212, -0.49783873554971536, -0.20798916855632754, 0.604722403582207, 0.47925248544728904, -0.5995687569314154, 0.7056182443153562, 0.7577663416586642, -0.42611272747483525, 0.7203273266775814, -0.6287962309805002, 0.04953458934714905, -0.702080269674024, -0.7999750704849489, -0.11876250916850428, 0.43598007504966163, 0.1254585011947903, 0.3541023740327236, -0.673664193605503, 0.3919945465047716, -0.6628111906655483, 0.6333722482740336, -0.15436300957015714, -0.1370966541678028, -0.14639552461073801, -0.5124172819096253, -0.7737978325990866, -0.03251249631793329, -0.11122677450933316, 0.550569355255996, -0.7676509999235182, 0.17289435238020556, 0.387575541159235, -0.618500269082667, 0.32238964956058513, -0.4991390451312908, 0.7109185875306545, -0.7400842767679765, -0.2631943990277187, 0.21373642961162598, -0.21501032658144015, -0.15365832600479412, -0.48154470696039664, 0.3678517480266963, 0.732176282711354, 0.484287745804614, 0.2519727767155562, 0.010848814257644612, 0.6528423301516928, 0.1335417042018694, -0.4139220219025099, 0.2386423660828405, -0.6712880418502156, -0.6112962239123505, 0.7290818882206105, 0.01675091617661517, 0.3701763381626444, -0.04901765881549536, 0.2844323599204397, -0.19020396356361302, -0.6686006762358258, -0.31466948214023277, -0.18029133940323394, 0.4520306527366975, -0.4313377808770472, 0.20906625726400763, -0.560964347585879, -0.46917923593021116, 0.11894924748038938, 0.4221808121250974, -0.44454974385175866, 0.644066646312252, -0.17266167840513302, 0.30360359075705645, -0.16368298444746243, -0.768387682214431, -0.04667616677483433, 0.6617528679758029, 0.32144953542052535, 0.26975456773665907, 0.33776134660115775, 0.34176565577656737, 0.590159712151499, -0.44297408104964014, -0.08631439265843943, 0.2558609926113242, 0.18001730695126006, 0.008486889314800239, 0.4958168827572589, -0.48264497710083226, 0.03666568137484327, -0.28517280128914835, 0.585132040389938, -0.6770925955074687, 0.20060208488378972, -0.4883630141110363, -0.22355971180236034, -0.15835809663493328, -0.7866070548185307, -0.7567283395371996, 0.6584651842629596, -0.5661540644957912, 0.25235752329215755, 0.5947969786916303, -0.5525024289250992, -0.7639828430941105, 0.1793156261515383, 0.7045632731424651, 0.5972463058709547, 0.3130866696622756, 0.5155575351337911, -0.040980442855910626, -0.12092366831786838, -0.007288418315510858, 0.23175671871853742, -0.5895578883854189, 0.5283858337679486, 0.660592288476378, 0.36810901433915477, -0.6526865524842869, 0.40443721667925603, -0.19016846773906304, -0.5234567388846536, -0.5138495581294478, -0.48748148910435135, -0.6985842692120813, -0.49658769991517443, 0.6426431808353472, -0.5111248502283315, 0.206961060510509, -0.39236550886462745, -0.02097181941006876, 0.5504134618482917, -0.3310707661406486, 0.13581921831276522, 0.21368250710456627, -0.23725907954789383, 0.32758058964508274, -0.647527712690049, 0.7179871386998042, 0.4816696519611683, 0.22799480460917287, -0.050061243904250374, 0.41457173865545616, 0.47487290775399926, 0.5345515414033748, 0.43930472894258754, -0.3698861540031091, 0.33194643470480356, 0.2443261043219438, -0.5499594265394805, 0.5449291684049076, 0.32268896034358985, 0.6049179398404043, -0.05726812605454934, 0.02065183274124216, 0.06497915208766203, -0.49370824003501745, -0.23419412817318663, 0.3763660233039898, 0.41518822181998893, 0.13027404223280636, -0.3362755908952497, 0.32261234274224826, -0.30436990748327075, -0.19458999800544363, -0.6293237352517824, 0.1517558735947675, 0.7251136735689836, -0.47105156359513567, -0.3996350487866373, 0.022264222715620896, 0.32022440127004925, 0.3817847490715791, 0.16904994361534342, 0.5635073740476113, -0.21347592460662612, 0.47625464442899235, 0.5655619742043896, -0.13324735807498878, 0.620421259951492, 0.7407332660672887, 0.2085758912956288, 0.21709143660530072, -0.20597336345068806, 0.15905808788001052, -0.19201363277833894, 0.460096635868404, 0.7968701804213376, 0.6468548124441047, 0.27379528139819564, -0.313928253630243, 0.4599196576950819, -0.23909058116583404, 0.6924807060492286, 0.5538157359903289, 0.6889025269171662, 0.30179120609437926, -0.7826188619968559, -0.7351101961957943, 0.5854953438935444, -0.016005677868258017, 0.2961910640219265, -0.06156469036877432, 0.03650809993770354, -0.6880716498265536, -0.31477502368880067, 0.3256533454819617, -0.4972473866997966, 0.014149661963995919, 0.7766717428622705, -0.5578790443584863, -0.35915311631681296, -0.1477104831205407, -0.10837836981668647, -0.2148210194523017, 0.5427703281757663, 0.7351959948567639, -0.43178771535045934, 0.5426917110019172, -0.6204539113518749, 0.6328698052652231, 0.3008014519423652, -0.4114614014427984, -0.1130093821169188, 0.5988367631858402, 0.26263749107326073, -0.5007376934107655, 0.633032102401925, 0.6736620305927088, 0.07106041091360926, 0.7153597063685193, 0.5576621125399468, 0.1563734164360966, 0.030829846939706362, 0.10976400093145866, 0.27814782586020526, 0.29462416565026284, 0.11773743104809586, -0.38487021380769093, 0.5036936987410623, -0.34151252232575385, -0.5587752716232868, -0.799405233466766, 0.6053050915287705, -0.07316192105674713, -0.34871016018734713, 0.5777543913999261, 0.13816807957881083, 0.1293384805821436, -0.6684717423783518, 0.15464813111790998, 0.7154221999486885, -0.6488903694264803, 0.6467162806115765, 0.3456191556435544, -0.11623411849363274, -0.4787710981911131, -0.6100922323946979, -0.21602925496763314, -0.6471034311523245, 0.3702603117927501, -0.09942279009489885, -0.7265940555131314, 0.28234948298445683, -0.04391521250904551, 0.7019049647142146, -0.1467006280904375, -0.4691372661179749, 0.321360119496338, -0.06813691769168029, -0.6580874736017084, 0.024957390901759857, -0.7399964317525497, 0.5193217410232627, 0.560726193663009, -0.6950147217582372, -0.5658479218594966, -0.0170396194015906, -0.6678734474110064, 0.4584584231567952, -0.40288239347239135, -0.09267143059105276, -0.718256455859358, -0.14796291502465242, 0.6419178261678664, 0.7769650574720328, -0.534196837056947, -0.0748836315808038, -0.7909754227730247, 0.526045730858433, 0.6829171174843656, 0.009512596594961509, 0.05103507281490349, -0.5124062990471554, -0.5812034573943015, 0.09131463179772381, -0.7339659520064817, -0.7971530144803085, -0.08856162786791799, -0.3674735361022247, 0.27547594899583094, -0.22205756863465442, -0.38660435945327853, 0.42169104867484175, 0.6364805852797006, 0.5516360679380246, 0.16680578447586747, -0.6757530056171315, -0.7575029776264511, -0.2356565516156398, 0.09591324217672847, 0.5549327688258534, -0.6196468778894343, -0.5046543223710375, -0.039115173272857406, 0.49611512790613266, 0.27577096590744077, -0.4384309188956991, -0.2942203555458587, 0.33748154805450215, -0.22650907445520352, -0.4520906188044011, -0.627402854453398, 0.5140983380319033, 0.062209064505110434, 0.06563372455372485, 0.242389636802528, 0.47139897991423996, 0.0685957925104399, 0.31195584680085053, -0.19651164892648132, 0.4872297694911396, -0.49127438996947215, 0.2304431698924072, -0.06404616637961846, 0.7326419213005575, -0.600689247612388, 0.048475958332920954, -0.6595749282738774, 0.45468249896298474, -0.3048065234159738, 0.49454200973966134, -0.6713964972227044
-0.26988009733718943, -0.6260705964685288, 0.5404415770999587, 0.2036173865558064, -0.7269602199620838, -0.28279661740834805, -0.6087793324108048, 0.3294316977073739, -0.6035735437562604, 0.2414544783998378, 0.40659264423639474, -0.727798777396378, -0.3598630255793854, -0.6518742487723648, 0.22644211807619774, 0.049088546055516824, 0.5661420036030367, -0.6692554372524164, 0.4295665589380091, -0.010824376361955546, -0.5140948896908832, 0.14068872757119022, 5.765132675150664E-4, -0.6772341630744849, -0.34949242400405023, -0.6298461666233224, -0.1619184635076596, 0.5970915862170418, 0.6109898686581365, -0.3382540085920216, -0.7813359840856627, 0.6661319411990587, 0.1829424409839321, 0.6431853949250466, -0.3172951920949668, 0.3163086519805398, -0.7740581284355827, -0.3753293661816747, -0.1903117994768465, -0.046109936467643386, 0.07499055712721281, -0.3144857711180496, -0.79782488971011, 0.3939955626667788, 0.7376804424141541, 0.615723700146946, 0.49919706433426625, 0.05515592485560039, 0.2973644269233664, -0.5327358134200371, 0.3913849241882872, 0.17744705614527834, -0.06081955599780575, -0.3911981389988645, -0.7882905193983316, 0.4462766438638597, -0.15766291691521206, 0.1667887725644137, -0.6727265612199785, 0.6179674037038063, 0.4586312280033167, -0.42518605126241005, 0.4591565880004669, -0.5926591157247523, -0.17626910119133166, -0.7577940763030766, -0.7911209853846668, -0.7884298973056773, 0.5243188093779936, -0.7080635395136448, 0.47160845041351673, -0.5913691825701985, -0.029244886537517445, -0.4930635053688905, 0.4678023990115421, 0.7827440505939334, 0.5014801918045728, 0.6629977294092877, 0.026535802788539842, 0.2932650729352355, -0.02805996283807788, 0.3154969768821658, 0.5053296902416893, 0.11753612718576034, 0.05738073122263321, -0.7537586460003936, -0.6671429853384035, 0.46228333422138235, -0.6745804485170819, 0.16579595947260783, -0.7875343738343279, 0.05220016520883275, -0.3891360476624618, -0.694281853954446, 0.1260201466428269, -0.5315776641650061, -0.6481889262014922, -0.5758157734333479, 0.42912706365908093, -0.5763376565297392, 0.3226240495198509, 0.6875574612461073, 0.5303702910649797, 0.6248330491089029, 0.22594296931492908, 0.2795092994567727, -0.10125357421202019, -0.7119469099428438, 0.4824510949170093, -0.3716331249214667, 0.6450518217511305, -0.16501038826054104, 0.6836799968882346, -0.16757648038733008, 0.2745356148940796, -0.5864448875909437, -0.6503011604960136, -0.39798880096404565, 0.40969611365091296, 0.05003937067372599, 0.46009618857029966, -0.17380403244375664, -0.26634029637768586, 0.6538181544882486, 0.7032252133368351, -0.0889797114072064, 0.5061441784877247, -0.040155441922433255, -0.4847547159507194, -0.6747212671366457, 0.35557115239477466, 0.4081899428366851, 0.7570555418660632, 0.5288756724210326, -0.14754547317327604, 0.323965077074464, -0.2962208906295011, -0.5521234931671467, -0.3792460273486226, 0.7750135998917995, -0.10198178497505883, -0.3005739139756218, -0.3545537846939718, -0.25116688031800505, 0.5446634369772967, 0.05877059724917666, 0.7861279048682661, -0.1957584533664256, -0.2983967329759436, -0.40031792955650847, 0.30802711525955817, 0.11736867640329485, 0.3472414422764676, 0.7286464679092077, -0.10663674146999347, 0.6556156603352308, -0.11770655140485753, 0.5722393258087226, 0.49755706345072004, 0.6772870771329413, -0.05010505058110015, -0.5338245864183822, 0.3663552313690368, 0.2686639598293936, 0.6346179754341299, 0.03358101615628528, -0.26850343704539836, 0.1943471579183631, 0.32755325963495974, 0.729100128720477, -0.6458909177749046, -0.4492363324913951, 0.2211790233445361, -0.23549108205988567, 0.18659030151721878, -0.22320836568941882, 0.12429974289431733, -0.17942601810089243, 0.7752847960241553, 0.6895206224488202, 0.4639006650730526, 0.08895376362741203, 0.4278360719829901, -0.6227716645499752, -0.4326741449004745, 0.7770044576207804, 0.02065246025751255, 0.7957151918979795, -0.40524914421975144, -0.15258603052468234, -0.1765113875415254, 0.5782030570771362, 0.018483083448140314, 0.45365037481643333, -0.7302926151487882, -0.5169355232956441, 0.32218555417087424, 0.6712737783696594, -0.7976511803266568, -0.13228629910753253, 0.019682327200611582, -0.08577709738835682, 0.7776957437320835, -0.008948982468581668, 0.569566027301055, 0.0642499710604344, -0.290411967979454, 0.21091613659090003, 0.2883911330422315, 0.630740757533409, -0.510700051205488, -0.14293207143587383, 0.341798318798497, -0.20278224055753646, 0.6173574185041322, 0.3242708460273156, 0.1194783518810153, -0.6001109575446819, -0.06476533429556974, -0.45586972783725754, -0.6235541310916486, 0.5226652655553736, 0.4464325634673463, -0.14161815319897708, 0.049656743558162963, -0.5178677574181242, -0.4319974965692792, 0.23040304224345176, 0.6355643018636463, 0.3150272118722812, -0.24485670474961996, -0.10422391551154109, 0.44077286981532193, -0.1301692685177981, -0.506939724980408, 0.7667954625535074, -0.10549076213728859, -0.7568526900021596, -0.4481614732146755, -0.6301250303745989, 0.43819512386038784, 0.1906117435482504, -0.04835491200024011, -0.5911283542448846, -0.31603334224754803, -0.31888034852006214, -0.7128636887502214, -0.3885930718388396, 0.5605488196435442, -0.04775632287032816, 0.711510816227066, -0.07067233480728097, -0.15854428789534436, 0.4637589812463565, 0.3822090834424503, -0.7714884671604019, -0.22295044126592156, 0.03526474432511184, -0.27817534736926997, -0.2827147836118945, 0.5285545875887134, -0.6070500691269546, -0.7506460080210178, 0.32678485908981925, 0.7286837383050313, 0.3396153204401575, -0.2115261940882185, 0.27065145522177625, -0.42990128563942864, -0.19887499125119223, 0.5610985909945645, -0.5244834982488331, 0.3494870724092727, 0.6915241865476269, -0.1739677328464786, -0.7122047505503574, -0.028398370651932958, -0.3218783253174435, 0.3240912361678989, -0.37363228259856546, -0.4558294258204136, -0.2831012069792064, 0.44263791205034764, 0.7647900623227224, 0.6711488401151411, -0.13233181127041216, 0.7140271809297525, -0.40925871641499917, 0.37834423932711747, -0.412530751282843, -0.38597031409913785, -0.0955269506921882, -0.017986247512456033, -0.5602515455053393, 0.6278594911730095, -0.3179075675785617, -0.3624116326711477, -0.6540634667678555, -0.5970050894260563, -0.7564294729278425, -0.01775305162408891, -0.45490425065587203, 0.7095451425182231, 0.12943146181223197, -0.788377298926158, -0.083625804174013, 0.28047666324949505, -0.7958599963025179, 0.5074875551137443, 0.6580652637616797, -0.394423568269457, -0.3317325109854785, -0.24017707203181637, -0.49386568737547876, 0.0045915880076321525, -0.5244214164205507, 0.6032474801462313, -0.6858642881712577, 0.20654736300720566, 0.5152440570878605, 0.5143350689754076, 0.10550716835295049, 0.013807648993651278, 0.033447590270981875, 0.09291850408497981, 0.44828970856644745, 0.23100534338726098, 0.7327155702248216, -0.32296247491006336, -0.20861507839662952, 0.290531912051176, 0.6013638763766116, 0.7177515396903338, -0.5594768119588611, -0.4921621639182108, 0.18951554265280512, -0.13339949098197246, 0.34117911328575223, -0.7486411231702172, -0.637792610425096, 0.30505913460088774, 0.3747334745238313, 0.7134444847902188, 0.32416607819225196, -0.528106426682756, -0.7367578538670337, -0.37977135244273674, 0.12489509432734613, -0.5791098441769341, -0.1827633260037549, -0.08005594022222662, 0.7167789333493859, 0.7679904024852136, -0.24995748853696043, -0.7592547381729648, 0.752971354792541, 0.36342734040972835, 0.22116353337759698, 0.5106667268587306, 0.6758977598426179, 0.4510214968022137, 0.460344355985457, 0.5839055503953892, 0.061264818899446793, -0.44664247943151597, 0.6629844705275649, -0.3808185211813928, 0.046531843677948714, 0.6481242849671383, -0.5633597530568303, -0.4925125235677419, -0.013138388924709865, 0.3774644089264314, -0.5825864934748783, 0.6481087655037256, 0.24563128237944865, 0.45874120988488576, 0.4640885986049377, 0.6233493166572976, -0.5593551144971878, 0.3416940978989491, 0.0769409568926992, 0.22396800713919918, 0.5312536671506376, 0.4835151935145019, -0.6227956080979837, -0.17111137911596574, 0.6456508454257035, -0.4100567338223835, 0.5222451020234655
0.33650519309479443, 0.6254705907120375, -0.17536626814397793, -0.18543325700609015, -0.7727605622233217, 0.5565508075936332, -0.3975408761629877, 0.5382737010286687, 0.38127827351621724, -0.136252410729916, -0.33425104759488317, 0.06446278760691337, 0.7582472193850578, -0.6201540408774652, -0.033362453342013154, -0.32072013240875336, -0.2785720876604868, -0.40948023543948087, 0.6901280651872344, 0.12332254150565558, -0.21737835889646162, -0.4042868924202099, -0.5640011416950259, -0.3273850081350238, -0.10047096982233283, -0.27337350371496894, -0.6131555709009788, -0.1324058054563233, -0.4754768994262191, 0.6253877604359679, 0.13065887057560577, -0.002030478841584582, 0.25525445368185484, 0.008549790276610736, -0.117067418493213, 0.09037915661438967, 0.23909130391775046, -3.789326989107611E-4, -0.6202047583352007, -0.3651701314803793, 0.434958684583558, 0.029895512987067385, -0.3096986347539572, 0.42496879797411746, -0.16229705538543526, 0.4709127778649924, -0.17748435065724932, 0.6762985963293509, -0.7783275689129545, -0.42405928227581546, -0.3253801518575511, 0.025510052259795635, -0.1382351880804178, 0.5719355611586572, -0.39117631016805954, -0.4968319734097339, -0.15824326915338882, 0.05749744233873422, -0.29757424611211014, 0.31104989980333064, -0.038708087941113356, 0.026400842319289075, -0.44306745393781455, 0.22449790646173673, 0.30446759880692187, 0.2503431017615865, -0.5772934894644216, -0.12079124519491757, -0.36547902182591674, 0.6186158421652617, 0.5231760219479269, 0.6909472390294491, 0.5306805417408116, 0.7464669133377444, 0.03920307652227595, -0.7042672856361849, 0.7848087257529095, -0.47201748779448194, -0.15923264408441828, -0.6128904868892683, -0.7729744014184938, -0.07661688983322379, 0.1296863763001712, 0.26617499094880803, 0.2510657182786682, -0.2653129152057133, -0.7163440293911871, -0.0908976638455321, 0.26168214109525856, -0.16223963152445364, -0.23154372101115084, 0.09595573529295065, 0.2679750687037652, 0.10283189665095605, 0.6117313918275744, -0.26633940325184857, 0.6980841059123044, -0.750382379892802, 0.40831358393912853, 0.3450512746273149, -0.3877535519102983, 0.14725790743274259, 0.35362519696359684, -0.015016137232268578, 0.24278528585277326, -0.6166636920384774, -0.4217459236086121, -0.6164380386848936, 0.5911552111443255, 0.49030913050562064, 0.6833603809602491, -0.29441267950326633, 0.2637346720725193, 0.4317391958660255, 0.6531358919805357, -0.24559099884560764, 0.22961657355688736, -0.3852118752221804, -0.7529013218056462, -0.6625929796450477, -0.6647877501741162, -0.7905147457289812, 0.7515690744563168, -0.7505897687321124, 0.012045234987223319, 0.7193530137228299, -0.40376490282232036, 0.1194086511166963, 0.6656746314029776, 0.3620312935317156, 0.21827790972001337, 0.6049848234585464, 0.13524982232595195, -0.3173938777903903, -0.5169093762918028, -0.6920495705550525, 0.7647610124850006, -0.4635901457502817, 0.7471861007181992, -0.07626329586469605, 0.6286126782122232, 0.7421235170949725, -0.5245479009706855, 0.7261500537980858, -0.4942907949760155, -0.2799266768979214, -0.39852576619364144, 0.7281671077620844, 0.0978047866584213, -0.30532342068334, -0.45378987866117737, -0.25149496600386656, 0.13943198255096312, 0.7540549161185657, 0.5868602806159753, 0.15276599532977964, -0.7517141518315846, -0.3761055714741449, -0.30565562940358415, -0.1729824743248528, 0.21650333604688443, 0.026695579923789348, 0.43435259795883274, -0.21926782932120725, 0.7448394511708363, -0.2383819700255847, 0.25350674005529106, -0.3349272217390853, 0.3733051266197762, -0.44581243980681917, -0.7512746289001075, -0.3684273512840502, 0.5633934117586132, -0.7108042058673156, -0.4555479321426509, -0.6546786399046628, 0.738583673517833, 0.654184462699855, -0.7210328092118264, -0.19416945193028623, -0.008624544946093105, 0.6849703424230515, -0.2724335651150156, 0.5178155925697732, -0.0833332243571332, -0.18127267165432104, -0.13304818469267377, -0.506807663591132, 0.6328537022222898, -0.7757932378549349, 0.11174326328335893, 0.15464979661505807, 0.7035905501217108, -0.20726241532561596, 0.030581819856253523, -0.5497765732127597, -0.42528727941916905, 0.03771239352606537, 0.7758570268740721, 0.17735419927696439, -0.10761325892790263, 0.6643260972368279, -0.2623450167762835, 0.053983298946570835, 0.6701142789588574, 0.5353978878476231, -0.24091539478167212, -0.33670685915237186, 0.7237798701996705, 0.17316874223186862, -0.6732968992116893, 0.23776894128430603, 0.6954937922536912, -0.398970336971745, -0.5236758716867005, 0.7373168461561896, 0.5385450373347265, -0.7568016920815204, 0.13105356256583778, -0.18476234371179867, 0.7373413470006371, -0.6355761348385016, 0.014961903963451428, 0.4549173408845337, -0.6122247938964538, -0.45413703259137006, 0.16236363567497314, 0.09915846621888724, 0.7650183753460145, -0.6426683117915524, 0.5692365714757133, 0.5831381937438858, 0.5573091285498473, -0.4997990007936597, -0.09012260344740963, -0.27895735075766415, -0.25414083273426624, -0.7407339469445215, 0.2684511094830524, 0.38548800972705854, -0.03743050508025492, 0.31598181928850755, 0.11165526421057648, 0.5579029885003219, 0.058807704292697216, -0.3604802276823728, -0.3447175504872867, 0.3171082016580622, 0.17006066236548278, 0.4861638474788619, -0.6459738843717129, 0.6723920616650236, -0.6371604112789648, 0.10162507096813067, -0.32956123717998803, 0.1364441188679143, 0.4017772534741517, 0.7349182109479748, -0.24448771972058825, -0.42743059619463397, -0.12358091336576427, -0.5634954704300483, 0.19991449396903604, -0.6603292126049676, 0.6787724419348662, 0.22746929634876434, 0.5914769776548852, -0.10245245075383025, -0.17575854788417045, -0.4094366440474206, 0.6410928152904816, 0.22412185178095578, -0.5398635347679115, 0.4480015706529332, 0.1157445543852631, -0.3647330836220748, -0.5924897231916773, -0.34502667370869844, 0.5439460167723493, -0.1130271105867241, -0.26636451894017676, -0.048117331081174664, 0.6354432636381306, -0.22135018472037749, -0.345999955900027, 0.08239776499042661, 0.38358330285793785, -0.5345715138112346, 0.5142603894328441, 0.3984530392839487, -0.5046791877362597, -0.07361680359448108, 0.10415395397017524, -0.6625918453328334, -0.27960352505592734, 0.12466311196033053, 0.7069358921617563, -0.12936791619199683, 0.22778243028538214, -0.4654197824575224, 0.08946661364753972, 0.7868421390283151, 0.004053054500508857, 0.4997661501360262, -0.5103602903087238, -0.5124095701914261, 0.12490177165418292, 0.5255709506235717, 0.7594022203950901, 0.03635290196904761, 0.4775872659988003, -0.5020594165480482, 0.17318185741973235, 0.11673875907341213, 0.48865434126019025, -0.6399281831535, 0.6130976766045826, 0.11939988834177928, 0.037838422650648185, 0.7672057498919131, -0.7061057051101699, -0.008716753176023717, -0.18437651706192304, 0.2789840120778595, 0.09210098933301203, -0.055068876094231944, 0.7084873129579528, -0.4621461265685376, 0.6954805281035996, -0.36040307083223166, -0.6275706016802997, 0.22107085669876625, 0.7903946448028143, -0.589993412694547, 0.78193992841879, 0.1429106762908402, 0.35627539490506477, 0.13265794498380412, -0.18186966279782024, 0.322763890798496, -0.3620455350290966, -0.6163865004444026, -0.31369104842239576, -0.6761502822302164, 0.11816510244164358, 0.25580393521596667, -0.07015315348375561, 0.10634806610414849, -0.385906804386314, 0.7679224951231332, 0.23374297657306853, 0.4278107305859422, 0.07341735325716081, 0.21105286602563456, -0.7121416026225553, -0.3372241563679225, -0.2531603927854448, -0.7567644718371508, 0.7063533687719636, -0.7974281260287704, -0.2343284067353063, 0.65624035748057, 0.7764228600724674, 0.3353599881654348, -0.44539736771762845, -0.0971248186683672, 0.03598865219602376, 0.6955259002664864, 0.36133963538464964, 0.68722331931523, -0.44343141246247986, -0.3894045234890605, 0.6863705693689122, -0.4157349494335657, -0.2658933706466782, 0.7629100469804218, 0.34766598876148636, 0.3694001065697081, -0.032891078470068336, 0.3223602748764396, 0.11669553306488356, 0.3024520772644901, -0.572005746688639, 0.4955401874950123, 0.11369889836299518, -0.5752031821714697, -0.18987017619667879, 0.2757449135642873, 0.05171314447969766, 0.7923197979161689
0.4107328660879801, 0.12359217689111124, -0.1460468351010238, 0.09505497357047887, -0.5266883090998016, -0.691826718916328, -0.370501866972317, -0.4151024961016068, -0.563581607807922, 0.003470022891883473, 0.6968020355294857, 0.10148677844403209, 0.6459795954969156, 0.20190503960136907, -0.5032497224336034, 0.394605357827845, 0.786762180934369, -0.03552755588832657, 0.6478029620119727, 0.25994284407206925, 0.0704076925522712, -0.16735481013054154, -0.6212005626379572, -0.5368133119716467, -0.16305499618114072, -0.24061219659594213, 0.17799959191435344, -0.6646090086745886, 0.11318906250757854, 0.5421360600522513, 0.7838018681064294, -0.06423335379600559, 0.347996952333012, -0.42033281539794776, -0.25586106585114743, -0.25790271157622857, 0.2709137450081651, 0.2638472592185055, 0.1231167556034718, -0.2569511266193356, 0.597304562481185, -0.5436955249966469, -0.06497710189419892, 0.7707029811711745, 0.1296306320811368, -0.510860660185015, -0.06260593833640105, 0.32570645235882534, 0.6810900933247221, -0.4321539749390807, -0.08360498279442408, -0.18850765730708885, 0.17440706838570397, 0.34368121987697053, 0.3493225747656954, -0.59191034726387, 0.4451139658227372, 0.7617787346298577, -0.2693874638517215, -0.6198976143618702, 0.5052362260569592, 0.480371874316039, 0.4992883119836282, -0.5725001710392847, -0.5001506046461053, 0.19554713769580057, -0.39264654894523743, 0.5519237883681609, -0.48445795847783746, -0.7049845960837257, 0.12019285243026889, -0.37472013696369455, -0.02361978770770201, -0.196550365683007, -0.5583912586167469, 0.6114431793924349, -0.21046825395236812, 0.771000480137314, -0.19231800094443763, -0.594029070427572, 0.27927077288756474, -0.7043366907829691, 0.395209728522109, 0.32277690643247503, 0.07464617078595293, -0.7407665468306732, 0.5420343848143452, -0.6292143232223394, 0.49265896674313514, 0.19564792683483745, -0.22185930734539472, -0.5723537921218249, 0.5853576315839564, 0.49957548952909536, 0.21796043196138948, -0.36835207704570955, 0.4958215211661148, -0.1778214458102505, -0.434113400650209, -0.6229561704296653, -0.3054344614416124, -0.6099666514926224, -0.26143851685483044, 0.21204864022722614, -0.5555376178149551, -0.6777426820782049, -0.29093408749678085, 0.7028418497015936, 0.46883964298808123, -0.3900454190107661, -0.3703012379606991, 0.740968289302756, -0.7260266394120212, 0.6611540925719768, 0.5915987146304, 0.4355912435278231, -0.49623927917737803, 0.6034760327808302, 0.5310230193039729, 0.24611576574807836, -0.7190823560366835, -0.12417414839773999, -0.6063401868864432, 0.17476248576588138, -0.2843905244158812, -0.5705232660123749, 0.5199138182815117, -0.14726632411974072, -0.36101414814613353, 0.297965086187455, 0.7156671130091734, 0.6176779011837328, -0.454347672526175, -0.6157156215574627, 0.2245793996648966, 0.3942197139974557, 0.10567493698336339, -0.5470727979073722, -0.18044486232729218, 0.35338514470533466, -0.5667243775212457, 0.1033859144453333, -0.11743367011711991, 0.14081513458045813, -0.22406054530616648, -0.2592133559828632, -0.35641641558269266, -0.47227770496135585, -0.38578320284019374, 0.24839191572806651, 0.10092952673358957, -0.14739125586758095, -0.6609342222655968, 0.6057720272677274, -0.05306864325344307, -0.21417583035320098, 0.5001438779444756, -0.514494996431698, -0.7256874534967859, 0.3631081334614863, -0.3049812095391321, 0.7003302764812873, -0.2596747667985676, 0.29832019009874733, -0.3041679467385503, -0.33825818984898515, 0.2171876889808355, 0.6996267538881429, 0.7865111985122502, 0.5500693479248902, 0.15895422232886536, -0.322526391724826, -0.6898117675760567, 0.6851594812775701, 0.5665065079408123, 0.3467376641122999, 0.10304573904218695, -0.17416973772960564, 0.13391875189116464, -0.4104878517153699, -0.7826267763312584, -0.18466451865399647, -0.48898946615671246, 0.05904354065905082, 0.31317981960399677, -0.2708622498101406, 0.018465110014464714, -0.13060006582963946, 0.32427143197884045, 0.2703515198870776, -0.5965481931128749, -0.7704867339618178, 0.6812628588463379, 0.5972798919621054, -0.07474496258603103, -0.6556988721884672, 0.700558364747752, 0.256531566594155, 0.41197406428666206, -0.5803652290171435, 0.12489629819268089, -0.365733219386655, 0.7309205665290801, -0.6280154608680144, -0.17238426137500207, -0.4728165014080345, -0.43309642806079296, 0.05763421840491412, 0.16936635500571529, 0.4739178626055509, 0.10415366099924339, -0.49957990206357333, -0.5774558224223624, 0.1765947879566847, -0.4407994483569665, -0.08898799586555772, -0.3447007162458821, 0.28132833130242085, 0.3135816453832665, 0.6548163898825612, -0.7064763349438485, -0.42446790490252617, -0.5531795317858373, 0.7396444580672419, 0.6557894421804555, 0.49896447756611795, 0.17167715600884337, -0.3416503190071586, -0.11722839083069303, -0.6455053127461805, 0.6252355196943069, 0.335702829434227, 0.6592498216992893, -0.2563621398853012, -0.12904645674959525, -0.707165448874145, -0.4466514235320331, 0.34097189342576106, -0.5816334394064836, -0.6433621919928432, -0.7257645298455305, -0.23939174040194755, -0.13130443523158897, -0.6944144286260615, 0.6760616605308296, 0.1569543838611196, 0.44617466887164836, 0.35748105766637384, 0.11248940656004591, -0.25893418453593, -0.6235251662660506, -0.2312792462255946, 0.5727155051892727, -0.6170505980296787, 0.5251633853044397, 0.22871290821461487, 0.10646115793055677, -0.4907581076596511, 0.41070092253443224, 0.5971561725381975, -0.22803892028549277, 0.19474970103014078, 0.4580408001755183, 0.045946549374327406, 0.5175482211599305, 0.4853988961892197, -0.23954287893197646, 0.6315420441089674, -0.36600814374458024, -0.6207932215368177, 0.0687918364471829, 0.7376784569780674, 0.6913097813525231, 0.13094888498462343, -0.3711282617983351, 0.09239029706564172, 0.20033799945025121, 0.43525764745448203, -0.5605891538953302, -0.22264449742222403, 0.01590343063989741, -0.01804860317557966, -0.6957256372671596, -0.5883566649440439, -0.07499205568087586, -0.5335443447544513, -0.6954558821917791, -0.29399184538256873, 0.33999437385894393, -0.22276029158257804, -0.5826126832211399, 0.647934488690231, -0.6567722779789394, 0.7712553627276044, 0.36029278209645943, -0.30829957494934135, -0.0936126951587154, 0.18742655482610382, -0.4591976979406809, 0.4917898238201033, -0.06597207781755099, 0.03730102907909827, 0.04342572419632318, -0.6679541138987002, 0.6576309522895096, 0.2510381776973527, 0.6869922454978619, -0.5329790442544775, -0.5670716466426271, -0.15403086669822952, 0.1372525972924059, -0.49395969623983993, -0.03015462829817417, 0.024027863992423404, 0.6611080942694012, -0.4654401161603032, -0.3490296977523068, -0.6065850109997183, 0.5604072973294743, -0.11853932236783693, 0.6710217081392993, 0.14891783052752938, -0.5751889922067058, -0.4950152310413664, 0.056346536689800275, -0.06562705749370079, -0.10520880650122011, -0.5159194457658174, 4.475663678105146E-5, 0.04982041368045098, 0.027389613352119313, -0.3340126298982652, 0.37487879806384616, 0.6549606994501418, -0.39107325033670404, 0.7349518921158698, 0.1626882000237746, 0.059588099067535594, 0.6604122840784692, 0.2310317183411874, 0.6655931784718874, 0.08073742485295055, -0.26702860884384394, 0.1620032147735223, 0.3408323145145298, 0.3853422180582229, -0.6078351429920666, -0.5845456727459104, 0.5276429256849517, -0.6737339931295865, -0.25835888028082354, 0.5922042462828161, -0.7888454407245755, -0.1813691169477124, -0.061876691133692985, 0.546255744372711, -0.5051709168736105, 0.6924287835540681, -0.39870511265414754, 0.03054696827623593, 0.6295427330405616, 0.6964654996288473, -0.7762884192084473, -0.3881664597689731, -0.5260312656108235, 0.31774756383558156, -0.4625715192228226, -0.7679070763577734, -0.4625192794070168, -0.1805133936937372, 0.2955946299422145, 0.2579066229694349, -0.7166392530454222, -0.4100426029278861, 0.6788291777541884, -0.026662781828149518, 0.7466569532568028, -0.16649191800124985, 0.1377566250114406, -0.3641189176358479, 0.547599535628368, -0.37591570945107694, -0.4653600136197687, 0.02913860445559524, 0.45804559429672653, 0.7806907699320607, -0.05138571984818496, -0.6900926083614494, -0.19501398681464954, -0.4867231819645943
-0.2904247486840079, -0.7263679435089472, 0.6132353559631178, -0.3537330956656817, -0.04322485810567189, -0.354169987874249, 0.24891905486654853, 0.47039050973232777, -0.47526659783480824, 0.11981538765537714, 0.4723476706650789, 0.7671872495634315, 0.4952530995587483, -0.005963442836267374, -0.6090652479536541, -0.6958798517050447, 0.5045287048746632, -0.2706403961758336, -0.560457658592945, -0.4414959926862155, -0.022006253795351816, -0.2818414715952031, -0.6938195450838848, 0.006091030812956033, -0.08876062505105897, -0.4677476362439443, -0.41572978280094103, -0.6972144262932315, 0.23963076905747038, -0.3494808492983742, 0.7636295064432403, 0.16109907223302433, -0.30918938584525935, -0.11892093416011051, 0.2489012549341152, 0.5620191508961676, -0.28415775233906637, 0.15700219484171074, -0.37929164171498864, 0.23202913875117748, 0.44630589580539026, 0.09855846550192005, -0.06862020044599026, -0.745922986498276, 0.026225977425580638, 0.49908942821033064, 0.2536573638185702, 0.27035471681769163, -0.28073167547922573, 0.7056449466952188, -0.2226473307838276, 0.3738119705920595, -0.10679056648318319, 0.7295896970443037, 0.4754885881333901, -0.1256088073188888, 0.7352421752365808, -0.16355313842373298, -0.26198019994180644, -0.5349686148321553, 0.3532451623294195, -0.07169052540577392, -0.002208331897572968, 0.10155347830930095, -0.23029539701218693, 0.24621159821077443, -0.35004262199005204, -0.4503997603760794, -0.7834585360765115, -0.6160852845266241, 0.09263706883662004, 0.04086715192334811, 0.6906575209519992, 0.5186268261764775, 0.2931641301613517, 0.4199233124760713, -0.46842200366129205, 0.5282341008505038, -0.6891726714354919, 0.3519836463264887, 0.03412962635613093, 0.47868825803987947, -0.11642047703623448, 0.0010559653940470648, -0.38934339376373633, 0.6292538127879137, 0.11274550711142672, -0.7230504765083201, -0.0311615117137386, 0.017383793807203896, -0.5436745423154035, -0.11130609615023501, -0.22726270903334866, -0.7509465663760312, 0.06805170420141005, 0.6309792122598865, -0.29373702497298027, -0.2655558640129865, 0.5959198170024542, -0.430708053135918, 0.5598094892243584, 0.07293371666879955, -0.7195230299553723, -0.7215178106339153, -0.48762433921139775, -0.5945904364491714, 0.16971334587405684, -0.571438319597011, -0.4169518356867162, -0.4840146646457349, 0.09396500951725228, -0.39940641274559696, 0.6772855252112893, 0.2792635127128611, -0.07920131452353074, -0.5454020535398879, -0.6449944433231694, 0.31334915445115064, -0.4635883896360376, -0.33954089838896134, -0.4009593072065954, 0.012882140215253246, -0.4233575407696488, 0.14188422119030464, 0.46408760480030353, 0.7004181199317547, -0.6427486496559788, 0.5725235277833074, 0.13784139450255029, -0.15144923262055587, 0.12968959925659518, -0.2975729393711305, -0.3524343153581018, -0.21076972602996524, -0.2848574968117614, 0.1820733102553842, -0.0030868271026014416, -0.7592039174131717, -0.4538091996488971, -0.30973070218760346, -0.08062620081183558, -0.6526967818448919, 0.571999161845955, -0.6387170053672527, 0.08629000041992785, -0.06121451079258011, 0.3595021586998608, -0.454367865927037, 0.3089404496996857, 0.1851602347450887, 0.04962120086613164, 0.02801559675708787, -0.17424225058209952, 0.330542321667606, -0.5958921295018638, -0.6350637029202242, 0.36730590436837396, -0.24120248119075538, 0.2051719904613536, -0.006373138149797897, -0.6567921614704559, -0.3447723628172444, 0.7466153218773199, 0.2029519434837712, 0.596774680077641, -0.40665711394247045, 0.6817535423454466, -0.2539765597704463, -0.4753490901352853, 0.08973848601773415, 0.4699729327032891, -0.38667248549796335, -0.439646941082825, -0.465843935143432, -0.509670606715833, -0.1257751309524766, -0.7278593403622722, -0.08412757395230108, -0.43283933022466015, -0.2662523843117722, 0.027221848534241366, -0.5683797899455186, -0.22075472400153395, 0.24067973230397333, -0.6741420014487812, 0.17430874476589087, -0.7993968252429533, -0.7780304787415325, 0.11049419605230104, 0.4658747590345613, -0.5524027246075915, -0.3924146478576642, 0.006605175828130583, -0.3883444296147227, 0.18355555349831754, -0.05101106549743917, 0.15350862887608208, 0.3177399709549886, 0.05869777008475463, -0.37653827061419887, -0.16503980183673517, -0.4731859138007153, 0.13971190321021942, 0.5555843781523624, 0.5209072870859786, 0.7920826854690841, -0.090111130862781, -0.12377085407154786, 0.7833412370961421, 0.5229083741973837, -0.2027137215550957, 0.5784906435813415, -0.5492507534404624, 0.4998733915437803, 0.5149537989304862, -0.08096017492715946, 0.7172314395231092, 0.7710323047565586, -0.12618329121598448, -0.7475489100603124, 0.5239089571275615, 0.00518489368932773, 0.1553754136391955, 0.5751133842939378, 0.38181358451092917, -0.6079374413119153, -0.7920586149376203, 0.6943988763920685, -0.29299003091605424, -0.7566175364378704, -0.24330686935706736, 0.4278262977070162, -0.10973467700512374, -0.6372119817113234, 0.3943978773698791, 0.7760169543251672, 0.7251437220172758, -0.583245082132237, 0.346206713305915, -0.19769474230852957, 0.06996402629105702, -0.047394301520031545, 0.7784947758396699, 0.19092731992462453, 0.7206235573623736, -0.42616219009266043, 0.5482783574344825, -0.6552256927587996, 0.42285223034548736, -0.5029670817564136, -0.13369375208315193, 0.6227587698629957, 0.5540237167188848, -0.7213226945335548, -0.22651803123868586, -0.0940939979576434, 0.25621311888216125, -0.6857139139084367, 0.20683893887851412, 0.5203437201029883, 0.10375371383275489, -0.023713914638107125, 0.3578505036399604, -0.36557346654628375, 0.340106090619253, -0.028824355192717532, 0.0024217212202625182, -0.613705870740165, 0.12041785420860296, -0.3394597612638194, 0.7084704629544061, 0.5872245587905494, -0.35228756215879325, 0.7045677518524933, 0.10356816075442621, 0.6852060255643895, 0.5922095630721866, -0.14923233312920936, 0.7116746617667575, 0.7622141588453244, -0.26515859200649317, 0.4046619903360744, 0.4445613824909993, 0.6777430245777372, 0.3775914996647862, -0.5167219059035235, -0.5399178617898748, 0.6602015140740416, -0.6851538131702064, 0.5663358180703078, -0.22398821172791283, 0.48684887314071523, 0.06151010530973655, 0.32408414460899126, -0.6452640692408647, -0.5179943640649644, 0.38520022975019685, -0.18519498615244834, 0.15063751188660157, 0.7023388225836118, 0.7913958850980247, -0.6909359056316472, 0.6385885052966702, -0.33291712406073837, -0.33801650821852064, 0.41185119801187664, 0.4185172887756663, 0.630119854758511, 0.24919855939126245, -0.3821841119796826, -0.38241509454181666, 0.47990546545239576, 0.2785291139680801, -0.45113501687626184, 0.18806611481353763, 0.6922898619427782, 0.11570746707742408, 0.6874527081530737, -0.5744067234580339, 0.1503439399379849, 0.7044800570200072, -0.5670439655519538, -0.6910164022278432, 0.48436581609707985, -0.2165929875712458, -0.2274102535675251, -0.6105665555659083, -0.7256968119179623, -0.15849398651098245, 0.17237951397523688, 0.7334248395123366, -0.20410936486422138, -0.525882545949272, -0.3422275003083911, -0.14974712202867324, 0.1808630166091023, 0.051930315816686834, 0.6675285545384335, -0.5883557825740768, 0.7006691989256093, -0.48232930335874813, -0.07140348530061369, 0.4975003943256615, 0.5721719579512656, -0.12348272118583703, -0.4862562959894298, -0.5216386094280028, -0.37711686077602435, 0.5478712529187735, -0.7922315602322781, -0.5282525515663116, -0.6576545619222302, 0.5976693243684101, -0.4778118125576789, -0.013899540684886524, 0.28533448672397377, 0.17199250135470978, -0.6376414904222222, -0.7073927173920211, -0.7183823603859424, 0.004284624957966443, 0.6650401536223587, 0.2417514966202785, 0.4460682881755722, -0.3299421055310765, -0.11150540443378765, 0.4680013839630337, -0.22800274035358847, -0.08547532662234203, 0.2512507419998582, -0.5973952996802778, 0.1296242886709802, -0.5198424824949786, -0.1202527073991918, -0.7589759854489584, 0.180677343726954, 0.012742050339067168, 0.3391190291624091, 0.5881074216269773, -0.5408328635874554, -0.5739504550441608, -0.21454321774619822, -0.06934598849948248, -0.14255097407362205, 0.5568184768391524, 0.3919332749347686, -0.23640645564706042, -0.6042540916139864, -0.7567027310627381, 0.3652509791650762
-0.695066128652978, -0.21279040182420794, -0.6189977747547714, 0.5733645975452129, -0.03941644204153083, 0.08869445260618414, -0.37102480238188207, 0.41923894418639973, -0.40141400241966957, 0.4947354122998291, 0.11300034788741864, 0.6280167858418269, -0.5730613944523079, 0.7695392291968757, -0.6431704055750475, 0.7918132111985576, -0.5254529471475826, -0.2428581284015987, 0.7635497641195481, -0.16029848636298794, 0.04875894593446195, -0.791298736897576, -0.14942315248590154, 0.7971846193693164, -0.3739467210072782, -0.42994238955012903, -0.0020916435583566706, 0.17920039794714226, -0.48851839882245507, -0.7078898874642342, 0.5022614416833033, -0.23250855837572437, 0.42901873447991323, 0.41562165886192104, 0.38128517013655117, 0.3372316629406322, -0.5184561160431114, -0.7788751572321815, 0.6736002313146698, -0.4381350231291785, 0.4457356219339752, -0.7763335723149155, 0.5319791864238939, 0.639173378393787, -0.6562740225182657, 0.7311879013162417, -0.5914548204779065, 0.14565475805538086, 0.6599222013295216, 0.5744048723789934, 0.6824281924412787, -0.759647066493767, 0.6479666526957588, 0.6551078414864921, -0.418119216168205, -0.39665505075303786, 0.49936831472798016, -0.5511284599910546, 0.6044178051428355, 0.4081531853807949, 0.5219012574874373, 0.1372211860485395, 0.4401071902196394, 0.3914125051622914, -0.6975713503458243, -0.16663269452169005, -0.3452991686250908, 0.09718484528439075, 0.7053725967694813, 0.004682798960602974, -0.30914180869179975, 0.03737643273170388, -0.3153864595827033, -0.5158416996233847, -0.5027236105902505, -0.7762247560284128, 0.06316437457734969, -0.7978645258442048, -0.5028957358386951, -0.7087113791672582, 0.061527684841287344, -0.44132150525811015, -0.7414204178356025, -0.5539762574778027, -0.3677927432329776, 0.7960084073262579, -0.06760888098158202, 0.33591599502313363, 0.784406134630276, 0.6194863755124616, 0.47183104009725274, 0.6556730835886047, 0.059507785745696595, 0.0546944133347127, 0.6533630203369263, 0.061864165376879776, 0.7444982110154472, -0.282774567693706, -0.43320303096255447, 0.5880477482064383, 0.4870496455319342, -0.08914393221203443, -0.05417849354324178, -0.1861076161402364, 0.10254914498334267, 0.4588385962798409, 0.46120888980927566, 0.5563082673573421, 0.3399178304440036, 0.3121110526347963, -0.0994307658283633, 0.6146699197433703, -0.40037101491439825, 0.36728656920214364, 0.21009383603706455, -0.6837279591624843, -0.5261046293149789, -0.4336540335887568, -0.32471105728784766, -0.3277759847991293, 0.10555965693466507, 0.23901996199850783, 0.2692648764856316, 0.668050649741593, 0.5387827747329732, -0.21209063224619928, 0.7987075137644719, -0.4226710545418632, 0.061189300152936, 0.6054555017645655, 0.329221190521904, 7.53654831873285E-4, 0.2136899252507365, -0.6490664368569496, -0.7267046753143367, 0.3970867867178116, 0.07076449269855867, 0.40470619074226577, -0.7242910183565798, 0.18650842602809736, -0.42944892281773833, 0.45603541874015585, 0.4327505973580781, -0.32905073874217305, 0.30064988172596374, 0.569814925240085, -0.5668079834151376, 0.4300468416737444, 0.22211187220593342, -0.48335416159104416, 0.11051909481585453, 0.11543137021035665, 0.7406458428252671, -0.36025726647160766, -0.55251717539113, -0.3198919428929033, -0.28936037382134217, 0.47121865270232166, -0.7244011676768048, -0.35623380465638044, 0.38415341261730873, -0.7006396818518374, -0.03621650053565095, 0.6089079308535446, -0.006394065128094817, 0.32756769067769476, -0.3081200953020288, -0.49324893224742045, -0.21656291921437087, -0.24530630788482, 0.256387007488307, 0.5659245344650261, 0.08259193672172649, 0.6455834111297087, 0.5572696806858299, -0.4389647165168031, 0.6362352468058339, 0.44967384615546035, -0.4337113046470462, -0.4877494868629919, 0.2916663865403697, -0.13542188455568327, 0.478852905894694, -0.3289008055525196, -0.3400317043555971, -0.3693597052993507, -0.29704227923786675, -0.6582386464198922, -0.4485137528977239, 0.18151012922522602, -0.059662856091237004, -0.5488254195273742, 0.009794228817620931, -0.5351517171929517, -0.5334812685919421, -0.20464949490930562, -0.3546299401595551, 0.6863367974411607, -0.18196674793601342, 0.15335666728329667, -0.10323782536852, -0.180769842621882, 0.6465938373574951, -0.2255193632047815, 0.22359386117058966, 0.06074664448196465, -0.09837883346796494, 0.1081573028696774, 0.06231329676071451, -0.5943393747505339, -0.6459454534727165, 0.46030129751966076, -0.7478402254511416, 0.5465201504814112, 0.17595060974824328, -0.47625028335500463, 0.16537960380175853, -0.6010242302930657, -0.7580660412421623, 0.6445831553285204, -0.44771270487995274, 0.48976960258309243, 0.020127197486341286, 0.45015452881722307, -0.6616697852794289, 0.2339960844385942, 0.3717490669584529, 0.678718570584784, 0.08687731361557582, -0.03269215794394653, 0.4801334990108008, -0.6853826729097062, 0.5680154040161838, 0.2878034799377711, -0.5185167656645847, -0.15296149923863234, 0.6501985029675044, -0.3986042181889783, 0.7712354680049704, 0.2344275854079041, -0.2418417442977182, 0.7535219133905267, -0.5885210773256134, -0.42930423496316394, -0.5829532777347707, 0.26911905166570516, -0.23357614268952853, -0.6865710800098471, -0.07065600041183162, 0.6118523242413874, 0.24449032345554866, -0.3516349397034551, 0.007626954232781258, 0.6126433478867814, -0.7728592866890536, -0.6715291969169694, 0.2128569424079234, -0.39338889076176375, -0.4838534491015038, 0.7400088386604851, 0.3244076083092666, -0.7434012152475932, -0.4674585906184147, -0.5879481868824865, -0.705384825432534, 0.33052280722922234, 0.45207446458984957, -0.5000398585062209, -0.18280197126651498, -0.5611567819464724, -0.1364586513577214, 0.7374039814146118, 0.5654527624025425, -0.6724835936734543, 0.3879321503393669, -0.03442853574167393, -0.16730185435440426, -0.23914574584770276, 0.7978982126683365, -0.7877310778994945, 0.23399973784756578, 0.7177757887378922, 0.7286022580477511, -0.3923198846476938, -0.6952288794722059, -0.035999572884168884, -0.3274209347894445, 0.5876150073448938, -0.741590225777737, -0.14820602378011782, 0.2027955934226935, 0.04914013273314577, -0.3583115395613263, -0.16205887358661608, -0.130337038919078, -0.6124537611760993, 0.35318525206868157, 0.09968122653808498, 0.7693147702937257, 0.057670351242843254, -0.5334021556041423, 0.16740543583009693, -0.417971690348911, -0.5333476006142484, -0.2726495975522537, -0.1180227481446684, -0.06877169155850338, -0.7807308268106592, 0.26746372048709377, 0.6235999548434905, -0.38492434495915195, -0.79894947214682, -0.3897782809720212, -0.5517829270089205, -0.3857955527497605, -0.5015545675529494, -0.387269738586693, -0.4935045825910949, -0.2192644126400437, 0.7193679804337307, -0.7789738285965087, 0.5095009116037807, -0.23474459419401428, 0.29151591655114895, 0.18895734501117756, 0.6442423582140075, 0.24001176758759324, 0.5799167521231277, 0.6386172096761069, -0.5686819008447673, -0.3718580799670468, 0.5792191397045421, -0.6833210075133378, -0.4440343944142289, 0.5503091261597484, -0.2996906903480657, -0.7724617536472383, 0.6928745583229132, -0.3483125118905916, -0.21510436685111078, -0.7992656532184905, -0.21581242307131543, 0.7737970628767332, 0.34576576433275696, 0.6766837844069788, -0.6808253417366311, 0.5872532395599657, 0.5444845484743814, 0.17132156555757305, 0.30313066847754433, -0.19694185072450343, -0.017637566297573848, -0.0931916575282058, -0.20789346552356336, -0.06837734339017043, -0.6054132431268411, 0.3720242939884608, -0.6908514874122116, -0.7397283515210156, 0.2014718468140535, -0.096867047377728, 0.14678161506871956, 0.6715465982817164, -0.21515577200986502, 0.1510605792433788, -0.7004639990439214, -0.6738175867281262, -0.27835574600566704, 0.12929927442662803, -0.04062213860139252, -0.313801560053523, 0.6208859071388992, 0.2120047143968049, 0.3459683595940235, 0.4551047992800006, 0.07418030253032537, -0.22107852972710595, 0.13273709535247336, 0.36378936157564556, 0.3440901010341124, 0.5802317186767765, -0.7311809333406011, -0.2677883109134165, 0.17864533249174885, 0.7209857068362129, -0.414033971477312, -0.01140624762098752, -0.6455870648430193, -0.1586657377075259, 0.018606672470102836
0.2059301047255564, 0.567876801316183, 0.2598611650431424, -0.0752066615856648, 0.5629041502207144, -0.4881577114910194, -0.7332708676488734, 0.5470617856622482, -0.1343757586758103, 0.6452898452938285, -0.443951222463031, -0.6141474974069381, 0.6595960296717165, -0.781536949807914, -0.2709979592926368, -0.1643496305826062, 0.7037162497998404, -0.02182557875756841, -0.07303272283350515, -0.12577988496096926, -0.06823013207662965, -0.5422534684122913, 0.02549429196655484, -0.6947294580388444, 0.05301564067285869, -0.5623536744607112, 0.5236418165850469, -0.2568751348723256, 0.7985497783777624, -0.1957963832546794, 0.12989849456227398, -0.6074291819518631, 0.5216990651229632, -0.30212963284394495, 0.17247106505206344, 0.36612673480545666, -0.5877414050591722, -0.24346267828833223, -0.6617154787160815, 0.4200226079797553, 0.1859506863331596, 0.6234884696606897, 0.07160324790951478, -0.020742612800281224, 0.5620445651211692, 0.10363575405325898, -0.16025664408854223, -0.038843811473095124, -0.2563616118910733, 0.21573946031699998, -9.026165492043159E-5, -0.6040858442906837, -0.1333311886534292, -0.49761883968992926, 0.17775328375349986, -0.6183246952589064, -0.614725609273145, -0.2764798101353664, 0.09480656698617995, 0.7007580833117202, 0.6127025029814315, -0.5264745648797762, 0.4585188065339605, -0.7372988704486775, 0.13851173479219925, -0.4743619860074379, -0.14482678052857556, -0.37113412826373193, 0.194384356418842, -0.5781178382283113, -0.037467737278521485, 0.6123946689162483, -0.7575745942846798, -0.40949537420415416, -0.7743805190657786, -0.06361429851884848, -0.08861167635793732, 0.4870849022696784, 0.2156080449887674, 0.37220854208468546, -0.09217121527390515, -0.48047845558991364, 0.6183497094660357, 0.06894688961218542, -0.5192486643893958, 0.6311620093315797, -0.2243604968155879, 0.5240170697619178, 0.21987547457567036, -0.019593430379590493, -0.07112528663146411, 0.4340735966604543, 0.41921125888888544, 0.569177785686444, -0.6086715158910592, -0.6956240784000456, -0.060804232745907405, -0.2632878367095234, -0.19817844398450912, -0.016147653098909087, -0.3477949369971047, 0.5491900604350917, -0.21086239160138376, 0.6321602438882692, 0.3578188866777219, 0.4797849362781459, 0.40309068827328165, -0.7858964862743663, -0.09422296492224991, 0.38777413897807533, 0.3447150331529776, -0.1441682798390762, -0.033870119715688096, 0.06941642682290239, 0.15461093495667855, -0.1136934298469916, -0.16235285347006978, -0.4326366249185126, -0.7049579967346272, 0.32658485650343794, 0.28711197062457705, -0.010564375388922187, -0.7120578474987357, 0.1785294350055121, -0.7363102220841107, -0.5983443579050963, -0.25244690493540856, 0.5036216448940551, -0.16587610346077564, 0.4244926278017347, -0.5270245713219397, 0.371611655190202, -0.7639277250984158, 0.07533689364484408, 0.5424790379943176, 0.49780569506500516, -0.6515375291152472, -0.03571612470169094, -0.4220189889194682, -0.6231486149367286, -0.4706960174710137, 0.16437050669251485, -0.5753379701405534, 0.559944904771909, 0.2729604208387957, -0.25853136042788916, -0.7827461290276786, -0.3885535125566703, -0.30955475733494126, 0.24310344230714254, -0.4189057937736296, -0.38004689669416525, -0.382130941744634, -0.5904730518585893, -0.2573930895880532, -0.2720606999813441, 0.6097265607348827, -0.21556133193781413, -0.19957183377269438, 0.7831407037313982, 0.775276501751867, -0.033190820704129265, 0.7349619218986074, -0.09608445331357607, 0.7678279869080793, -0.6406761358732258, 0.11071051337899929, 0.6898841430343197, -0.5616892523412791, 0.03302665378409275, 0.052288034273969664, -0.00179316971939536, -0.6839313801830107, -0.2581931536032359, 0.7515880408425515, -0.7550755801567993, 0.18137803733211533, -0.2155661862390158, -0.5098620432201347, 0.07984757961719657, -0.6542436385777425, -0.47409297459704725, -0.06276358891170486, -0.5774558367980092, -0.3423135979137655, -0.04604808131991134, -0.6889682569141506, 0.436035183978686, 0.30294755692291697, -0.3394463914777939, -0.5337383134308584, -0.7461259691840065, 0.7703042252781012, -0.2975159492746585, 0.4989384944749058, 0.16534465288261635, -0.6951327913897164, -0.291160076166315, 0.43482428718496235, -0.6974221655149, -0.6269958561242328, 0.7676714190720448, 0.39510530676873645, 0.2624468799631061, 0.7142389088046679, -0.16215555798429127, 0.509235766904206, -0.2648335837132899, 0.6571419263871845, 0.09634131585518002, -0.22851577411213386, -0.09941918831062346, 0.12777533574628863, 0.5452678388626535, -0.18572164512588307, -0.10780924197342934, -0.41917924323114186, -0.033103847148806986, -0.2019933999255067, 0.618029708396522, 0.5350784933421877, 0.5291368297894998, 0.49349678315793954, -0.7334363319729615, -0.7034096891478957, -0.5921056510161151, -0.2400446089824675, -0.08514902419151427, 0.40420043135216455, -0.09317574996635403, -0.20228685486728326, 0.795260635059355, -0.46606869475448076, -0.08092801493940538, 0.38168481998685033, -0.6338895659785753, -0.549885955851957, 0.3896354085867939, -0.6419857529185764, 0.17064937230337773, -0.7072249159345794, -0.2989433008158825, 0.41293780392777535, -0.042130201207382534, -0.5576560902310854, -0.7807889163638069, -0.7005384347961967, -0.32230141846328647, -0.595691589147077, 0.6000221789628852, 0.13401114174840578, -0.647821269138815, 0.20800747074146897, -0.32800313431702777, 0.6517739739144612, 0.6633150908878946, 0.5153131621596225, -0.42646543100722667, 0.23601822625784608, -0.21267964072400003, -0.6134838988444522, 0.5380287273587516, -0.08676691652878288, -0.45593947183522093, 0.45229174581164844, -0.7161598846716908, -0.6675005315144573, 0.5195609311222433, 0.09218668332911639, -0.6197147705569215, 0.024061221672049937, -0.14150351956297058, 0.1216269508969543, -0.77515583859718, 0.15863036481192982, 0.3126531731149329, 0.6410129643714164, -0.019143984394773383, 0.005522028793857436, 0.47040859854903605, 0.302027588927406, -0.41096826497317757, -0.2857228328570959, 0.6813438624788126, 0.09784747095057966, 0.3801768027171084, -0.47900614451656304, 0.429159825097825, -0.7144910925980921, -0.719420695517605, -0.19284961541843748, -0.6048651054403047, -0.5997568070301873, 0.7155805311817738, 0.615265682434406, 0.593422286640787, 0.12315821731059473, 0.28090816984048117, -0.3476943404027907, -0.65145128586455, 0.6152056594863609, 0.06541527551489479, 0.48830566811396525, 0.12453820748170086, -0.16806410402170635, 0.5729290794397941, -0.21575733562242017, 0.7041472190577927, -0.7148948936645513, -0.09502164687393522, -0.04024742018497618, 0.7557598268742598, 0.5187612650339044, -0.16977161731780654, 0.5378512384992058, 0.6145548482209913, 0.41899882235159946, 0.18051686198851047, -0.11962048903721934, 0.143617925973049, -0.4218662447565986, -0.7225545836284306, -0.44554443142605504, -0.370264429543974, -0.5143863998528166, 0.007544526218416947, -0.25321934744876984, -0.792330350294006, -0.28046070093252096, -0.07190838543496558, -0.43079428554689625, -0.1042263600396458, -0.2357615858966169, -0.6002747170917418, 0.37553043819218224, 0.7648748365075682, -0.019108340653257172, 0.6060605980890885, -0.2639329200086181, -0.14859177174752036, 0.20977714424506755, 0.43457280974238155, 0.09306546110346459, -0.43514844699228894, -0.31574075705716553, 0.7570800317127835, 0.14665714487299986, 0.12857223933584838, 0.38821164746869097, 0.2622169154973253, -0.10246095719743986, -0.5677394646261655, -0.30987335717783043, 0.6563548031537727, -8.195987908269364E-4, 0.5631847624101731, 0.6387247206133504, 0.7634859095086166, -0.15110161308388048, -0.7774318504036732, 0.1064418269594738, 0.018651370155889024, 0.6737104180186417, 0.6224475284193585, 0.01873348334176317, -0.7364441635562596, -0.2565654802633175, 0.09743884795433855, 0.40869796720828533, -0.3829261092231905, -0.22993008230422374, -0.04510480567707553, -0.21191728659962994, 0.30741558517466716, -0.07094520403503124, 0.6260060783011621, 0.32730098148768993, -0.2832186010010681, -0.6354417713476663, -0.6305502382245454, -0.21135146890489231, -0.6966010630964359, 0.11752801629700005, -0.5817278176683832, 0.25847167514409164, 0.7298967242485286, -0.6582232997858339, -0.2502714154478295, -0.5243980463688743, -0.3589674029021353
-0.5377511637962785, 0.5752817780294961, -0.10023368130523291, -0.18789584291914863, -0.031448359311760266, 0.0473109890677641, 0.7736723092209745, -0.34027328479733454, 0.5524376207694417, -0.021680959453671322, -0.2397684540878411, -0.7139825450958454, 0.4817026407108569, 0.05014891747116457, 0.12594783387854402, -0.053288229518874575, -0.5491433370301544, 0.6469361198490351, -0.3687782887891331, -0.008627458396355037, -0.36086576274566406, 0.5531722898341684, 0.17013028529769658, -0.4226638954430364, 0.6760991947224491, 0.5905767424945014, -0.46733000348222814, 0.14612276232887444, -0.22377899939119583, 0.16335545021384112, -0.7796302990253562, 0.532673822451337, 0.7553613151745793, 0.09549072183802143, -0.27725460338230423, 0.21683869869134798, -0.45632648734147985, 0.4077658481625215, -0.21137073334587242, -0.6844017694783693, 0.5609792265466975, 0.19629319650126154, -0.5970308702370034, 0.053573299846278566, -0.07775090001597496, -0.26162504684881294, -0.5937434934270549, 0.03843005635200869, 0.6923766277114707, -0.4344100330771358, 0.37030345672714216, 0.50685536404159, -0.08900188093141015, 0.30806085851185605, 0.6706523756087224, -0.004160856603796836, -0.34032799926641694, 0.2279196911616268, -0.5275366814501418, -0.7669378488243851, 0.24529535300024596, -0.2759479364901999, 0.5732879632269505, 0.029250487340736542, 0.6251965090719251, -0.6957379856892505, 0.5227004939261741, -0.4055789692833379, 0.30090629959787707, -0.41493699899958597, -0.43468135571094013, -0.41099622949655007, -0.7408284368238057, 0.3933625238233127, -0.06968934927583015, 0.7598898845632232, -0.6596611240520946, 0.6083705489420073, -0.7829536954739225, -0.7994828460528345, -0.7342030728483793, 0.1961238792888388, -0.0968872100720436, -0.08683365198807436, -0.7422696926408785, -0.6469177041248457, -0.6725213229615982, -0.1592952421952747, 0.13599872024707815, 0.7893132817844373, -0.5218485554302352, -0.5259238074624737, -0.02148119218933764, 0.3458459774538054, -0.6597630697738159, 0.3308980768952894, -0.3169122303922217, 0.7548365969356303, 0.4368716207057637, -0.16040967441533094, -0.12984904761106697, 0.2152505084318539, -0.2779396114612229, 0.6525213939373697, -0.08242203392896508, 0.37082866500112255, -0.03898378880975373, 0.15072103294078532, -0.47992623533703704, 0.0411682536880118, -0.639840795417344, 0.29177094868039366, 0.41741487679050127, 0.470810195563119, -0.11450371346468236, -0.4084532399240704, -0.36273790237109066, 0.12528880772061213, -0.16533538500520262, 0.3195482471253601, 0.5498644452813028, 0.577160815900237, 0.4044839340060793, 0.1266161176235686, 0.23353129676844064, 0.5890941526928435, 0.6224269191279714, 0.7128970188168702, 0.3013119492249665, 0.7151588494385523, -0.7130224156777842, 0.7829805146764797, 0.6408848774657601, -0.3944747381957601, 0.08841096792700631, -0.7758057817019783, -0.5287790368199368, 0.513837214543893, 0.4580903196600745, -0.41689395453286804, 0.32114743182565375, 0.6705899823061443, -0.07906066219472818, 0.10434494825925644, 0.18650257998397213, 0.7999059127625567, -0.5976893625900854, 0.4349138781346291, -0.7758674909417526, 0.7211624914346222, -0.13296660586704756, -0.21376878828544632, 0.492544816805613, 0.4909908186386498, -0.35501406311523065, 0.28519985459408925, 0.05059600633794048, 0.10522407613203666, 0.42410159660225566, 0.2346646449174259, 0.7771520900857602, -0.40556101012428614, -0.231721522383042, -0.5573171517662339, 0.7762243970696912, 0.610795255649399, -0.45577404558406054, 0.2690930549036128, 0.3836448879805776, 0.31794022189176974, -0.3821556016962207, -0.02306787646044184, -0.20709182150196082, -0.24019056102492375, 0.20729559017364663, 0.3653110206612844, 0.5693695603077706, 0.2982151251400862, -0.44351503908709855, 0.6994234947117144, -0.3764492641801409, -0.4268220664738225, -0.28076147694177855, -0.7575757969982821, -0.034131561942496225, -0.4459804434668355, 0.62102069245548, -0.7670255083893998, 0.3666619199316903, 0.4132962705505492, 0.7916005944337117, -0.6586821990548073, -0.5030402386068977, -0.030284352420535954, -0.5613618746206713, -0.7241917056664549, 0.026987120098159956, 0.510242152433789, 0.058722491485152295, 0.3008786924067086, 0.510978212329209, 0.5156587956541221, -0.6410407750353507, 0.7664968474154248, 0.08842135516999472, -0.22208538218958562, -0.31123598149051407, -0.06177841029209219, -0.516574838536384, -0.18834848333570753, 0.45808338348858224, 0.6560324500387729, 0.6854586520381885, 0.5263645270177966, 0.1448263926737825, 0.23916899803931857, 0.6462793415039403, 0.4397135612931431, 0.27085215298758825, 0.39327872200416225, 0.5294263183993302, -0.32343314213832813, -0.2475780119685228, 0.2652353193202259, -0.49978226354168775, 0.21241825132974324, 0.7075866321467084, 0.6300501822420055, -0.4542452996162643, -0.5161160752052606, -0.07045825567087038, -0.11663538460107481, -0.6340037570988625, -0.7969545246102933, -0.5884525235110817, -0.7479293160345813, -0.6214681943762583, 0.17647033334223394, -0.6644297276382007, 0.22467240880344552, 0.33124107235507116, 0.5438009786687381, 0.21336757852384625, -0.35793892426644497, 0.5185932273417271, 0.7148692477922161, 0.5952986697537497, -0.021558762358704242, -0.45110034750198197, -0.6016479358311382, -0.6612926248918591, -0.3187945138609058, 0.011397310318879028, 0.6790499614403691, -0.7457151952587933, -0.17237959753703502, 0.64360227041767, -0.28507033809543003, 0.4253828405976836, -0.4047534820572114, 0.5009352433057506, -0.11086297310000348, 0.22181154675011805, 0.532079275980784, -0.017816510196241198, -0.43375312839226493, -0.1937837696677015, -0.04854045192900536, 0.16592641212627623, 0.7660807092693569, 0.15769237948055181, -0.2341351362026023, -0.43538614187613406, -0.11751602879868717, 0.7138592158006365, -0.0872442125101438, 0.704549186794382, -0.3614811114631879, -0.5408251604721027, -0.38528707256919703, 0.6915918774263592, 0.583589579328166, 0.2638389886258319, -0.144835762232576, 0.5239562251973195, 0.002080281304291498, 0.7041915142757327, 0.24006327434369878, 0.16504581306290844, -0.2828514278275892, 0.6720768674312494, 0.05494261556988744, -0.10917440084689556, -0.46262076066024316, 0.40720872022543353, 0.4158288004454751, -0.022203911165467938, 0.4080660494689652, 0.5631293767595431, 0.3515672030892738, 0.3991966942659759, 0.6929516731740972, 0.5439229412043332, 0.44416863943507434, 0.24862742562111384, 0.42631805722705596, -0.5745975354074055, -0.3071485546907209, 0.7118413430012998, 0.6393827278019335, -0.4989452457731496, 0.15651492100654996, -0.040978492238871844, 0.379018397826155, 0.669587909734022, -0.3315563306608992, 0.5314202272083657, 8.756514133985149E-4, -0.6925094987356684, -0.49389637658422336, 0.047799393846157834, -0.266947919961978, 0.7465725498390439, 0.5379536155917197, -0.4423257891897352, -0.2294880283835683, -0.7969783149624732, 0.058259368137072776, 0.6199245158015887, -0.12547493850159186, 0.18107027542305487, -0.5400421419867276, -0.6130989438781944, -0.5845465428025304, 0.4009317868037914, -0.3153159181754676, 0.42571554252270816, 0.21128039510772667, 0.7772265265640323, -0.5718660180460993, 0.7099672202774476, -0.021664985715169394, -0.6993189793052679, 0.36799936138589673, 0.7667195347050788, -0.6752690555158142, 0.05244551181149326, -0.5792258666714777, -0.23489525584416493, 0.3810993406696075, -0.3930612893445382, -0.1772069008070044, 0.384495108212787, 0.7772580766138899, 0.7556900648310538, 0.6699269135882335, -0.39825670016829096, -0.46247711946097053, 0.6112129343133674, 0.43941978700407947, 0.28855594917693406, -0.4185725852670757, -0.6734958443584778, 0.3564185798577293, -0.6883724360861413, -0.31931689532513696, -0.7076715807911905, 0.6568047099151286, -0.5202756614366775, -0.6627296437488726, 0.7510081031037927, 0.43700287046639774, -0.016530482116344558, 0.311617290181047, -0.507998343777287, -0.12949772854044161, -0.2748550302029342, 0.04388247451535299, 0.47111644591382795, 0.5098900695215238, -0.6626139545513698, -0.2245772824952249, -0.5782361062316199, 0.38225781478745624, -0.4587912708960007, -0.6084120735455665, -0.7967717315805118, 0.0249046188303359, 0.1953716306814236, -0.5289518153661497
-0.194408023752781, 0.7864557690020233, -0.6692568187965992, 0.5997721217349483, 0.27873591381603857, -0.49137259729101856, -0.3541504183803079, -0.7223246187708322, 0.34022655258875867, -0.7410959549968347, -0.1759491750864811, 0.007192786990889877, -0.4421197621227691, 0.7847351123949662, -0.7784780324580304, -0.4962434641016067, 0.7416092708997144, 0.4782037322841266, -0.22247183642286783, 0.4272061463247898, 0.33111730504931103, 0.2851781640851603, -0.19681081271669532, 0.3395001905436057, -0.6020476566605638, -0.32414593006917003, 0.5764224904817523, 0.32755430493623416, -0.19155040984062188, -0.2123263562157982, -0.47837130443099696, -0.43452738539267666, -0.7293398103321765, -0.20932931765403284, 0.1542470660412436, -0.5454971609228256, 0.6149243666911146, -0.4856471048421533, 0.22186973306158686, 0.7931079847899634, -0.06569104002180559, -0.3857050130763064, 0.7751676772487277, -0.3063911323700813, 0.7376933783744215, 0.6456792798135764, -0.1465586261437597, 0.6759161075344606, 0.24484884818205277, 0.5500823501457048, 0.6711747634830139, -0.26706931187246263, -0.22057991728728632, 0.2508693841143719, 0.4435306977431883, 0.5762563541461982, 0.6922789687236475, -0.30838062671097294, -0.5097095882401188, -0.6650713613190722, -0.4257153885452029, -0.6589314307038319, -0.5906985934124815, -0.5060719905654669, -0.30595530582802816, -0.27288021109428784, -0.08793937279454855, 0.6233074969674133, 0.0228363844019992, 0.35153009868990126, -0.43437767201132405, 0.6628271215133643, -0.7145919512878003, -0.6240504480794382, -0.6134172578733668, 0.5910502088753304, -0.5980556810983195, -0.4409515830464226, -0.01554398171821525, 0.6219195887307998, -0.7369594812576005, 0.4635306899535754, -0.046682023934768835, -0.16410696853815954, -0.7939052020845481, -0.45910386301963957, 0.662157849796414, 0.36678103628160263, -0.7619116370024218, -0.6591260158866996, 0.49593916518276737, 0.12949210931606336, -0.42371281595885224, -0.018484964793259673, -0.04906505195101685, 0.18795253897951802, -0.3450390841048517, -0.44500922795555414, 0.18946358991611034, 0.6265314616964042, 0.572777101981522, 0.733210956693719, -0.6892846481365011, -0.5976368161824683, -0.3679085937597908, -0.12356654428214997, 0.6959210265393225, -0.2799776362286025, -0.6520827350822075, 0.237102608839993, -0.0623225107265164, 0.18406896986753707, -0.5190797037733514, 0.19021506535080945, -0.1351930126653993, 0.34904406357014106, -0.7246539207980729, 0.010574252388432348, 0.2256896388649765, 0.700557882817352, 0.1593515569421241, -0.6436424307657804, 0.4945710246682189, -0.6348238601632721, -0.5082262329369907, 0.7074822805057617, 0.216909529018116, -0.03912834502448015, 0.3159312296618424, -0.45368073106639406, 0.5113901471208482, -0.43612816557262396, -0.6923837463374914, -0.34263426964046834, 0.39779428114898785, 0.3817937977023338, -0.019000941312006914, -0.03844908996415042, 0.12147764020067786, 0.1870232724120383, -0.45727333451784846, 0.18991080141878813, 0.19677033680929745, -0.7216460239768587, -0.4389375384267524, 0.04043100288076551, -0.5068232920205258, 0.5029678200726886, -0.7565254924347148, 0.2509190076700143, 0.3398135866664842, -0.7151010319665352, 0.792643324461962, 0.6598295662168219, -0.6749104261130547, 0.27018586215083396, -0.5625775499580681, 0.21602952673284048, -0.7798103369130825, -0.6870200430130867, 0.7118473294618621, 0.2375512769782444, -0.5435084118662352, 0.49094004723868734, 0.38185085106307093, -0.19155463885383328, -0.5613955883110006, 0.0523060291266203, 0.4959060991240587, 0.6419072033600128, 0.6762803481893878, 0.26110588927589595, -0.037620184555870906, -0.7730868046837543, -0.5299854368065418, -0.7789855046210001, 0.23294182918138384, -0.1853343366863861, -0.7132896546197414, 0.3224438098090483, -0.30206090504285243, 0.790207624360044, 0.21334832291443329, 0.17150715895203006, 0.6762046827019661, -0.38636834017856786, -0.4218375593002668, 0.32356264010606783, -0.39166462076789677, -0.1956313034179582, 0.5803864833441572, 0.2581033496126488, -0.16096713285245223, 0.1811057092540047, -0.6288013290256101, -0.40417563024050146, 0.4006675573882119, 0.15894398225959905, -0.11994661621582503, -0.6272408076075892, -0.11321484510648805, 0.5444711207773625, 0.18215208186870302, 0.4504405065777297, -0.16916063177452245, -0.6415160444970387, -0.445631856338021, 0.655103275844898, 0.18199642435121688, -0.0448396595410987, -0.4314981137830346, 0.6030095840586511, -0.7035802074003339, 0.09554177073482217, 0.42230614913708586, -0.21696127595416692, 0.7390054934915198, -0.32774959252390073, 0.4102835607179276, 0.131746431584301, 0.31710128530391235, 0.27142670931360136, -0.012179531383091025, -0.3498380790941024, 0.7443057871472991, 0.49693695590456066, 0.2837842867694014, 0.7756523740821961, -0.24099474167324542, 0.17096143609196512, -0.4317263582973079, -0.36375283618946974, -0.4011311867713337, -0.23586255870105965, -0.31622647270776716, -0.22112255879186282, -0.5409143123298086, 0.29749345008114414, -0.6004704470513675, 0.27704822233337656, 0.33868980905670876, -0.10252698637770563, -0.5494813434371993, 0.08752335940552403, -0.09411997090010138, 0.5744101656777649, 0.2739553700382342, 0.5396658525400173, -0.3101933107204364, -0.5661204869183765, -0.24216419554775526, -0.09486160502495777, -0.767142102221312, -0.7805919079297446, 0.2675837226772537, 0.5097321591821398, 0.6140410247674333, 0.22409718923908684, 0.6184257963287956, 0.2131534294771349, -0.019382480300549232, -0.40223415469524043, -0.4873149101136566, 0.29666101127086164, 0.4017121958712637, -0.6847104396479928, -0.5372545665320911, 0.462509370005876, -0.7158203888335817, 0.16087094802768254, 0.7720002739695329, 0.7632150576224248, 0.5675738189905011, 0.022040810655356458, -0.652336231271071, -0.5572737110643828, -0.6583708408427814, 0.5762508547196064, 0.37088296460444337, -0.7143609872187979, 0.40622314876027454, 0.2919825359304944, 0.15115349121276433, -0.4653365699162173, 0.22035465152619738, -0.04464249821339572, -0.3563973591208305, -0.249390466584414, 0.4632327813010668, 0.07229905625991595, -0.09073238889889734, 0.1532211315422749, -0.14286487740687814, 0.2853559276120572, 0.25005742133106823, 0.39525131982891226, -0.6217446033959869, -0.6166382155533002, 0.25165128421028404, 0.18623398093479915, -0.691675305792042, -0.22883289167904697, -0.08085278289924847, 0.2964696792344834, -0.043649194109756984, -0.7942575468760684, 0.6918385979115595, -0.7641948314519633, 0.506384989756762, -0.4059860311237749, 0.7750570485960315, 0.11584960266936406, 0.7237859108871845, 0.08685527180028085, 0.5285848612856654, 0.6683325581077983, 0.17901492238544847, -0.007277913834063732, -0.3972996318208333, 0.3063710557542052, -0.7754427419072383, 0.17347806720651082, 0.31448373240535044, 0.6794760472574326, -0.012871514754018931, 0.3740237933613595, 0.20857266650467188, 0.38719083319699377, 0.11388609163559948, -0.4235979390434082, 0.04811959448356817, 0.7803162964352464, 0.5379298185440986, -0.6418836680230534, 0.4332652884675454, 0.09274078453634826, 0.7049362911369661, 0.7734608743299973, -0.353994711358645, -0.08904523224298388, 0.1293362169559087, 0.6657240364516352, -0.42811077621077037, 0.4023923676315986, 0.6250048478430665, -0.04281162157393559, -0.3494454697714286, -0.4121945016927184, 0.2819987455831183, 0.7529142082453821, 0.358659167749956, -0.3430622930559313, -0.5625650325898062, -0.16664484304709526, 0.5303401297304855, -0.10917205852187606, -0.2848296706880066, 0.09991703381916639, -0.728112251774992, -0.43186304185527646, -0.7144980824724242, -0.4233657391355788, -0.6711132150902819, -0.3030486873199483, 0.4226717347643394, 0.46019940614815336, -0.6843601311733822, -0.4724176889353217, -0.38547854157908096, -0.35035434744088134, 0.41824931487702144, 0.565940500240363, 0.3052051308916628, 0.37604256306187933, -0.16570273303518468, -0.3788720800762175, 0.22843101018427392, 0.3916296254636118, -0.08637390782249244, -0.31504682088863767, 0.015265182484575646, 0.06687374776809318, -0.0837168706594087, -0.44486306076026577, 0.5370933115367218, -0.7170008668436827, -0.29474261274430114, -0.7219616568241168, -0.7291020293840216, -0.0033983262760999278
-0.6290106267336274, -0.3770242965185604, -0.10575097302878755, -0.4963983774223866, -0.7582028126902638, -0.4748167765962967, 0.5836284167730941, 0.6844528018147542, -0.6720078272367508, -0.4535017077695136, 0.6808942368872508, 0.47622441114406033, -0.37497291379258846, 0.5961725014035248, -0.4065726758631682, -0.45625755986932326, 0.5006668329588768, 0.004627255581156731, 0.33042392370088036, -0.6507723054098915, 0.31442012808116226, 0.4090250334643648, 0.2505080991091513, 0.03941840382413342, 0.0987160389286702, -0.21156056696993564, -0.11013669204710652, 0.5161044514020083, -0.16648565279678462, 0.4010165299110817, -0.0028963259242894557, -0.13175170714215745, -0.6523975638513051, 0.6395825118410297, -0.5723316405322125, -0.1670724794414351, 0.23139239038389325, -0.6637848610020177, -0.07291534037983838, -0.3086007764622526, -0.6524042767132849, 0.4103595819938546, 0.059007873010165746, -0.4043537936543832, -0.022284933999461964, -0.6308696588097407, -0.389490918319979, -0.6401699482243718, -0.6561453050956421, 0.43250518824089235, 0.1336434367194238, -0.3598634798408492, 0.3969145593032679, -0.42982171025042587, 0.05889516072526835, -0.4344375932008216, 0.5637944491127815, 0.10090247517054396, -0.7573427941284696, 0.07125546134900862, 0.19779811614569076, -0.2807862908969009, -0.11253367868794906, -0.17491942920706194, -0.02201111418274615, 0.07849214770460411, 0.10027692364002139, 0.3271492444365889, -0.5451883080530044, 0.7733781346497848, 0.5306190329939477, 0.10111050817437517, 0.3408581026256585, 0.72862252106351, 0.357049019316545, 0.48506531447484025, -0.40278607304082165, 0.015514378985513444, -0.03313664956387741, -0.630972527978872, -0.7326086495018637, 0.38109101307761395, 0.4006090468491408, -0.08508171561840017, 0.7624101473016103, 0.08939766385199843, -0.3905139496199853, -0.7658571867812191, 0.5021547151385037, 0.03812731847378381, -0.7996999800227717, -0.01314004212035036, -0.13030342597722444, 0.3280330047678661, -0.1808136594077473, 0.3061195271335504, -0.2631658018744094, 0.7265676047364849, 0.251888157160991, 0.33910298774903236, -0.4293353338509654, -0.018730986534585825, -0.10506544895461123, 0.23676669846302234, 0.13256397175251367, -0.6975296135948353, 0.4786266521887794, -0.5877513451099218, 0.2325156488500204, 0.1489782415332881, -0.4006970400799606, -0.47253701296330597, -0.49671043633950274, 0.11442364390474646, -0.6550834812560101, 0.7563683775073278, 0.31053518844331185, -0.37394632989509663, -0.3254801558310206, -0.7875410781711945, 0.3164165677793558, -0.4682064542521781, 0.23881582814985092, -0.18291064753369624, 0.46597820576334925, -0.5345281137746263, -0.7945043907904461, 0.5243079909831414, -0.33300589878055187, -0.05583574324114726, 0.5796458759736267, -0.09306609762947493, 0.7856138969055908, -0.5343275327097299, -0.713927852910403, -0.5523230253947677, -0.01831624140070487, -0.16178039160851854, -0.4930543913704014, -0.7318372960869312, 0.059180821740661416, 0.588503863849458, 0.4447444803490166, -0.1322152190550252, 0.008763509951317694, -0.241684374968823, -0.39297673710514547, 0.33337226975231404, 0.07100218881413856, 0.5139857194018571, -0.71389493393815, 0.6197204115390349, -0.3495832189100577, 0.35699495653567803, 0.33335589382614295, -0.10990422533836441, 0.6620113758406541, 0.33813742871627883, -0.19573905023079763, 0.14488999542899772, -0.20644311023879813, -0.4583075387550315, 0.37708663806150144, -0.7443416507787923, 0.5184374687010249, -0.7798766856214387, -0.7755264880213639, 0.4608421948015211, -0.5045636984023092, -0.6761178805145619, -0.5561307921770494, 0.36853589603889914, -0.15659886766754894, 0.5849640681280766, -0.1707293010827995, 0.5507231261802763, -0.3197087035694807, -0.22308434571179292, -0.10668938106593673, 0.5024679438010407, -0.13232965391900842, -0.5119352706045277, -0.574717840293379, 0.07860989686014452, 0.5032717831634905, -0.49119771167225235, -0.5027387690638034, 0.3095745120515796, -0.6441732897029917, -0.4521911881580627, -0.09295314021724788, -0.4630271125655121, 0.737906078900763, 0.05617993035427982, 0.5732023039149512, 0.29872663177258607, -0.13590858433158515, -0.5475308039812152, 0.17404343775574227, -0.6674827251453469, -0.05664890613196705, -0.794272052697264, 0.34898171176233794, -0.34457894505171505, -0.0939380960624886, -0.15231492291742865, -0.7428067549181926, 0.7166533189051492, -0.23232253636287015, 0.24927120738439923, -0.18485328289503555, 0.5094085716879329, 0.18260820420787183, 0.21075564528918456, 0.711085894668694, 0.6668453700918555, -0.4565601086198752, 0.5788254907393624, -0.07887503977633803, 0.356326646903645, -0.7678202291687225, 0.517999895490477, 0.12817765117637914, 0.4250902304730937, -0.6682171742116303, 0.22783439403028583, 0.7715026983250866, 0.5395853540441207, -0.7422277518444663, 0.5114329691755162, 0.4312123103211598, -0.20022606863875314, -0.02866896595224855, -0.6351523294164754, 0.6786508156814801, -0.10124197878482, 0.6868045232069337, -0.6289910621200262, -0.7998850642925377, -0.6628423332868775, -0.31188457799676644, 0.5458908582767346, 0.3279485827525108, 0.6907248638532528, -0.37984409117927864, 0.5986799189057759, -0.11039203063469516, -0.7312572790028771, 0.022784078136481534, -0.06822366056517792, 0.11185502915428935, -0.11017865885218414, -0.4733865274136239, 0.12052158714661443, -0.006199736668319078, 0.5407640217090275, 0.6313484762571304, 0.07660600679843232, -0.11092215101516856, 0.17323997529514512, -0.6610205385905682, 0.013175271984669279, -0.7860012965741277, -0.7679371174988843, -0.2842852699150106, 0.49371490496645065, -0.3749098078708466, 0.09793607139812577, 0.5080890158705875, -0.5391439287550992, 0.6859923645895818, -0.33341154019192154, -0.3597499627204652, -0.5946931322373266, -0.2297551333373834, 0.17528756721060523, 0.7709878976861733, -0.2508221016510668, -0.47694059461630495, -0.07322176140506698, 0.09063428954048547, 0.4820309844863211, 0.6317364132640628, -0.4502413720030678, 0.3895205317390875, -0.29795554641948496, -0.26905334706650064, -0.1259327272338172, -0.06875297790139945, -0.4212502394755324, 0.39566063636200655, -0.012182772373898865, 0.6155780502214838, -0.03214309552564232, 0.15107183557465031, 0.5827765793079462, 0.5173391189368379, 0.47274886624874224, -0.1445780543629347, 0.6833564623013584, 0.13925646154438742, -0.23871219731785487, -0.7118015735873539, -0.30636983863722134, 0.41824005502838046, 0.21063775419082198, -0.09726168089846055, -0.21412988777394537, 0.4761753110484708, 0.4668715574112825, 0.4788331623364681, 0.3931511189135617, 0.7078500561688879, 0.2701922424328991, 0.6374939195142457, -0.24236833883519537, -0.3497938902147846, 0.5106611954459686, -0.7434038102217926, -0.6748134273843086, 0.378667635824399, -0.6566117869225807, 0.15268923495615938, -0.33387226972489775, 0.3278609103236121, -0.09379849865148471, 0.7708139852058469, 0.7408116567981453, 0.23560194917688637, 0.7468767250300392, -0.5492609028099504, -0.4820050664873392, -0.23940839476711173, -0.3189312195495612, 0.31458475130150787, 0.5928620568331562, 0.42582069797025124, 0.6661505840297679, -0.452631777867987, 0.5407109321716974, -0.3087514251801432, -0.609773245894274, -0.3814334082155954, -0.11865402129569813, -0.43911705710773785, 0.6396523949788748, -0.3806455050721249, 0.1182893276726602, -0.4190499415263874, -0.47755096752840026, 0.7667383684866136, -0.24401548662720374, 0.5874071160208547, 0.08907376995773275, 0.6523696797251464, -0.31277153317618756, -0.6873884204690163, 0.006057900786828774, -0.009616873591619113, 0.08213124800900606, 0.1625241980376645, 0.3020963249445552, 0.24516814618230143, -0.5010358556238905, -0.47261473978437557, -0.7797704097684547, 0.7965441930168751, -0.4236793530273657, -0.50963396912786, 0.47382374523453885, -0.1736270052171509, -0.644923877874293, -0.6497402486871526, -0.08188405184745018, 0.6872038971197432, -0.7823046964099234, -0.22416097149767633, 0.4131553737644367, -0.45989019655284324, -0.7785012764350934, -0.33893023325287575, 0.06803245224041077, 0.5254351208657455, -0.15843780642023508, 0.25193248171526594, -0.67964874201183, -0.34326163305339447, 0.4279852445219341, -0.3328336350431329, -0.18103733774371855
0.3019799811130084, 0.02343775783015689, 0.08124845084819365, -0.3370907807534339, -0.48885088316477676, 0.7285391285500065, -0.21280702878931046, 0.7638695006792604, -0.7767329897163298, 0.32833871597553776, -0.2478916132645742, -0.6789860733390856, -0.39293058051308094, 0.19339869128219767, -0.46145157216263616, 0.3973577994216331, -0.43231237551636553, 0.39843577894717797, 0.46519723312447314, 0.3027726724498374, 0.21602566943621726, 0.31149961311215746, 0.06761037600345143, -0.03100703904927149, -0.0378136339961499, 0.4747423396941419, -0.1513451973753288, 0.1719024103283351, -0.1916137587744393, 0.5229213063197089, 0.7886182099746808, 0.2730233495148924, 0.1183614108768436, 0.3498406511563368, 0.2115211074314749, 0.041195901013703184, -0.3081713624612409, 0.24699850479897156, -0.019272703167751204, 0.45449510525944126, 0.37412849608882626, 0.3027710322607384, -0.7764890818833433, -0.2285019855792385, -0.3172597873231528, 0.764524606265798, -0.3391991024714507, 7.414040028108637E-5, 0.03392022343492285, 0.13011241214178404, -0.2551142312792489, -0.6190642665204953, 0.10427862545444122, 0.44927196349728016, -0.015575107894157503, 0.6422467899416, 0.06367063319482413, 0.4795044879780077, 0.4626738094546372, -0.2293480125542321, -0.13265737899106367, 0.5550782228036817, -0.5686048707605229, -0.11685050187204804, 0.09683454145504089, -0.1081390089838361, -0.21051272945253885, -0.5267063130454632, -0.009296920596673752, 0.7647493636143723, -0.16807239230253013, 0.2442773317350877, -0.6923073809404029, 0.5585247772492932, -0.5188124548428605, 0.5305033853516841, -0.08345617813140316, -0.6929710692312279, -0.31015915503818087, -0.4516784535822188, -0.0918090211613235, -0.6003861799125435, -0.3703521663054257, 0.20566487894912333, -0.02233677878713125, 0.04788367231951318, -0.34103846532696985, -0.06061415775307799, -0.37543354824715003, 0.6698090479852432, -0.5131361537640873, 0.0381529217576817, -0.2274148106682924, 0.5623557539317765, -0.37099764061485563, 0.14783168962620596, -0.08999333569066148, 0.29783335470428773, -0.22333853174683949, 0.14533664016601477, 0.20483105326301176, -0.40676877375579096, -0.7228373569397659, -0.09399745946537408, -0.5504044623957226, -0.23412795431804945, -0.6497471242254153, -0.12141311727548343, -0.2573989761488912, 0.3027750474055966, -0.05829832461509965, -0.5789231347892776, 0.5137937614218087, 0.535184751519205, 0.24188968334013605, 0.7395375554187706, -0.14488376797832936, 0.5237821583387627, -0.3262652394714975, -0.3886998727519778, 0.11670439882773709, -0.7758412974899094, 0.3808640028959467, -0.13714914427358438, -0.2181294268261177, 0.016195544755104763, -0.6764983087045631, -0.3881542316521589, 0.7353739018652474, -0.6549465928532998, 0.01610724869067559, -0.42826374681381874, -0.4089569394898931, 0.7355401516620039, -0.4826419053181498, -0.34344500616620055, 0.5463779427718864, -0.19431326418957762, 0.309636314620217, -0.28752638146894893, 0.48331993973041, 0.5194235247818708, 0.7817393140263169, 0.2418054182532945, 0.33594263934853474, 0.782312488346198, 0.15509782931135785, 0.6741900987748028, -0.30262262679945273, 0.19835270027616225, 0.27034709495093234, 0.07875875556093725, 0.639850924606518, 0.7699391963909981, -0.7223404925764794, 0.6001409376480913, 0.17327402946728498, -0.2628823192486752, -0.24919124779671886, 0.540237267502256, -0.13061613553681117, 0.6163405610183679, 0.07149974353355337, -0.5032558155197395, -0.4699962932633014, -0.5870088737716425, -0.09294099885077389, 0.7084793335066084, -0.22045252768562296, 0.346007050072592, -0.5688555925219451, -0.65338059252345, 0.11345853020315144, 0.036994490764598376, -0.3863053325312148, -0.46997634694818696, -0.5641656645040496, 0.5802891392008289, 0.6329016418112587, -0.6681198958526242, 0.6710518862493493, -0.17551927783249577, 0.038551731628372776, -0.41602747274405466, -0.764229409458046, -0.040018219438584746, 0.5226438944343295, 0.07393027054628543, -0.5907481400971769, 0.32128307599608297, -0.5702446372439575, -0.6301159236342531, 0.14149805100965873, -0.423399643280964, 0.46618816586802736, 0.7960147147849115, 0.19027439817388336, 0.5916806977315519, 0.043492291204651146, -0.1784568395958569, -0.3203585831883935, 0.21859797788632984, 0.318523406201378, -0.6852267215417029, -0.3758128793675303, -0.7255696783429157, -0.5312439090169244, -0.04713848470258719, -0.5352892377843539, -0.5612256318983061, 0.6681357670069263, 0.3670490878907222, 0.4126729640861584, 0.5131144184631433, -0.1946850998456625, 0.14215645451198744, -0.5977110665701851, 0.6491258527959192, 0.6126817042178965, -0.22179953760640014, 0.7007040701168008, -0.6329440134957887, -0.24884788538202007, -0.03894122034835268, 0.5282543747981452, 0.449387062886218, -0.47774168596527694, 0.3781671855710882, 0.7923757579891506, -0.4909506468718224, 0.6556292853523276, 0.2542993811753047, 0.4402890979707572, 0.7955138559293471, 0.44652169655850993, 0.7715400158464694, 0.18715093208431066, -0.38384218718657587, 0.3946220525572002, 0.3766248746629208, -0.7220785333116461, 0.21435765223987047, 0.42190281266538787, -0.7321151782621151, -0.10723574622859489, 0.45982724203721825, 0.5238786686377888, -0.5069079481870262, -0.5926453798091192, 0.27078129447264754, -0.2648290506736226, -0.321429936915594, -0.22896337047389326, 0.30156652953138585, -0.2331490698086952, 0.04899128894322524, -0.032670304709487064, -0.1065338601825001, 0.19959505758896923, -0.31365153269077556, 0.27285014391166307, -0.5995558593371918, 0.0932481557416509, 0.71564887099214, 0.632274276728082, 0.16566079132836575, -0.3000475057004957, 0.49394253983247083, 0.7185324991149293, -0.3613489533726645, -0.7554365070580866, 0.118358266504349, 0.5489862252902098, -0.612879001279034, 0.2626355152290747, 0.05788398286006691, -0.520097634807547, 0.07138042199919714, -0.037177010665864096, -0.5473099149001437, -0.3968976999727069, 0.21349105171478078, -0.6928944605598879, -0.18614299263194467, 0.22022428548660478, -0.7927266719544571, -0.6211926101208722, 0.4954312655103257, -0.02839776335044042, -0.12062331498854595, -0.2650551946202827, 0.7997956005878855, -0.051675899707573136, -0.7743189643123007, -0.7840034649378984, 0.7164029038170658, -0.08240212274473269, 0.5113592338599029, -0.2872439058120072, 0.6829845311563074, 0.643114212728144, -0.26300632956499226, -0.5335136414503185, 0.3974071626856901, -0.6163426183409618, 0.1372012619560421, 0.20515958042376914, 0.39741457146786585, 0.2047795049179344, -0.507714631743404, -0.6048713676145581, 0.2645529692552957, 0.5399147234417714, 0.59749365096691, -0.08586219243892956, 0.6976413260029879, 0.48887278736553585, -0.7514743156784022, -0.2718565770632637, 0.5402106682957661, -0.3567858208749563, 0.16599398003644694, 0.4809780987982146, -0.26460184290940936, 0.17957093533421575, -0.6043924968221837, 0.28245386913816484, -0.07915438752758797, 0.5635402877728166, -0.11509358893963173, 0.40706255414694215, -0.03478715278229372, -0.14165917839066222, 0.751441418796994, 0.49199409263040117, -0.21301941784980838, 0.7339825245071168, 0.22135282464087536, -0.2502440423775708, -0.514721594101452, 0.6242657107009686, -0.2686337510688326, -0.5127605182090698, 0.1515372192325095, -0.11951451289439974, 0.2512856966900139, -0.3503588624658031, -0.6801725662821325, 0.422281450360398, -0.10187362061506244, 0.7842096228136117, -0.14719378750523582, 0.6876340895071724, 0.7770920672017707, 0.3453519487267036, -0.650739131206461, 0.6355731612308131, -0.10133488610995678, -0.16080603378042202, -0.5017034499621364, -0.24327604657380597, 0.3851388169803456, 0.13225409926257947, 0.7942801348825625, 0.6983819393199278, -0.2060153105757152, 0.32545018009129967, -0.3342863879153393, -0.3876331147078924, -0.5504900967740465, -0.2787765222026567, -0.03972640017807172, 0.4854715687800004, -0.6116774977900186, -0.2118750196108966, 0.06731607403758999, -0.6861184298896371, 0.28818432733318566, -0.7462277362567925, -0.05179329076452732, 0.23450574912014877, -0.6361059507380675, -0.6663520500743637, -0.6160980705377362, 0.027719500591698698, 0.0779060222450848, -0.370227463924544, 0.2382659531796436, -0.6424149166821351, 0.4274517850131281
