0.02096107631997357, 0.2316336366494911, 0.04559098206639489, -0.7154062871683108, 0.4552668674209366, -0.16219385337483916, 0.48060107143421704, -0.12743026137539082, 0.019109670056159933, -0.29933816681018754, -0.4638127152767053, -0.7788903489337621, 0.6952922196732216, -0.5265584021423593, -0.7426362917815693, -0.556260481975121, -0.7562050479683141, -0.40275057291342053, -0.4711256464079037, -0.30631120815485446, 0.3680430192142099, -0.6972292521308104, -0.6458375757701914, -0.6830848870243378, 0.6268048104589385, -0.2803053348040455, 0.5659328574976525, -0.3986652593052396, -0.7672138126805157, -0.7693919175493353, 0.6539039862213516, -0.3651932979102108, -0.1194522825987715, 0.3701916258862892, 0.22190629451775812, 0.1734822101968586, 0.1979341011393796, -0.21539008448191999, 0.2630491058930615, 0.6611935252588326, 0.716767686807519, 0.2300514033284784, -0.6317613423187813, -0.5703821859014093, -0.589879064345606, 0.7034351634010918, -0.44010737749834805, -0.7519844359870076, -0.3549557610104458, -0.4376351642603691, -0.33073997535648786, 0.5804045795292614, -0.7488109884392306, -0.4945276291176562, -0.547683387339087, 0.3470933952106756, 0.7073276998325919, 0.5483564390443056, 0.7657694772493702, 0.6765604542061423, 0.7993353730693242, -0.35561666707489775, 0.5012660150362265, 0.47272777345959827, -0.6952404032131739, 0.1636800478430438, -0.3975340450550293, -0.1882593138395976, -0.08933157975050787, -0.1422871247942432, -0.6338031118819345, -0.3785725958098192, -0.5269719373018089, 0.20090555097107843, -0.44452351628814046, -0.4143258021067231, 0.27742485566444053, 0.7148153877281254, 0.6287473775360664, -0.6449838829238692, -0.2374913586651367, 0.24444718777416918, 0.6162323725643573, -0.06619644168780636, -0.38090338504285715, 0.7703473766129167, -0.5491185723480037, -0.44663120420735364, 0.07944008380307621, 0.6041834241936737, -0.11205719263835667, 0.6296793300080732, -0.037281875420219435, -0.0704233597397822, -0.27624512718116156, 0.34302599826774016, 0.6443853985783443, -0.585982257700445, 0.05091615979491093, -0.2336420220089961, 0.5685635205635666, -0.7682420332124059, -0.03644544898830482, 0.10793785127280431, -0.17577212452407398, 0.5016313756424011, -0.14702085536441278, -0.4769462521032855, -0.342495745032136, -0.5421751258628676, -0.38944017512178136, 0.08858656938238929, -0.40604745105757944, -0.5643228070670724, 0.2812434159283481, -0.47670545383300245, -0.5037233595408095, -0.23135181617631062, 0.3876767118399047, -0.7242619489808961, 0.5844625944946735, 0.3566648683503775, -0.32853025286414717, 0.09083171761656339, 0.1969096523706233, -0.41988949135669656, 0.17469492620348126, 0.505072247320548, -0.5273191028097637, -0.20221223115602938, -0.5887197676951161, -0.29044649745002793, -0.013437067917151047, -0.7187522089790278, -0.34548259689550137, -0.5410574937953252, 0.27018694160665024, 0.50194101723586, 0.6934678068748572, 0.19365279601778362, -0.6959751061551401, 0.6017065789260958, 0.7876124284284154, 0.6815138615518654, 0.2666387019301357, 0.2411809826758171, 0.375653465593746, -0.12570164043365628, 0.07912093848018631, -0.16523185972799492, 0.5709386240242387, -0.4864698043012601, -0.2157702826062542, 0.24487628906534065, -0.7974586536097997, 0.3090605253028591, -0.048718121247542046, -0.477811098569887, -0.062407624085789815, 0.45296018555734774, 0.4994313535306467, -0.15719989575667948, -0.7529787410353386, -0.37965999381162857, 0.783522544073399, 0.6071070590775673, 0.05342803826109788, 0.4477724254709905, 0.6882701841430752, 0.32941397936488315, -0.17363108960524598, 0.3690514365058104, 0.02808051435497061, -0.1387339211353733, 0.26690079881980977, 0.4270891006785136, -0.6486093982590021, -0.1444071060228035, -0.050206128566010255, -0.5301897316633422, -0.5000349658647295, 0.19280398836724955, -0.4316179024394822, -0.02303097826916234, 0.775152507904519, -0.045958116487784806, -0.24641480990787523, 0.053873730081875015, -0.6853340266666001, 0.2408596665692071, 0.6151978537388065, -0.7329309996590925, 0.28501413171941303, -0.09534601185334979, 0.18010444583669227, 0.7860859152930324, -0.4537269115813006, 0.4632450969438515, -0.2213607380301854, 0.7344347465596281, -0.4525497788695065, 0.3460597209352074, 0.5568767828132908, 0.1420762177331687, 0.5622553430612038, -0.6765657739038087, -0.13080383775762017, 0.23067008894503038, -0.6233449526051928, -0.46038228927912234, 0.5320294412427831, 0.7519624087890064, -0.20884944603035405, -0.016881710894920632, -0.6037367191280487, -0.6612644335129778, 0.002280765502594817, -0.3079030319321694, 0.42232790816047205, -0.6831930109714727, 0.6794148229606372, 0.30657730177277287, 0.6185688585701989, 0.5656256827130464, 0.7544611310316693, -0.45669955835837667, -0.7699403045865028, -0.7959221879976855, 0.3936826050908713, 0.1831183319401971, 0.6415762844951647, 0.3171750720347659, -0.47763015923625096, -0.5751198655316563, -0.41498395510454994, 0.028362434626761135, 0.024686552030899422, -0.22617033405034415, 0.6181079305947996, -0.23875633253665696, 0.7425646061747961, 0.596593340209036, 0.46782086559964475, 0.523586488912744, -0.1509123413527611, -0.5110980526704527, -0.29155792071089603, -0.31446929747909214, -0.5266341424209046, 0.26625059074611057, 0.5708577389118459, 0.21298592276851647, 0.20546555530617483, 0.101765248810751, 0.05613226993392484, 0.25626767223857727, 0.711521223801912, 0.0996048394553034, 0.35304423711924526, 0.18308305893348253, 0.14071910431721746, 0.20629283288416422, -0.16420067469759903, -0.21595987816859152, 0.7074044825046717, 0.02643203038550901, -0.7552958349411617, 0.4679167370041173, 0.7831268211644935, -0.17667873465613693, -0.1708539369799429, -0.19701152861285587, -0.1649998858834255, 0.7490532333711482, -0.741212636727353, -0.05022383425638777, -0.001682351507169555, 0.16273679063940671, -0.2145552733081143, 0.16963754250334573, 0.17292297704067838, 0.3595480065413095, -0.535313020741867, 0.2826888102411613, 0.4844020445711861, -0.45262166318342684, -0.3772531325239452, 0.28760529323299533, 0.5527229138652539, -0.32809067877760384, -0.21909516538164908, -0.25508773702245857, -0.5374871229206386, 0.30500678468867726, 0.12606617575880763, 0.5644400815662205, 0.6307247480018348, -0.7246103489061195, -0.6571860993694867, 0.12667964850252478, 0.5190067872754554, 0.23459059483639, -0.20121623281245538, 0.20683716646401917, 0.3396533255086851, 0.5152888586171125, 0.7017689749537472, 0.5594495240597372, 0.5555754796272194, 0.2531580112037344, -0.6764738991484318, 0.660483993169285, 0.6762937396560298, 0.607433111047994, -0.48818548760993324, 0.5929090271622603, -0.39648269605846187, -0.5705344346606238, -0.11123423895585027, 0.4007842684762011, -0.618563356668727, -0.30740467207675426, 0.5602405236054113, 0.025981625845246548, 0.058419049991429994, 0.21073299276252255, -0.3626054467812658, 0.7807111475436921, -0.5316410820292241, -0.3628928089666859, 0.5982358881154264, -0.6019119800569476, 0.6914975706562656, 0.648694535842059, -0.7064802226178272, -0.15796083161480357, -0.6439108607998172, 0.38591230086011996, 0.4278893397917438, 0.6469116087218043, 0.7938521191698449, 0.4312166612217332, -0.37626754995515005, -0.6037947801423359, -0.6362913080046113, 0.07431095156706624, 0.3017882937375391, -0.16108246186886865, -0.19012380605206525, -0.07426767884791041, -0.6109010063783107, -0.11895173727145103, 0.5219375106299109, 0.7046461681241512, 0.29146504561145337, -0.5211243417985548, 0.6160800984549855, 0.6407413933713137, -0.35587522898675117, -0.5003218984353769, -0.741744572649031, 0.7941812749998112, 0.4809409771648885, -0.4953625351868223, -0.5984266685532863, -0.08837236844852325, -0.16105900381818294, 0.1477229866260329, -0.488191668452307, 4.1865192327161793E-4, -0.5583820704770359, 0.07341696297370048, -0.09354280749583022, 0.21704215434299745, 0.38096374415865997, 0.6352061646954865, 0.23434980148867957, -0.46988968430217676, -0.5552322047933385, 0.045825299330687685, 0.5743777076330812, -0.4678970175102844, -0.48772401667004195, -0.2906987346856468, -0.16653243463560918, 0.13820939944328736, 0.06786935929622095, -0.5260904578679826, -0.42451158654186366, -0.07533850156665434
0.7323028442208144, 0.5310250818560636, 0.6928879532421937, 0.42468436019115496, 0.21717031915133767, 0.7391404511394009, -0.3681920552638401, 0.6490168210496783, -0.43326519165370636, -0.6023748306711092, 0.2049527958134736, 0.6515892598288193, 0.18954547176740277, -0.4978779987369489, -0.18853211690191163, -0.516038608482131, 0.20811719364058567, 0.0759945087247148, 0.010801662756352748, -0.7350608437621049, -0.40944161280935987, -0.5408286327085885, 0.3928905534661493, -0.07705232127895623, 0.07446169267911462, -0.02406482818405853, 0.13516152059162023, -0.6918067009690173, 0.3788081973354147, 0.7606105669817469, 0.36163595570790186, -0.2956488913099753, -0.24879901022701767, -0.5658303432252885, 0.595980290644402, -0.4914231934594726, -0.10069614831553486, -0.3111657043994033, -0.7730882573890394, -0.5622959572467894, -0.7930747772446983, -0.148181761035573, -0.6190702506099225, 0.057551224240189214, 0.6367492651597189, 0.3634139906220981, 0.7239063561643391, 0.521324247396354, 0.2732782872505861, -0.18130780379663347, -0.31036872848010494, 0.7421635184769477, -0.13888627629366201, -0.6138567598547298, 0.6599697817847898, -0.7860527693180082, -0.4547351428990906, -0.7693459548204145, 0.2978541285995333, -0.06647586295622432, -0.4782625175094575, 0.0322747806200292, 0.16089183899741122, -0.033387409019491665, -0.5417830259749234, -0.5937064048453001, -0.7000636517433808, 0.13866417803673925, 0.3462223306792285, -0.6058013321398641, -0.4264716854900126, -0.47894585174444537, 0.09767121131474032, 0.4091708960311031, 0.2856784547378317, 0.6220211421962538, 0.5003574749344433, -0.5161880019369403, 0.6810246058508309, -0.7191558890558355, 0.29840582492736645, 0.3818752803108709, -0.7920403929864913, -0.39719622490742473, 0.36533062287908913, -0.7001699868455296, 0.4868870742212297, -0.1384589155629209, 0.18888802655216386, 0.49815092036981357, -0.602673222864528, 0.13448579622034473, -0.6115260369841704, 0.46628866915411904, 0.22415209659734914, -0.673908076139889, -0.6626184808144453, 0.3393387085423023, 0.17980594858418453, -0.22732144355396644, 0.16379567337409484, 0.2484883945924563, -0.7540974014998206, -0.5882623456054271, -0.5440358920727844, -0.6986151066387376, -0.645813295512382, 0.5376324566358937, 0.09854628581835834, 0.5526295349072652, -0.14661745377353397, 0.45467304460508995, 0.21870546692861903, -0.7613345430951391, 0.5850289827921586, -0.7223825092266578, -0.5779297358887803, -0.4846109689642793, -0.08204118958958584, -0.28128957443838465, -0.44974477908795035, 0.7508775845058075, -0.4323574065924616, 0.5394325198957366, 0.29319284984113025, -0.11031146989206975, 0.15318084394631826, 0.23419718625189767, 0.541090885750219, 0.3192471521701583, 0.02128952610366963, 0.052293556712966316, -0.6376079306079344, 0.03290391753173938, 0.49318790800699364, -0.7465629745287328, 0.34567619607324973, 0.6983027365755801, 0.5668587024279772, -0.6686491062645384, 0.5450056580417604, -0.6962336627553652, 0.43371411037422014, -0.5711343337746069, -0.7802203852673341, -0.6305341521436523, -0.45473640618824124, 0.3070851044345484, -0.03827659766681446, 0.4742044152411684, -0.6080590459467077, -0.17977025807395264, -0.5467972466130859, 0.2627079973333948, -0.3671876527867527, -0.31316788018846076, -0.5973854027987621, 0.16237807501681178, -0.05855247074233261, -0.5629798077752398, -0.4458307737852787, -0.04747623604511586, -0.6901993145061778, -0.045312935808451416, -0.5290595128099134, 0.2931537434831708, -0.4214914168223933, 0.022409342680637878, 0.6416235110487409, 0.7344703404754052, 0.23857725963783283, -0.08396305466993026, 0.7630020438942415, 0.3922707995536634, 0.2759898972839956, -0.015058293274038403, -0.7983101011385841, -0.6114763589492134, -0.7926680296480113, 0.09297246677381366, 0.2402729131960002, -0.2795503519198894, -0.11890828081882021, 0.5842290788745357, -0.03545814308596351, 0.03550070025811303, -0.7041433141847261, -0.5231715504035293, 0.7500672764649601, 0.25369104484169647, 0.21318945226235675, -0.5231008410658384, -0.14206869762459529, 0.6927986001900099, 0.1195285989339695, 0.5441035486834132, -0.7490068373729368, 0.3160169002946658, -0.08197766173957177, -0.07095159270158258, -0.006371947883562212, -0.4643004993392939, -0.5922334550575828, -0.15799154733722853, -0.30055917586135944, -0.5290975141925585, -0.26552048523821437, 0.40144847836748987, 0.643019672663786, 0.07049245024731299, 0.17320962863443634, -0.550106711580308, -0.6466439180363107, 0.4776499720663083, 0.2302340039620061, 0.013756824884873509, 0.15812107810726972, -0.37433864945196565, 0.5278687562473896, -0.17719616347628064, 0.04954912281766133, -0.6810465262841524, -0.337525806455141, -0.20601883405337917, -0.005755292088409747, 0.36738952488309695, -0.39749937606039404, 0.5234166228550214, 0.41078818885977064, -0.4940945058435098, 0.019982853363657016, -0.7805523157067031, 0.7905805489806113, -0.7543696050496629, 0.6254544121762156, 0.548602957675629, 0.5389287265436011, -0.7333053534598574, -0.697185857123974, 0.7555233489761286, 0.4649365120595881, 0.076994943158879, 0.6172414174570522, -0.043128215224384925, -0.04967269632220361, -0.17475503788123237, -0.3041820503236828, 0.2983420501935654, -0.7211111797857053, 0.1707052376551914, -0.24292311873542016, 0.10294173380546545, 0.30979104022055726, 0.1760464593310861, -0.7077378071093303, -0.5722154510009084, -0.37040740239265413, 0.3038645904766004, -0.12235528741827317, 0.18569163045719483, -0.6806881023774891, 0.1614272013357736, -0.5761976755094133, 0.5769625366438778, -0.0754972664568252, -0.7477059569209459, 0.34433506719238705, -0.584259725162032, -0.682163535046686, 0.45751674187397273, -0.7469509443193069, -0.5755436109773999, -0.10474523107240452, 0.08318526091613399, -0.024795938476066426, 0.10890496919643256, 0.14832055086377127, -0.324848991644444, -0.7150166373974056, 0.41555704211623734, -0.09304415564937774, -0.18418026602810222, -0.3420933071091048, -0.5882110026218541, 0.6483191123304712, 0.38196841476360577, 0.6534691428594204, 0.1187615619792407, -0.3808638874104331, 0.05660463910591462, 0.7198520650852025, -0.6342520694390426, -0.0796385866397642, -0.5480522818122311, 0.23911378111679693, 0.3237727278765259, 0.15461004677371104, -0.18532513227757386, -0.6921686406370768, -0.18451495490676328, -0.46163890178456807, -0.6513631010189883, -0.3252738987848487, -0.4127474283335179, -0.06750203643893149, -0.6956885088245148, -0.16663136079000263, -0.13147471408857458, 0.24631172798853607, 0.5483237810062238, 0.2946221657048955, 0.3325797509610777, 0.32165780053591786, 0.7404268707568196, 0.5400439394997851, 0.41181859780162, -0.0944829044618023, -0.29060222074444386, -0.31597137326296426, 0.20986071108018, -0.7292231646316207, 0.5333657429248808, 0.649039336392319, 0.5917216884328598, -0.15339285820343762, -0.6058466875049899, -0.5151662326443246, -0.7775549025433046, -0.5286261014553372, -0.3107269054107937, 0.5391575558764303, 0.7636091527151834, -0.017411318828259192, 0.34928439934737865, -0.6860638125355335, 0.12619464633297484, 0.40996137381860787, 0.4222783379224866, 0.41756323317912347, -0.782636894143362, 0.23918136566452364, 0.5513207489684069, 0.050441142383256254, -0.79224361504611, 0.06561759779778542, 0.5847458008122239, 0.13749689354331562, 0.7849919566490788, 0.6586888941254727, 0.023255353487362074, 0.1479545955553483, 0.148089452543533, 0.40921932236357916, -0.47815832576638617, 0.019211444733229444, -0.16337189983382527, -0.6663446401703145, -0.3713866669167827, -0.5717751616504547, -0.722504139329009, 0.060584410264147515, 0.5566673968927465, -0.26961852173379075, -0.22884575650807015, 0.5265566116651441, 0.049212219681573854, -0.38761820187796076, -0.27159467316374675, -0.5402254889738162, 0.5122093680822486, 0.6822351578093204, 0.3077091331002424, -0.6682229652881118, -0.44713624799139073, -0.7539758621781769, 0.3921638919143233, -0.49119188597797303, 0.2763552909635494, 0.1976587652418491, -0.5156784011984326, -0.7638789109338749, 0.7572669269128027, 0.2744036841791728, 0.3860764672095218, 0.6400336662333972, 0.41622652461794396, -0.292476090680287, 0.0699240285841457, -0.6658894747135419, 0.19634267771395186
-0.2737226358618472, -0.19252344695213064, -0.6805265612493347, -0.40156016256528915, -0.2728061736602222, 0.12796041615767761, 0.37015548891421135, 0.23621604090998605, -0.10401959760563906, -0.47497564732269687, -0.4817122449792137, -0.5517925350028863, -0.5771111958532646, -0.41999795429147935, -0.3847945572782514, -0.5047534442724104, 0.7032553638388837, -0.516098919682471, -0.47226066178359166, 0.14340957697561518, 0.3914960288572902, -0.7654418860759974, -0.3435853042221071, 0.1638823259532456, -0.3566155157846554, 0.4073914980751825, 0.29156659873100743, -0.11952852337173658, -0.06622895326663636, 0.6763632716880841, 0.2765614141482009, -0.24534585332682557, 0.5134632072010181, -0.09917637353848874, -0.4511238741887491, 0.6621205687208913, -0.3044488181640578, 0.48297503224963, 0.08135016556508234, -0.1711725054491099, -0.06197590339106773, 0.039753981025523855, -0.052513393552211296, -0.04135725779455002, 0.5160846820671339, 0.22199222378988326, 0.6862420663824389, 0.6987229665298693, 0.2541338180867183, 0.5527814047647506, -0.3566923389779206, 0.4528301781080335, -0.08604251954361819, -0.753973094247427, 0.5174449073589873, -0.5331459891462083, -0.18778769882146107, 0.10524019340856439, 0.5420040253283538, -0.32512934463711257, -0.5331323011836313, -0.6083192052812176, 0.7833137981579652, -0.19186977393938975, 0.14882501055810526, -0.2099781900401425, -0.6608051053380204, 0.13342807566128878, -0.6585022592476903, -0.1112247988306263, 0.17241166047662093, 0.7013776566924042, -0.5123025507799557, 0.1317757067760832, 0.5154382993096689, -0.6508353980833258, -0.7702657677196121, -0.4139151088921402, 0.03448007393040453, 0.5164252077632356, 0.025202619781831026, -0.6892611265594564, -0.3577493748439855, -0.40304607124088837, -0.25251473635162525, -1.7387441593719188E-4, 0.6005701264703438, 0.46300754576428305, -0.7434288968746462, 0.7124444737328575, -0.644588529393116, 0.763036329999998, 0.3523456078466989, -0.10885174502937411, -0.40141650072284796, -0.19226556920743376, -9.262943300555326E-4, -0.09044058355286588, 0.7518035363116355, -0.6766352011757111, -0.16364057099234408, -0.321120557102196, 0.22047371209192113, -0.33462371270111735, 0.5684266802128783, -0.017899623019163258, -0.23396234456181286, -0.750607300846507, -0.5498693087352079, 0.7937763139311114, 0.5973575562711528, 0.57071656600864, 0.564669841177978, 0.48227950919154683, -0.7168869933101537, -0.5524471242540324, -0.48546863460433143, -0.11947274648870432, -0.2612134419205214, 0.23722000117640096, 0.5237671619758102, 0.15022825579821952, 0.1433625343714191, -0.46132189496405207, -0.02374305951476363, 0.5537600006271755, -0.7075712024689521, -0.09123231472338078, -0.3088198366048234, -0.5131492766782078, 0.19593339119586484, 0.5836129892499258, -0.23652012562516933, 0.21430279682457565, 0.08041055574413247, -0.6892916366853914, -0.22633630734967303, -0.7099445052420326, 0.5570527500040936, 0.16126718772273363, -0.20214923568462173, -0.5680503752664574, 0.7685686048780178, 0.6064761893672752, 0.5255347715523828, -0.33938342888335193, -0.5706714979340529, -0.7946397809178294, 0.5190968583108659, 0.2009793361588743, 0.02486214870050074, 0.566024836295737, 0.6256636008294598, -0.416086767067627, 0.6383353907907565, 0.006107358675730423, -0.42153146504337724, -0.22532135736751469, 0.7231953113015612, 0.15232804626728902, 0.10143774477091738, 0.7937986903361411, 0.4427360627527257, 0.783097401350068, 0.5572831934445268, -0.014881005029704353, 0.7488994561829008, 0.3321965964753404, -0.6440514287007079, -0.7751522938163803, -0.22581257011253697, 0.635611349040538, 0.7668170504094689, -0.44556249645390783, 0.16212598289940217, -0.2823383157517263, -0.1453494694290246, 0.5592332158022038, -0.13671782952815392, 0.2766328290442277, 0.18579436873569277, -0.29612844372374114, 0.47539906229613904, 0.44417467017307555, 0.7277430028602787, 0.7744815914101222, 0.40777525014359517, 0.3567998150337619, 0.3917244361834036, -0.6332024874745266, -0.598421459715524, 0.29187319534560885, 0.3445249292791577, -0.6016428411044279, 0.6393457554889761, -0.41545227049136424, -0.45766376381321994, -0.08797676278437438, -0.7715168969898738, 0.6561639332384606, -0.4840280081499815, -0.02287468301414397, -0.7548560666240681, 0.048693940815727865, -0.5366393123905866, -0.3164154208333114, -0.6235764600339565, -0.42612859182728047, 0.181786449195519, 0.6634447115224249, 0.7003730490681137, 0.3497138168822491, -0.3010893776940458, 0.6632956413983064, 0.094896162140236, 0.21120341506598073, 0.2381697639115865, 0.630138375155465, 0.7681568503667833, 0.7459579554021232, 0.18070841303877805, 0.3623031262347567, -0.14531370480211836, 0.019782913517301104, -0.03743243239609606, 0.41609360568097853, -0.47705809489088047, 0.12106100295856481, -0.6275888297410538, 0.04789449565369297, -0.20836782103080853, -0.23300389164269186, 0.6916376837796043, 0.31054076751536375, -0.5463148656463327, 0.17879179011221313, 0.7452836706397787, 0.011809907856248025, 0.15829872832617886, 0.046907173849705885, -0.7913093288720792, -0.31803874555332606, -0.5969235119255831, 0.6715948969143586, -0.7585310760486177, -0.6136915546407217, -0.2601884536755785, -0.32201082129970154, -0.7031473105299911, 0.5578740709808925, 0.2990469784058887, 0.2690736262141291, -0.21889356612390054, -0.7857622507986193, -0.009898699655930598, -0.40607841438672243, -0.08579840665591765, -0.03824859844737638, 0.6348115285026219, 0.47266434424710435, 0.26954804743228356, -0.120641984362171, 0.04480791035279519, 0.2337040613648267, -0.15287479087986822, 0.7133131136766246, 0.05369729312982163, 0.7827523685300071, -0.03907851563084341, 0.4031695295207074, -0.43290492274254416, 0.037336601584990525, -0.10184747820356976, 0.39845017091892054, -0.604993126714234, -0.6755209831579956, 0.03429159617223332, -0.4855056311256911, -0.41737488693289326, -0.14668359044732893, 0.06450754991619001, 0.21502698521043095, 0.3571669975262317, 0.7384904145497841, 0.4386690764932648, 0.3980618244108698, -0.14005641244482414, -0.7357992416656816, 0.7636354545846127, 0.6008125770934913, 0.33441191347760313, -0.05712286238486963, 0.6631171614022782, 0.6283480373664918, -0.2074756388891853, 0.03648645438510789, -0.038047944226617725, 0.5497906330288398, 0.7832524794414368, 0.37255606340255154, -0.31179442364056736, 0.3949189583279502, 0.5387247688067422, 0.3010557637524103, -0.7369348067535493, 0.3230986740603936, -0.12502002692050207, -0.6976571728672694, 0.3750625663274949, 0.1255279052906253, 0.17590089356436656, 0.2704386679818225, 0.41171933179181486, -0.33915408763455734, -0.20954476246676101, -0.3400337558215785, -0.05172576984013566, 0.6132165494368851, -0.3750669846914214, 0.6991415612050687, -0.3302873770464803, 0.0010600934340816437, 0.2134329091434084, -0.664726176774769, -0.17111835002198617, -0.046330001092220185, 0.701411185913932, -0.3067077802527415, 0.7200364520417519, 0.4120131984287385, -0.4213289747413253, 0.5918789317916677, -0.32627418846634204, -0.40092436839852025, 0.44973105259739277, 0.27585147759789175, -0.044511994161622104, -0.25582382666260084, 0.4310754105920145, -0.6125009151621632, 0.07738986451612784, 0.23473616845737721, 0.7163497007454367, -0.08635909735871028, -0.7919949089264533, 0.3080524998667391, -0.34787039447002094, -0.39076411780562204, 0.3929893982932109, 0.584686268710487, -0.48154813467167074, -0.7875627711440694, 0.5749740132720789, 0.7841405005074007, 0.7098596037233709, 0.030046244354954732, -0.671939968293568, -0.14743680182028762, -0.035723992292001405, 0.18638311355973192, 0.7987597818080487, 0.07127489605243265, 0.6885840312342248, -0.20734494486861643, -0.02820697182817966, 0.10398150772570547, -0.7186492141937295, 0.10796405699922518, -0.14429089494065828, 0.5795969715593263, -0.34530069125100926, -0.17284072205277412, 0.5098680558931978, 0.4966613550303547, -0.6911084067461861, 0.14480211432234835, 0.4108761448354039, -0.12559619056797844, 0.3147500834258752, 0.4085733562456988, 0.2831343408808451, -0.3354389136734188, 0.2106072544121902, 0.3895157007909955, 0.7947206237421467, -0.02287366099602406, -0.07796530161611437, 0.26056609591795454, 0.04638860540591039, 0.5622633893653977
-0.4288615362268317, -0.6228169693863275, 0.29627220751325267, -0.7323118386066533, -0.6503022083374751, 0.06517145209604558, 0.16502377456780248, 0.17148400949114762, -0.05598369834393968, 0.2290151769751987, 0.18428014196614273, 0.049918011752467684, 0.2996703043871869, 0.22274827712633538, 0.2973937410189147, -0.05242398077060295, -0.7150543944968364, -0.06923766648556828, -0.6653786295500856, -0.6312067599696793, -0.365086195431746, 0.4308906693988106, 0.23320844302209975, 0.10164060949034481, 0.7743918850121674, -0.11834766717118084, 0.24184937339711898, -0.19464782464253239, -0.787588068407377, -0.5155151094729291, 0.5716829339705913, -0.5871945107693688, -0.34760901432394925, 0.38585943305882076, 0.4325430999477635, 0.43872871254617696, 0.0637522950104017, -0.15176756076760367, -0.6802517650189199, -0.4266296867702483, 0.11231287278694713, 0.13285233659819684, -0.40672501735463257, -0.7195689601957427, 0.14831420218051528, 0.7015003391687817, 0.4177243267572237, -0.29288133589129883, 0.20253541988006085, 0.758308971664986, -0.7919487420547467, -0.14675032922328535, 0.7424912423226397, -0.38313750045480294, 0.6525906367429617, 0.23538434971261846, 0.49227854481001, 0.4918474508381401, 0.16147525312217093, -0.37895609555243637, 0.6211992281201488, -0.12141708730474776, 0.6151043632678981, 0.3971210112397714, -0.14215167264331297, -0.3021764912260057, -0.6361169574936452, 0.7756575113246356, 0.7879192867234703, 0.047289861300414904, -0.642983778591991, -0.27077402534982975, -0.2544585603679217, -0.08455570187623374, -0.3452979259695296, -0.5127867894859242, -0.29047414971998686, 0.3770917444448856, 0.004634154919722633, -0.1866319797708913, 0.26745963047350085, -0.7955513567895279, -0.3597179144299547, -0.27596394338557106, -0.5878497919321239, 0.29138437470123124, -0.4150155798432989, -0.2044310581237625, 0.6864843685970434, -0.19739628606704573, -0.6775508614425075, 0.548455742111374, -0.005671166082306778, -0.07640063401222474, 0.7208204075134332, 0.38478898822798513, -0.3533382209126753, -0.29873195935852537, 0.17403176648723773, 0.5947378984402192, 0.5136872582881942, -0.07085561769162507, 0.05072923811420549, -0.5632335494254115, 0.5052474177136999, -0.6547290125753515, -0.4823897792358636, -0.16460594430971676, 0.6034085913914666, 0.5747842591482089, -0.16941410667581813, -0.5706391898134084, 0.3226616256163979, 0.6633586164730934, 0.2637382525870635, -0.05787919096550165, 0.774737717073011, -0.08828583897313858, -0.027395049436054086, -0.4643499204391208, 0.6666047108295035, 0.03545585830378317, -0.13511264764281739, 0.14761772072814294, -0.23822962886906474, -0.7614265348827577, 0.17824021944603952, -0.19896816635239634, 0.38658244884475534, -0.39700456688957236, -0.4586360775763998, 0.31453404084381376, 0.4647773489189966, 0.4606516417199922, 0.6211817437474769, 0.5305784344378519, -0.28490836255884033, -0.6714373606783811, 0.03544891126525351, -0.6822053303437864, -0.35168602617063294, -0.4484648566330098, -0.36329935794930074, -0.40710425768238123, 0.6517158999611725, -0.18889300892612315, 0.1500103491589494, -0.35344537770023265, -0.6496352742071081, -0.07655410614933111, 0.073591502906458, 0.34673613943301995, 0.18638160338866006, -0.13702983361172794, 0.32783808693475747, 0.7320326689521515, -0.04122701742121637, -0.48747883618686977, -0.43503744298841396, 0.09661524191880688, 0.5180239065954637, 0.4549801629532213, -0.4720482856895265, 0.7074737330318299, -0.6887941435219811, 0.18528474469881906, -0.42587655045649786, -0.21631748173225562, 0.024913007767568773, -0.16413791110261877, -0.34486924324943385, -0.4935096250442554, 0.17490435333375376, 0.4725596726209793, -0.32817951056253014, -0.7819039867629896, -0.457109381701369, 0.23221533048315957, 0.19891780547624072, -0.1939670202919629, 0.06246851463793812, 0.23707230665728352, -0.09893009791673424, 0.15915057202507976, -0.29223368507065295, 0.535306844611817, -0.2616560224047445, -0.47976103615497917, 0.1399278531039465, -0.11900226105649847, -0.7141615503726696, -0.05058950870808121, 0.718124453071517, -0.6190686209666425, 0.5686273728990572, 0.3514107751593605, -0.016653245644658865, -0.5003033370543255, -0.26017811424758597, 0.40909564604901183, 0.2747908520209128, -0.17141235902448382, 0.3060939600586532, -0.29562686824110684, -0.2597845945199142, 0.5878937845680248, -0.5684290690141268, -0.5030282551893173, 0.25320994691872967, -0.7537790332544733, -0.4724287392564325, -0.7295413580261855, -0.34812463719333114, 0.5045473421934055, 0.06221500891097542, -0.7560056061575358, -0.5350181553366161, -0.3932173306509043, 0.5005044908929444, -0.012627235552391758, 0.0932307368839671, 0.7026603090716075, 0.11203348893701937, -0.13404281817639274, -0.13519022402335756, 0.20285536498272005, -0.3399543888903493, -0.11881249983504882, -0.7140057380066154, 0.5302829037569743, -0.6878750736578683, -0.0386064746358693, -0.44089253572764786, 0.7855951110948669, -0.710635066514484, 0.4967140009115929, 0.6417186202077227, 0.008956397885117484, -0.002576538880970647, 0.7009825462981458, 0.7725167485596736, 0.3342396926349438, 0.2594351527030352, -0.7774959061131878, 0.4908629191345475, 0.19584857416685852, -0.6026866687461621, -0.48529129072707333, 0.528585493629036, -0.5375666949399462, 0.48453848584249615, -0.38326927185047754, -0.6458555569809943, -0.26416971255261945, -0.679909349952672, 0.7830255978438243, -0.5991444832146606, 0.4676179363137123, 0.14974618077248214, 0.24019725917211954, 0.3124250875857675, -0.5902562202680596, -0.7124767041797029, -0.5617267165868756, 0.09061060013941058, -0.5702592930905834, 0.7666205887946211, -0.2972742201610593, 0.03138365925772035, -0.31488797678780767, 0.37575802784967327, -0.6174000129119636, -0.012465098152248055, 0.36552807830062184, -0.08660987761679251, 0.02917418766577684, 0.7972228173218652, 0.6755397541154009, -0.5811746211461574, -0.5713627853854599, -0.130468868023214, 0.244576033697935, -0.08415321890937144, 0.4513323515493799, 0.31966127939637223, -0.08494411135689184, 0.03099245115274185, -0.13082082824936114, 0.09794950971644523, -0.32649291808955994, -0.47478363619657443, -0.2680530871486634, -0.34153875105878573, -0.2463529102481381, 0.10421298664924683, -0.017884180950311745, -0.7355239072410802, 0.05444331950218351, 0.4492511577082807, -0.07287468937710295, -0.37025887511732186, -0.21976683452032764, 0.6369253980410603, 0.3768700753941141, -0.5540680633582089, -0.37595387234063654, 0.19279563938527655, 0.09336848232862605, -0.3516770128220603, -0.3206666357640039, -0.44955171361828783, 0.4885886842222724, 0.22323204442016076, -0.4206279390756613, 0.6640744896296313, -0.7545174919896127, 0.5623655978829538, -0.07232540653414588, 0.14922366748363503, -0.4736628793414557, -0.7792454488119621, -0.10320455541264728, 0.00295332628903755, -0.5283806474156654, 0.6365324234707734, -0.6630093609731882, 0.28115784951445133, -0.018451576961783567, -0.27762985906558435, 0.05024713060373043, -0.5125776253706645, 0.51169615166832, -0.16005516616196758, 0.04926297061505769, 0.6543099816236388, 0.40297586212101, 0.7203815322869256, -0.5649802976702101, 0.17455239471111716, -0.09455622024208288, 0.7951703771373604, 0.5906530569652622, 0.7661782517134985, -0.2556004897012564, -0.44637690976685857, 0.7033890905451754, -0.4678264021100649, 0.41633403886010445, -0.05550367836375103, -0.4096242609603648, -0.6981662110456235, 0.791336874430504, -0.7090292300787788, 0.41830273608277513, 0.31752688384364114, -0.36236399625298366, -0.31026162433892995, -0.42923549715760584, 0.2571519988185582, 0.573007165852716, 0.6165120085555855, -0.1686159649637211, -0.44086185783954124, -0.5131489830891165, 0.6618343357523944, 0.6147775921076839, -0.7566080534835523, -0.7342002830955681, -0.027374145064174238, 0.19150299921075098, -0.5018351335551878, 0.09477676209420882, -0.7235267225748852, -0.28280389947961637, 0.02937300400950238, 0.2944961532780168, 0.11722344141262897, 0.1901638095396574, -0.45453444920685354, 0.5954501836576671, 0.13200940685029394, -0.7742370043612281, -0.2225005400699578, 0.3374965573541808, -0.3486018777863379, 0.7499583010640514, 0.7106417960897171, -0.6767806412053077, 0.4059115812428902, -0.6214861792121724
-0.4039131261942215, 0.38790140482537505, -0.44568185647737835, -0.26045247843014874, 0.2574749564531127, 0.4258958685447778, 0.07211632295674553, -0.5008110017139735, 0.4102869611403104, -0.6216119528655466, -0.22791780221484947, -0.10594580303488021, 0.539856607179223, 0.013896050011060979, -0.7042190758309878, -0.1585706282664503, 0.7347509374949757, 0.37722459105604034, 0.6231732618198691, 0.2926231519364584, 0.337460534412773, -0.021347930465447917, 0.7557224377414429, -0.38778229689240207, 0.7487043188156528, 0.766578285675771, 0.1230617924264168, 0.04764109746111611, 0.7381327099156301, -0.7491301701190495, 0.3980381760179086, 0.3195789012047907, 0.5907740466885822, -0.5167986095237641, 0.6065076912751797, 0.527804438166505, -0.35486673213225406, 0.3897546936190974, 0.6698234675915613, 0.7810709399221336, -0.3445868306159483, 0.39069853881020666, 0.6195173592975534, 0.6237701926511903, 0.3368912547670002, 0.5299367861585498, -0.7247600158635354, 0.0461254172843123, 0.6300485023379339, 0.07767256313415394, 0.17858597265412135, -0.1712515074093357, 0.4456074320154151, 0.1574002990847273, -0.5730057176555516, 0.7864541805161254, 0.1292008617350341, 0.5879996042667619, 0.5534748436557224, 0.14028616712007058, -0.5890456893965776, 0.02066665344132146, 0.5494766776619018, -0.43922729319557785, -0.6181723146046014, -0.010517049930156341, -0.6702259302411373, -0.21050802601174112, 0.46512434371995126, 0.08348153162126193, 0.7898100718026728, 0.3600895286847623, 0.02813869559021498, 0.48713577016526943, -0.49249991632905454, -0.5960468372107264, -0.394524841323206, 0.42525591169730226, -0.10694111350541835, 0.23981242945994774, 0.08213404843965966, 0.5873429192619752, 0.5919787964448529, 0.010593395323851729, -0.7889769003180374, -0.4044891136441338, -0.6021515950713383, 0.24492070950657285, 0.7161149927100923, 0.619151343897433, -0.7667366613690194, -0.11527770747744859, -0.44096607291229867, 0.7285765313954347, 0.7086441130849759, -0.7655457868860438, -0.27658252789995197, 0.11893970624202033, 0.17033746091505841, -0.748474070351718, 0.29796136052234923, -0.675205453651528, 0.4009411159064731, 0.6115682855813818, 0.7156182050743485, -0.41528322830840364, 0.23635370659821242, -0.1537506759297651, -0.46701662750559997, 0.6044749202672401, 0.11561397151325714, -0.03459423254947258, 0.3104634498381258, 0.3062986374549237, -0.21884295220119032, -0.4606801322218097, -0.6196140695591528, -0.45914366668842793, 0.7986763389357803, 0.4310346591572036, 0.7667703819007403, -0.4223849001202362, 0.26734351496505426, 0.23266226017111236, 0.04704458256624433, -0.521679345532686, -0.5572989432593005, 0.5737029086862211, -0.07744876778326171, -0.20260541792680342, -0.0038960725476473446, -0.36654485501345335, 0.0912535258399304, 0.0421113056381518, 0.4861502983674195, -0.7963408895144135, 0.29261005374918847, 0.7644782891087853, 0.3191029104055141, 0.31157873136533665, 0.12115256341877778, 0.6458054113651588, 0.02686583742353721, -0.4722102304783949, -0.4181379382132493, -0.7259868803355014, -0.10735689695599004, -0.5529958844818843, -0.41299851742545163, 0.7027899216492954, 0.605969438306013, 0.24432300353562297, 0.4706256900411778, -0.2792265112159298, -0.2696357690095891, -0.1266261666724008, 0.7235521531048585, 0.4479916867358418, -0.48157636810606946, -0.013151342108960073, -0.4718626086968872, -0.18413794447806775, 0.6107277702843286, 0.22402396696248195, 0.49876841374863945, 0.2761114448383448, -0.39349769244584626, 0.32390474183411144, 0.31053883592479226, 0.7230394028760434, 0.3955364108057462, 0.7866975146508948, -0.1748565136985658, 0.10261164205641438, 0.6924217030708242, -0.6796196844707556, 0.09958707334931882, 0.1209325803222484, -0.7842611797475817, -0.32680068907356064, 0.4898649968723465, 0.6537081527533111, 0.6063814740795148, 0.06698489166438704, -0.6616628211751012, 0.6973726398009867, 0.08076954820445559, 0.7102422184156896, 0.6600778804197833, -0.6083839776965467, -0.033734040299246204, -0.2159660554545909, 0.020047557133052174, -0.2178892225532313, -0.7323258696535941, 0.4577348427173824, 0.21949461619857558, -0.21870104523115386, 0.465255528609529, 0.7058012699680265, -0.31344206193086904, -0.1758360609120977, -0.3537307318572642, 0.5607604795212666, 0.39260343980441315, 0.20497287007035192, -0.3764018658435873, -0.44831274765563656, -0.707609895626057, -0.17996124921164114, 0.49658817979980485, -0.7585021803018075, 0.11272401521096764, -0.36938673486626694, -0.23920900146029467, 0.7904540088703544, 0.390820993464154, 0.19908466822205662, -0.6251388233758229, -0.6626674864579641, -0.009839204746874053, -0.059283522921262155, -0.25557743343483175, 0.10377657449944189, -0.5018210830049228, -0.327773923620741, 0.3842813579545681, 0.2914107517042752, -0.4632959096064932, -0.37243514288747304, -0.7280756013467681, 0.05536068027625718, 0.6926120508454372, -0.24967697061845906, -0.39319458082737513, -0.49811628633769467, -0.6972711999556763, -0.4387539871996472, -0.5585166537139519, 0.3718769444468333, 0.7035795461670562, -0.5615888632345941, 0.452239597100059, 0.03609383860651705, 0.7831406236259697, 0.33667566245856273, -0.23163602242250858, 0.04196130172236978, 0.348315856521461, -0.18792965438435094, 0.08086097378497725, -0.28404771781283444, 0.5484202420761914, -0.09412539495022165, 0.20289103587481772, -0.7604679019195203, 0.5715168555279386, 0.18217237389002638, 0.45582365038498796, -0.6192422846961745, -0.5429851302412847, 0.6017495996648279, -0.4936580651621236, 0.677673378457708, -0.6555005274667108, -0.04574249008842912, 0.3816002624894337, -0.26629315834259126, 0.2053275363549747, -0.14037199767980701, -0.6590001999187551, 0.7993346874288949, -0.3199166388768344, -0.11121026533212697, 0.48470864661155133, -0.22165407998026776, 0.47155424970632276, 0.1427964667554915, -0.16938380940262898, 0.011097184408541905, -0.580554518400715, 0.06854127528432541, 0.6929734973836792, 0.6512139898056966, 0.5096184097532799, 0.37829340198768047, -0.052465668088825135, 0.7662562384976708, -0.5528026360600529, 0.27935582049201324, 0.5695735046792578, -0.14307256839000304, -0.3505467436515648, 0.4092056244367215, 0.48272236373299116, -0.496529445149154, 0.19093499061475572, -0.689459435296138, 0.458123202227372, -0.2880441897250935, -0.24011833851510012, 0.7697183847794438, -0.24503324543264748, -0.35277265796423996, -0.13848877925694825, -0.3188626036757365, 0.19504038649237665, -0.1966606406722805, 0.530343893744865, -0.3108300177932657, -0.18452422056484674, -0.32362574824700324, 0.2902810883576159, 0.6983227889384063, 0.545448516198284, -0.3314024344036941, 0.6277227966403724, -0.7686403425173003, -0.29585648881008364, 0.2669675646255898, -0.5804304732856537, -0.04581334859810471, 0.11886417641008096, -0.09692053681912594, -0.015483360897942555, -0.7246402251748649, 0.7137233990416048, -0.284313183015812, -0.49738806514402667, -0.2328598634487431, 0.12091986393760534, -0.09899484480496101, 0.474609759280922, 0.04408187807562336, -0.5818374595802075, 0.050065711906240096, -0.33078270665740583, -0.5257975619417428, -0.7026281200490776, 0.43644877906363333, -0.5671091096299028, 0.6868463317973361, 0.6213457793942827, 0.23178973593266194, -0.48659607650799225, -0.31958393745130725, 0.22664331239147217, 0.49051282718101796, -0.32503129451386015, -0.577793520166164, -0.4174999655498221, -0.34069016403768765, 0.7592581096425763, 0.17164173899682766, 0.5171521920911468, 0.5309440983219738, -0.7267641826182131, -0.4527240289957245, 0.07450893058887842, 0.37602261351052735, -0.7387350007113552, 0.7969814392371777, 0.465674960155648, -0.7495593448328743, -0.054470457825962604, 0.41981062554265813, -0.7686125886246521, -0.009732834307580651, -0.004637462956952776, 0.6270809457861795, -0.06700518207566275, -0.030099376381354737, -0.2873589199080063, -0.6807062338620714, 0.14116651319148088, -0.2866120070036269, 0.09696776383022832, 0.6945609534153894, 0.7930854666117262, 0.11286210197981783, -0.11907818418101024, 0.09327582689889535, -0.05956165313528816, -0.4778855034008981, 0.6022260346087174, 0.022827175073509842, -0.28792006092695954, -0.04261542540014618, -0.7937624787943753, -0.7047825140341687
-0.2802763206584554, 0.29533992783525287, 0.5146639666026869, 0.23473921184429059, 0.19597323997290061, 0.7818925186512149, -0.5729111510981394, -0.785328823693874, 0.15788495935044367, 0.2844875036547889, 0.7552459318527915, -0.6463638936617508, 0.15212800802566484, -0.04595023534765319, 0.4159947254949985, 0.7270370881137509, 0.5843925142339843, 0.6417108061208618, 0.5608493265437462, -0.07585230763668083, 0.2597929164902437, 0.5739062367560581, -0.38864060829580344, 0.23843277255517292, 0.2873598904295316, 0.32316603463809157, -0.2851459428558698, 0.724874894585003, 0.5553101034046184, -0.6980103613961923, -0.778230832376184, 0.577480683133647, 0.4853457093513436, 0.6712612843468053, 0.31234163536630843, 0.5692032098452022, -0.074201578580948, 0.6687229588729591, 0.07701590832214877, -0.16442077929689147, 0.6449944742209244, -0.07291494917113595, -0.018528722379973717, 0.4724427891806722, 0.33778055446041444, -0.03458258372936451, -0.2762593875698871, -0.5428612803354738, 0.5597123081820461, 0.10152584970649714, -0.5825465147728149, 0.09172269252685739, 0.7549699250980306, -0.25291853138306275, -0.3882002438970023, 0.7056962796274509, 0.1456279102683915, -0.7886667138691235, -0.5146285290580958, -0.05511121167339328, 0.10146824244290209, -0.4467036687171579, 0.02760413675408624, -0.38784064118914224, 0.5110889263848108, -0.11362939482652978, 0.3481001595502853, 0.5146557298980439, 0.22662282975884662, -0.3465919014192892, 0.23068051759845942, 0.511428552096868, 0.6559430085911835, 0.15430859320067758, -0.5244272414548116, -0.6557372927212592, 0.22779447432904343, -0.7777140760643841, -0.7502941545151242, -0.12635097106292625, 0.55685439165911, -0.19098917451800013, 0.19164528230152622, 0.4308832752702558, -0.5127150970062577, 0.15289686503535727, -0.4057358696017612, -0.2636590771051671, -0.6050943941026286, 0.16886047581918895, -0.38519177295485235, -0.5769611032044655, -0.020324885339287002, -0.6880529475568227, 0.5385760332919147, 0.04365873214877991, 0.48173404656998287, -0.5687215668928828, 0.44899657874305565, -0.2717334381021186, 0.40582313676238635, 0.4448393229548093, 0.033451095660335994, -0.400970370649741, -0.3595458486089719, 0.6296827379580214, 0.28074671939879825, -0.16270986658506814, 0.709772544249629, 0.536197083472232, 0.7027125025390732, 0.5374204182948494, -0.2023857015472681, -8.603315746190665E-4, 0.4389515926947092, -0.22905418458088567, 0.7348207253286145, 0.23220484469898883, -0.21965529426652974, 0.42348383450292615, 0.5424391164663074, 0.7569559992009982, 0.0734633262740727, -0.2438886403047491, -0.42500244696222095, 0.3310149162480778, -0.7553864275346277, -0.31816668079795396, -0.19039302467687436, 0.10446270371689503, 0.7087933722236341, -0.1631107486252944, -0.6217959451612931, -0.45252938097923023, -0.7945907925748895, -0.3343030719566773, 0.4418123832605054, 0.05624025533482624, 0.529160400170348, -0.07270628450562011, 0.15726129824355917, -0.441603980952697, 0.40106145912521085, 0.6702001596956679, 0.3883639050256218, 0.30303504603650255, -0.34886395968442657, 0.21169174983717953, -0.23488047427273884, -0.26529823621256854, 0.4608780320453365, -0.003472337684744864, 0.09606676703817185, 0.5146174960298384, -0.35986206403977355, 0.5992480615850366, 0.7904772443471215, -0.4334423431089901, -0.6103446295629813, 0.17321368648058755, 0.2486412050196678, -0.11116866307847517, 0.1270207392859003, -0.061376232565826916, -0.6699393509749667, -0.01211862639734096, -0.26958801506183383, -0.5591883163351062, 0.21092544590862827, -0.2469156323101176, 0.5810145218663949, -0.7008208957475143, -0.20618683163856522, 0.0063937501548995135, 0.061594781256566256, -0.5938072599776953, -0.0658859900192571, -0.5754692736080464, -0.304738873613697, -0.37506988278289805, -0.5007549529800477, -0.15450948574997125, 0.08500752563057168, -0.4272771965148424, 0.47828135748153144, -0.06480548807744313, -0.3588020808798296, 0.46750903607017946, -0.7888068530574448, -0.1958198133596788, 0.7607125904516974, 0.05256890654883006, 0.3084405285697498, 0.22828464378719238, 0.4480392669930775, 0.5043788428728049, 0.18324113177365609, 0.44133855734862837, -0.6548452071077597, 0.5673842831368046, -0.6796131633581448, -0.3680485978261082, 0.5636057829016847, -0.6514485799700158, -0.14295062963297, 0.4905296691947518, 0.3887583387924325, 0.24362245079214473, 0.5525768956450174, 0.016734166737107037, -0.7472488971670712, 0.5560600084642271, 0.3758454032469347, 0.5116429611511417, 0.14924603035717576, -0.09126983149098289, -0.05970723273238243, -0.15704926322591284, 0.0896363695896234, 0.13743506668749228, -0.33167577554919436, -0.11440303089047854, -0.1230685481063537, -0.6055309327309291, -0.33165871788292095, -0.09572216534666089, -0.7998976583677622, -0.3205654174859154, -0.7407909323471721, 0.7583595107633601, -0.17176643367881683, 0.35361668614040864, -0.5214616434632491, -0.6262267890615929, -0.08961075775854643, 0.3832777731921908, -0.6372778721903036, -0.6594659988307335, -0.1363357182873275, -0.10370415922385501, 0.6882286571949159, -0.441410963486927, -0.14154588746129926, 0.32563314225013706, 0.21521534694420486, -0.23123756634039783, -0.7134617582150918, 0.7521834744028022, 0.47609037549300237, -0.43037315482086813, -0.5758639899330751, 0.04861015070014729, 0.20321163706135792, -0.2648053154096781, 0.17865557841107138, 0.06484783468903588, 0.7914750228516936, 0.5123836524282035, 0.7344186614967059, -0.41499511322984173, -0.6568939153128623, -0.10872569295246493, -0.31079263116909744, -0.6755349568615637, 0.643532640731252, 0.0052397641982393495, 0.5000409707646274, -0.7749503763842922, -0.5312227164730403, -0.16790963529156266, 0.33315347466902745, -0.05483573005430453, 0.12637191921224034, -0.7685623013396035, -0.4602949730281946, 0.7309163273173718, -0.7166410761405294, -0.13245370647579335, 0.5553232087718187, 0.5932519253087964, 0.1365055822301665, 0.3310026990841488, -0.5518681416226046, -0.29477598346330824, 0.43142153482321954, -0.6134054324398701, 0.2164887334709069, -0.027435121161247578, -0.2611690733191072, -0.461145274257464, 0.4642147794707827, 0.21980009574071913, -0.4521858136532341, 0.6207881685814802, 0.05766093294891361, -0.42679779985197935, -0.06260444837474777, -0.5246384414805318, 0.5955205178526262, 0.010945527605323191, -0.7605832259435701, -0.18660175631221, 0.19885803286431736, -0.3101136975130622, 0.6071981290469273, 0.39558362535764857, -0.3446122824310443, 0.547453906902752, -0.6439481286318567, -0.5996516335414758, -0.07140303974946638, 0.01620261296049874, 0.14327440736410968, -0.5965399906049003, -0.5311264340878452, 0.6776345279812379, 0.7068072846975559, 0.009214917043012028, -0.1596428911212575, 0.5209683293297462, -0.21668154587892785, -0.16281392888507662, -0.09620246763435458, 0.1615892816444887, -0.6219815251912106, 0.2825441516297187, -0.227732912774936, 0.3129800902649029, 0.5600888403020865, -0.16796787356465315, 0.3831332647293402, -0.2050065622239281, -0.19083881846624684, -0.6682644636676343, -0.7937360884241761, 0.6003903203522711, 0.43985021376818434, -0.13314594186094109, -0.6650023569763998, -0.3693696001439653, -0.017095834099062346, 0.22774154637917698, 0.7829748280208522, 0.6509629707917031, -0.3969001191873, 0.700544812810802, 0.43648800044598035, 0.4039303804264127, 0.0855722519335238, 0.53483375598227, 0.3885719292033669, 0.05945745149142323, -0.17617043084527906, 0.30467764876129344, -0.2923833568912825, -0.7312370951609675, -0.005730548974492877, -0.5063144729381681, 0.46984935618573087, 0.22839229804110306, 0.30357240859889645, 0.39859055202267224, -0.08840685861055808, 0.1497332711561985, -0.6530878753419789, 0.6600209195463038, 0.43377323937870127, -0.03156295259511155, 0.7164849569737974, -0.00683763597153797, -0.08229572435840993, 0.217232837774876, -0.04857754287734983, 0.405080095660429, -0.01224596223675456, -0.27531664678466683, 0.2217145340749238, 0.14952990693302792, -0.11695830813551478, 0.7914933739333285, -0.5096679371163053, -0.5158488372125307, 0.4768918952687706, 0.5350449469981899, 0.7993015362524731, -0.24100309947697252, -0.49067295720879334, 0.1818952612243161, -0.5229543693026161, 0.07941831008493028
0.03883604667273999, 0.020494275071341717, -0.7123434200638219, 0.057085931980907945, 0.7387818145278924, -0.26710120277334237, -0.26176670044496386, 0.12482308675660936, 0.7927407536205584, -0.18965840014117175, 0.16226273922771628, 0.7939120891797162, 0.3032988143787727, -0.6560904386633949, -0.49523914937188246, 0.34848794031040287, 0.7935270551231202, -0.07310001930328125, 0.5863216770345028, -0.6521891755495857, -0.1701976168694712, -0.22798400143824193, -0.07173565224690215, -0.6572090692718963, -0.3402579281284783, 0.5069201688854246, 0.6030744762279718, -0.7976590972573514, -0.35774592736262306, 0.7583515410936608, 0.6066731470378761, 0.31054330420042975, 0.5982676316257363, -0.050925887320902086, 0.02560966939424625, -0.5653188211530591, 0.012270957870160637, 0.2959861641740795, -0.10116455300873228, -0.3467567870535231, 0.2663457122226802, -0.3882163949865623, -0.2497195178259599, 0.572077601810516, 0.5899498763706246, -0.623367965329912, 0.09501537897116152, -0.05406942620838373, 0.3602639507710179, -0.33963468895878945, -0.001655688458850113, 0.1616686861425647, 0.38947691666448403, 0.43979053782705124, 0.7937378051709025, -0.7714539069953554, 0.28695165163204694, 0.0697422750338701, 0.5420752366973121, 0.1599404508875788, -0.5142280167545177, -0.6694092987083766, 0.1412308737833914, -0.2799558140863363, -0.5252646272394422, 0.38897182143325804, 0.3715989595520659, 0.6480597116805025, 0.7784185339635306, -0.2274309108589465, -0.010284089894295412, -0.5384902834845221, -0.12049472597646849, 0.273839866165269, -0.5412993970833953, -0.42066321353301783, -0.6208714799150882, -0.2383590414867437, 0.23079542040038925, -0.40547146406250434, -0.3574588240596439, -0.00622841123775042, -0.7261451531732442, -0.5349332973417473, 0.37899242220184926, 0.4875130495971731, -0.039811749165566845, -0.4189377424331296, -0.3437508809282365, 0.5193085886943722, 0.7127291529891515, -0.09500047467043338, 0.5517644480222126, 0.7887875512383686, -0.46993714287399624, -0.5289234794708035, 0.3940577420499696, -0.0035976546734621806, 0.08840921205879693, 0.06868950219908432, -0.45056703596940634, -0.2519924466852548, -0.4547820701242584, -0.07582642727784283, 0.36072504197956845, -0.18622581165244922, 0.24559742334673773, 0.4339732039217612, -0.6536740471298415, 0.03289404073726454, -0.34063922907095634, 0.6914784846910791, -0.08069472372396702, 0.26959165769276305, -0.14696632720374825, -0.11117344190906042, 0.688001771092303, 0.1900241084213221, 0.4277334167646507, 0.2640292175844152, 0.2510259378621398, -0.15628888590000878, -0.46961093614580424, 0.7028505859333827, -0.6988250604811319, -0.3027993929442538, 0.6723362009211591, -0.20607898719377715, 0.40432493233796873, -0.31826291271271573, -0.13411785874270854, 0.6746364195834129, -0.5790728425825524, -0.6192367075942828, -0.7840007121014217, 0.3944540987479721, 0.5892978771238633, -0.7028524566006104, 0.3808679404949038, 0.16125884863823026, 0.19145349923218669, -0.5959086100466449, 0.6415514294721814, -0.6744641859740126, -0.5261943130452076, 0.297736142837016, -0.7023506566365495, -0.7038510141990036, 0.49659361552181047, 0.6335473257471929, -0.4676630830698585, 0.5705863452626494, -0.7625079561395834, 0.1426203720925212, 0.7667615611320839, -0.4984041394025715, -0.6236017097620625, -0.4118878090846259, -0.34967041321845155, -0.2888015244971468, 0.5399613570836688, -0.06393355810781876, -0.19002121533959326, -0.19787319620418076, -0.014018883609231425, -0.4210375119420018, 0.10809507994394296, -0.5941987792032007, 0.3593665607326477, -0.5356195329220914, 0.4352940494855222, -0.35498327046055284, -0.147094870364735, 0.24523804748050537, -0.609149656912813, 0.17857730996623944, -0.34234256193486473, -0.5178841450666676, -0.4198789189621904, -0.4658235718391904, 0.1893548413178534, 0.09225188933920447, -0.3151291550338611, -0.37511517384036835, -0.5712613824552566, -0.34615240244093165, -0.4610304862903387, 0.7836698455564175, 0.21534328401912495, 0.6383907871725842, 0.7684957004327753, -0.060567714279631035, -0.7142118439343479, 0.15776240556499255, -0.06815790603549554, -0.3028901697176496, 0.44920433231862744, -0.4230420593012523, 0.3219800901556966, 0.07345808094091644, 0.34398622403374146, -0.6426843709761437, 0.6696051539219761, 0.6791834090538502, -0.6783799808944174, 0.7592065491153981, 0.3124456574957408, 0.42716364567352594, 0.15490343679425111, -0.4527955606041445, -0.22741880789577296, -0.41444448847451343, -0.13056680639187213, 0.404815013289761, 0.3101782824865764, 0.38365040014254226, -0.15119968595295297, -0.42009253265003255, 0.6986145259141447, -0.5825982598810557, 0.46549508649283755, 0.546053499828264, 0.5925238786062086, -0.20938910510834374, -0.7589142214276422, -0.02095918873395597, -0.5631406110277345, -0.7331799047879299, -0.05920164529522476, 0.31189189207854584, -0.10836873341866993, -0.10397639775626522, -0.7408132876501281, 0.14578033716210503, 0.4235407345483668, 0.21937150043770526, -0.14485495973038698, -0.7417006978720091, 0.24229342656154684, -0.3558983320817756, -0.5539228152711408, -0.3353992787273768, 0.33593763081445127, 0.31999943179659396, -0.12740030613701436, -0.6490154629578758, -0.21386423432710921, -0.3622542731651459, -0.5032820001746199, 0.11458057189672721, -0.7791604550821035, 0.7085781496259578, 0.197977824545284, 0.6068286828441669, -0.4115975480518527, -0.7262495837443208, -0.21634371354935922, -0.6074759301788145, -0.38627511099845563, 0.631340087467531, -0.16938070534217942, 0.20025840077684842, -0.27640974965435317, 0.1570148929499876, -0.5719645918022419, -0.24585099962110046, -0.4950872907049833, -0.5655678766256984, 0.5916971431436526, 0.4408110874268434, 0.28617997010066043, 0.5000072617154723, 0.4722650481212114, -0.020408729259171032, -0.19106350198662092, 0.04585058436494038, 0.0813111344239148, -0.5718587318866855, -0.6172843613860004, -0.7862670045574527, -0.08939895769856376, 0.06947577358114998, -0.6066088596823438, -0.7479946824674617, 0.321616981009174, -0.6092816858417474, -0.23851859616639737, -0.0035430439680194104, -0.26611402694105224, -0.7221964165747932, 0.7235022025709714, 0.07516273812128627, 0.0422402866371534, -0.6855342763320937, -0.6639740892150958, -0.27357029567989855, -0.05530051185693008, 0.6879056448432845, -0.02133193845513115, 0.35801738937547123, -0.2357739968557393, -0.3324081700546584, 0.4587844760708564, 0.2648675295078222, 0.6991689155852876, 0.7377129268788292, -0.10277550195789575, 0.06164298543710134, -0.3612273733238007, -0.5721383115946568, -0.398951134397956, -0.024563745561506645, 0.13169001077011055, 0.10059285716720923, -0.7943177334886086, -0.2169280881871256, 0.7970020098916046, -0.38143938592093235, -0.5044652509617502, 0.06648926049979864, 0.41880798818095655, 0.7280022366312919, -0.71131317695398, 0.19875380897986195, 0.5670140038430527, 0.7593989894494435, -0.20220320882600795, 0.46230913284361064, -0.16149157596556996, 0.6602064362889972, 0.3559512597836325, -0.2598570353308548, -0.48552356335941504, -0.36139136410920475, -0.4772585820133992, 0.3096034054618042, 0.18116867101859158, 0.21131525587304334, -0.2375884315055654, -0.5923351337845848, 0.26300001213089597, -0.7875198342021051, 0.11248725334214671, -0.5744958951648272, 0.06841904948351729, -0.06511500454146901, 0.7378545541984571, 0.02931126896296843, -0.7494512331724545, -0.5614075687779861, -0.008176938578008497, 0.5933211544609285, -0.46383541257004435, -0.023663106699063463, 0.18226858256182177, 0.07011450166491184, 0.17813520340911193, -0.35101731260306224, 0.6675136796233632, 0.2122998754177341, 0.03801660940717011, -0.38155788711060606, -0.21683322142217532, -0.7012494563200558, -0.09294903448170067, 0.26950869426088175, 0.027703169029349106, 0.007632275724953841, 0.4253846248006965, -0.5738769132891085, 0.3111331344641486, -0.3824789892219942, 0.3608825417277146, 0.09165179158977954, 0.09766608443422053, -0.6930279343681548, -0.5395216717789566, 0.7968211732326222, 0.14984096546808645, -0.4380360222501807, -0.411438006822492, 0.10301180129908594, -0.691843968585157, -0.21029594281137942, -0.18153023091658738, -0.2773190289600932, 0.31679423111573657, 0.17634392960369216, 0.34470306297841224, -0.3172570048146403
-0.5320977219484246, 0.5851525679712442, 0.6109355356224, 0.13665422629305168, 0.45797734277202706, -0.434963232639897, 0.35815464632505156, -0.6153483954961999, 0.032706275732593104, 0.7890195665446194, -0.6491401455099096, 0.621458817550985, -0.5122665435241365, 0.39279181904963156, -0.7024423115775007, -0.5225362098965767, 0.50407387253081, -0.16608599692770498, -0.02606510042732446, 0.6776145770912436, -1.2032856403987324E-4, 0.549895991594681, 0.10492971834674181, 0.261572492036634, 0.7384339747990636, 0.16152948731081573, -0.45397640998600014, -0.1740996391894637, 0.6599985461105111, -0.252696334732497, 0.300911203802271, -0.28510256429665015, 0.356705304360601, 0.7287965078136855, 0.7892697890685152, 0.5257545913069086, 0.2112429576434911, -0.2290031599611725, 0.7049108513588167, 0.7827661756510353, -0.7283462036580618, -0.7844255358988295, -0.4188401450459678, 0.37439771127441324, 0.13611738038185128, 0.5291790967434076, -0.793127696027743, 0.3360699578737312, -0.02683968339466336, 0.6629098887411442, -0.4869431277190877, 0.20058397624333768, 0.10429457437718526, -0.3168390120743972, 0.6766384462991086, -0.7728267350792057, 0.12764839824309726, 0.5481111794365405, -0.23554241908537077, -0.6407684328528351, 0.5627169690817895, -0.7318134026847165, 0.6671633734045497, 0.1498277558114518, -0.3520777967646398, 0.3028900956498828, 0.5492219058798247, -0.4668178927585947, 0.024233559288411977, 0.7104518473098287, 0.1678220128988276, 0.4093395067305423, 0.3896646352312645, 0.08081894511175736, 0.39002521245114785, 0.34833898108799266, 0.611021896546837, 0.44656387617998927, 0.2640674203392215, -0.09075931826593386, -0.5691543454169228, 0.3803547757063823, -0.12271684572378694, -0.6915657354090181, 0.6090449798276409, 0.35169212398003236, -0.44031420246294906, 0.26071476593756593, -0.30970938569521195, -0.2703202038956366, -0.23120086861239175, -0.6443250368215016, -0.410206310371059, -0.4173395153572765, 0.01789890789996673, 0.12102581092301001, -0.35834112925943257, 0.03960799357081224, -0.7136154760274916, 0.563517949884162, 0.45556422358953563, 0.44223134205349957, 0.07756457025824359, 0.26720171890687006, -0.5209174766226246, -0.3691914090905286, -0.7342984600571033, -0.7321762837025836, -0.43547954937241223, 0.47083038266815946, 0.700724345021654, 0.31122126438654085, 0.6907153587731818, 0.7415954407431984, -0.784421288955274, 0.7426392460475209, -0.30820822584349516, -0.6280364849316324, -0.7922507270704205, -0.23704508442941585, 0.3964417695885831, -0.47746682209460367, 0.1430489113118112, 0.7268597780836883, -0.6171439243097739, 0.1775745625216526, 0.5563330544222966, 0.5471100006958973, -0.19400397828349758, 0.5241095500078203, -0.19963957863912785, 0.30801916144875596, 0.65545748300361, 0.4595947132332512, -0.6794171734387062, 0.4804292921001829, 0.1537416762605398, 0.4837243058849754, -0.5897899340524365, 0.6694596297715465, 0.6063098573832553, 0.19393345531915784, -0.3735421327200607, -0.384606172665807, -0.13363899708513716, 0.21824443152933637, -0.27455034838528436, -0.1928700300013595, 0.07883494543220149, 0.48316056259718887, -0.10019436712616747, 0.1566793382053424, 0.7197047279380031, -0.17162418480562136, -0.12048556617059758, -0.6777370744883527, 0.5481859349917693, -0.25587020002119787, -0.7167542434646142, 0.25661697590694654, 0.7410517506176566, 0.021101143200579764, 0.08382478083541545, -0.6038185600400706, 0.7798061355043662, 0.7667939026375585, -0.22184855039524898, -0.004092404163678176, 0.013029302549075306, 0.7564346684050423, 0.028410180850270583, 0.4534837117270538, 0.4177726998364233, -0.7495390387048428, -0.6320213169978651, -0.14415991239979387, -0.4645571620827953, 0.024742687274651454, -0.3579940865526247, 0.01985727332830045, 0.45917571585266237, 0.023742304242739487, 0.5791930315879859, -0.41173628285444974, -0.6987333344530408, 0.7608810947000864, -0.33212745496856116, -0.7192280893145693, 0.570782262895779, 0.3544416388895939, 0.13604414168358103, -0.610435927555535, 0.5430440267862717, 0.7013989597789565, -0.08841211024519269, 0.6473014339202454, 0.004235606490663124, 0.15563569842902913, -0.6345621405294202, -0.7151067646775353, -0.09405197662303721, -0.4089414262061464, -0.18293810619397155, 0.4353245080037962, -0.333960122554231, 0.09419635906934742, 0.20815596858113605, -0.5710962649039912, 0.5037521828245717, -0.6550780015818731, 0.027023714869528148, 0.36435430456327156, 0.09857934770807764, 0.20800393697787722, 0.09267380109478673, -0.37076367751703754, -0.3860386140707583, 0.37225395740779255, 0.7842320149713684, -0.41775297178865733, 0.12842347168835921, -0.7618978331721987, -0.6721749377136614, -9.88153371358047E-4, -0.43164685199737374, -0.7315089359503993, -0.17034251182954208, -0.2779606948023571, -0.2618334449263232, 0.08204434459808851, -0.12943516332422966, 0.2445767372692642, 0.7951785360005077, -0.11847240282753335, -0.746111680554896, -0.10283526191332815, -0.08194698281196044, -0.025318875404660934, 0.3250798892267277, 0.2947527682661244, 0.3692738455843412, 0.5585675914946424, 0.7580079419412167, 0.5412989586107055, 0.6536374546250912, 0.40263936990134663, 0.42949678817025627, 0.5778404972439548, 0.6263319746344813, 0.7797933239836119, -0.4198040084121546, 0.19908404268566782, 0.2057300788230847, 0.15874289192212587, -0.11356250025785086, 0.65262652112499, 0.7975841761539284, 0.3851003315498891, 0.5443013374882744, 0.17398134555717615, -0.7611227759358834, -0.6573759389903009, 0.793672945547774, 0.09964490788743774, -0.5788580503705489, 0.2001486245191848, 0.08663824206443027, 0.33950375219493156, -0.6453728948227853, -0.6862226735118213, -0.6688760059711841, -0.42105766362750097, 0.48624893124482593, 0.46798045770177144, 0.11725485122791035, 0.22007638898174475, 0.38583055719004244, 0.00330371150194253, 0.7604599356714312, 0.36059722102213887, 0.666693269189714, 0.2924545976848838, -0.02807549172827295, 0.6477765176339967, -0.39177290881911286, -0.4094029293220649, -0.6064547633466346, -0.5657573247631691, -0.6003702635084578, 0.09974664946473588, -0.48889030027654884, 0.10120224152534552, -0.374433965661515, 0.3512214263593949, -0.014016798021018295, 0.10384345910525872, 0.36606236563712824, -0.07583382025376295, 0.422148590412047, -0.5672799341424701, 0.08451286198369812, -0.7177699120434626, 0.6120077361904086, 0.7739769201672748, 0.529237036225356, -0.47545993110322976, -0.419085602936549, 0.2903415259755957, -0.024409355467328808, 0.11117569135756555, -0.12302722554285772, 0.23386746499472122, 0.08719426347583603, 0.33741214938916153, 0.729196997393533, 0.5404785557226006, -0.7235933662910139, 0.4950622563361877, 0.5236891535417671, 0.5454253927955126, -0.10426789240705836, 0.07330957599916754, 0.7240578465575818, -0.0021722256316613064, 0.2934141613239438, -0.1845120183334974, -0.5111407773792065, 0.24153942616979296, -0.2819706077944849, -0.03767481310963239, -0.18459303388427806, -0.23136612339291907, -0.1415406376674504, -0.22376996914649128, -0.33414085772778856, -0.2591269807949578, -0.14282109845787383, 0.2552666704005868, -0.5919472444916732, -0.28641835149221906, 0.7363635988191406, -0.7904796976285383, 0.6301189212692544, -0.3145851133146641, -0.47211926735875703, -0.013378048365185302, 0.7644747621076555, 0.5365670680931138, 0.5997903217598484, -0.7027371229653195, -0.41665006316382525, 0.5070331789505447, 0.12354600869800714, -0.19440923270721555, -0.6954313779600491, -0.19440273622970194, 0.5276477598157772, 0.6134427205185387, 0.5728701429776051, 0.729283591208598, -0.46493940659483307, 0.6814331660592965, -0.041386036504682644, 0.4120694674249916, 0.1832764223436062, -0.6060240835772689, 0.04227710592796097, -0.08927841714487972, -0.7225411902659316, -0.3106160387679371, -0.5702850265223018, 0.7746786757965645, 0.028671673389238927, 0.4402511151829167, 0.3697185110487986, -0.264031803098668, 0.18075764939921457, 0.4833837894686517, 0.021963477958889754, 0.494204335759973, -0.6690081937163866, 0.46261255766932297, -0.5499896601747725, 0.36078007229702913, -0.3987989646220806, 0.46187648182025964, 0.09057474898885509, -0.43457398252794843, -0.08239908998894507, 0.07003453759235234
0.6696886042407926, -0.30206845539507476, 0.4854738935065759, -0.46324384738775887, -0.23993564550697977, 0.28682335069874343, -0.5344909537485846, -0.40142100583722995, 0.5006902057947213, -0.49155303548655205, -0.467531245012291, -0.6489296512925613, 0.15275706848082182, -0.6325983659163308, 0.22333912046705318, 0.010140822514846048, -0.3972739695326961, -0.4773155902209217, 0.1297110837466109, -0.2270206586368062, 0.6781392582100407, 0.22353475146218282, 0.4232905369127702, 0.0023969235474023964, -0.27624066452867047, 0.6211958188886322, 0.4003550882296072, -0.49550526873021766, 0.2869144520134497, -0.08632662869764762, 0.5635662716671448, 0.6575176522734034, -0.3875112443854267, -0.4053661406068583, -0.5638930150677901, 0.1888174922643181, -0.05044067577777622, 0.7416478697501068, 0.6296783116406939, -0.7140882208699525, -0.3767549211815901, 0.3930454724288477, 0.6644506703116864, -0.7333127812448759, 0.0268939640318292, -0.37328590593331445, -0.7343718173229107, -0.1771409556723207, -0.0587021681974067, -0.23176821534068393, -0.0621538848144183, -0.3101398461156164, 0.289187527716559, 0.619790023960942, 0.7451855386295183, -0.7146036808012491, -0.6151779451086423, -0.6845754233959694, -0.19884984723380583, 0.5979662544496394, 0.14004895279329088, 0.37213410688758986, -0.6004860747412449, -0.6042920922709931, 0.539775507805313, 0.3205288108653943, 0.5935101719064884, 0.6649949823605965, 0.20135260943037636, 0.7627149764593666, -0.4426052062076698, 0.07726957373921695, 0.1839356482734701, 0.6191818979775807, -0.5590195298460442, -0.17833976637611926, 0.41544953329748635, -0.709477468658037, -0.14570137234814384, 0.7299965765601157, 0.35634713792981354, 0.2738792629938116, -0.203888901305044, -0.14010594113058694, -0.17908661202434717, -0.5619294513040833, 0.7665539353228137, 0.3906456463758212, 0.628429157724117, -0.7245838604830219, -0.6192405812977276, 0.02571902612739263, 0.35807197993726714, 0.4123403207762377, 0.22686412920396815, -0.5152793543634143, -0.2670068199769482, -0.3251037847471405, -0.011625596175785624, 0.10675017925081165, -0.1394265615475121, -0.33058376022751457, 0.17742160097831472, -0.12386747279090371, -0.09257929387106267, -0.6474439098043914, -0.1979964612208025, -0.07942490437248573, -0.2107618662286731, 0.42906242610941003, -0.6831301641131788, 0.32086275153966803, -0.292748896207759, 0.2296567079665668, -0.3157276869686507, 0.510263389967383, -0.7355547328760681, 0.7854907650072147, 0.4973630314189412, -0.7691190000038077, -0.15356998095958274, -0.27030924282114344, -0.7044134947819883, -0.046745081172812286, 0.15330488402325293, 0.6205706028516642, -0.7720266643754965, -0.5454334983637399, 0.6204673405690866, 0.29515673843259194, -0.7031930645603961, -0.510123004462139, 0.3678649715892752, 0.5257295741034214, 0.1406958023701822, 0.5798833933348098, 0.26875572745994836, 0.16614934946424564, 0.6926472029478012, -0.722259641045175, -0.6693963596395145, -0.6612040108892269, -0.12469897622692105, -0.1334398661464723, -0.7677007850867696, -0.5729837477542246, 0.7720435975844047, 0.2782641460914841, -0.03654336456273055, 0.5020325515783515, 0.0392853821625444, -0.6864775499680358, -0.3368980329943206, -0.27266861284300214, -0.09825192794434501, 0.38157986239602026, -0.04337023980960486, -0.5523884381253583, 0.6991689652492719, 0.7678305390174021, -0.4585329631311599, 0.4834344331105793, 0.2293938091013079, 0.4760640394479436, 0.6734467554025065, -0.1832185177807505, 0.4593910510900081, 0.18137006431807967, 0.35745552516370327, -0.4332131232236398, 0.1522831858386825, -0.2312500327748097, 0.04748199057812563, -0.48102515888121733, 0.7850534807082727, 0.5215469424201491, -0.28724418156746023, 0.4853945401238857, 0.008148730303684792, 0.06286829800657967, 0.22822871294588642, 0.03710769879925435, -0.17523859227307648, -0.7577637197029384, -0.20078721439594494, -0.33545376927237813, -0.3558634970797826, 0.6987664918279124, 0.33155200823270325, -0.01467962317749516, -0.21018812599682224, -0.5787651712574733, 0.7102674367767785, -0.1668808134021711, -0.6797377762613914, -0.13554275373654223, -0.5488227216617589, -0.0745903621282421, -0.4540198583037068, -0.3295320563350217, 0.741556576849882, -0.07829948493466166, -0.1964099330674367, 0.78204582084647, 0.28746371185447406, -0.5517976353992533, 0.4741532413214202, -0.0748002830601241, 0.6369225408938306, 0.2787753570878526, -0.49061592615353117, -0.7237137083878811, -0.6502871030923926, -0.07387958906841396, -0.34393822513377936, -0.18150236149341903, -0.46391675283513384, 0.011231298371096488, -0.2545177627872208, 0.031516491104400024, -0.31173722055618697, -0.456812765020519, -0.7586410552343242, 0.3472009162223615, -0.419787619525639, 0.4554293175980655, 0.716143243594092, 0.4432222534559276, -0.687383586898754, -0.3912745494523524, 0.4522973352117361, 0.7356425396208655, -0.268320427731754, 0.38509097197363573, 0.14161584322314735, -0.2295198165596295, 0.05185619254788265, -0.03900377176437986, 0.6822535490814854, 0.4033755611525913, -0.23579907343064765, -0.6377479253850069, 0.3496809654255739, 0.49552965255294423, 0.4135932190834364, 0.06702990960196686, -0.2556499293696385, 0.34315307308731713, 0.5796496746913691, 0.43753274280908294, -0.3045836061734605, -0.4032766516929309, 0.3977015724733628, 0.4248979428804929, -0.673574624854361, 0.21541224636765866, 0.20777674759359277, 0.6059740120628898, 0.5654340837633425, -0.15889293211831323, 0.22108796035730816, -0.7253235545556618, -0.6913989045769473, 0.6655119691983573, -0.354908033303294, -0.5753094030554732, -0.5771596705042441, -0.39712176272057836, -0.6902534211953392, -0.7756490349247493, -0.20030269797544598, -0.03002508342329624, -0.5108450851479118, 0.5985902678223103, -0.05083179201492638, 0.11397342989755843, 0.7143488804991722, 0.396912733311507, 0.5487451720963115, 0.11798293289760464, 0.7245262478895451, -0.6595904682118438, -0.46046683751524464, 0.6530345683278238, -0.6943814032747462, 0.3048963763224184, -0.6121526234717231, -0.5656232385055162, -0.5833709312803803, -0.08868425883445785, 0.6072608546904004, 0.5790044289938778, -0.2942578254458482, 0.2586089355085286, -0.2373636695377549, 0.4504094681657629, 0.66977044492242, -0.651674431772129, -0.6457622208568511, 0.3156005731588427, -0.08793606171822343, -0.6856996102269147, -0.5934203525073761, -0.27149608694484006, -0.794426795600927, 0.18479007681584425, -0.5367652657705136, 0.19291869346057344, 0.16931672064191383, 0.3685254243755298, -0.18461625873091625, 0.34726384443319747, 0.7180677204689399, 0.17019586456345392, -0.6315474890167035, -0.34758556009764735, -0.5533625244976114, 0.6049468886521012, -0.2222553116523468, 0.15298938598067513, 0.16169390443520792, 0.19553287596999458, -0.2394591642134717, -0.2784856789339415, -0.12438179966460972, -0.3001697297182171, 0.6186971410273507, 0.48394581162855044, -0.07153663265849963, 0.03047868189278924, -0.017660632109336993, -0.7358943614548412, -0.09435806949096148, 0.39248004561519845, 0.011810439781709592, 0.47363682062934753, -0.729468066820669, -0.12135125910650524, 0.37159182361812904, -0.08684498675623664, 0.5327537879844637, 0.42686695956332454, -0.3835172263730714, 0.0393314095703341, 0.3244318096179579, 0.5571636420265038, -0.7931176261272075, -0.2082937636005321, -0.24168252172528726, -0.729303060408454, -0.6034171639407687, -0.13790553080094692, -0.3067855312557297, 0.3067822603767918, 0.5130450649535934, -0.27149341325629206, 0.43370656259865714, 0.2181716629111683, -0.12331094995721803, -0.1354281640612891, 0.542753412754047, -0.5611483538782078, -0.2177044357274761, -0.32548771294728757, -0.5527188267324104, 0.08268994361408077, 0.39217660838298185, -0.3072212542079532, 0.5684570068544084, 0.4253231863920226, -0.1326641263173356, 0.22652304020501512, 0.2098998211027614, 0.6857411628565024, -0.6105978712148703, 0.3081423847483955, -0.41135833703480706, -0.5619149379971934, -0.6973185806941663, 0.5641950186173577, -0.40478371657140466, -0.05176043686942933, 0.03223591959376004, -0.20395162253775878, 0.5208151154047056, -0.6561385199147969, -0.2895391612995182, 0.5066832127701855, 0.09101173403977647, 0.7905502840227647
0.6917803116203858, -0.19915125835118863, -0.5563742951680655, 0.23880206207409582, -0.07950425086595536, -0.17107563378510382, 0.19853890813633868, -0.7854907117332518, -0.44718762018565156, -0.40635778455529153, -0.29779775897515304, -0.3088810318018306, -0.39269733166836596, 0.31530805147217644, 0.693000664883624, -0.293734722643041, -0.69244080966384, -0.09822442667153164, -0.6908035124640137, -0.5698173371861568, 0.49108679306006353, 0.3469282952865913, -0.05707836564478941, -0.6452721586879036, -0.7467689048984893, 0.6993167461636731, 0.15813589132671058, -0.2472229724120102, -0.05935592019724789, -0.4513440518780833, -0.09341467270634407, 0.7064844708559115, -0.43964768765621687, -0.1080490381762742, 0.4523552042083592, -0.458048720904481, -0.5279462729513924, 0.6050804552247067, -0.35782281029387414, 0.0969156949900819, 0.08283335693379801, -0.24026892286759305, -0.16478980068935356, -0.5128611869280446, 0.7650492305083609, -0.7103627034857753, 0.5325787310087837, -0.27377806878556044, 0.5697034262451812, 0.02414473627445124, -0.07648549275491645, -0.30734535378685596, 0.3091747793043709, -0.3288231420780752, 0.591509064293885, -0.07304556989164834, 0.03475315032282733, -0.4542524269142121, 0.5004487007111658, -0.6191778295015796, -0.16402327462134514, -0.09577512751811168, 0.7072642659869384, 0.32929980437414486, -0.1596627133926226, 0.2586130872631647, 0.024192216606847006, 0.39597841509514664, 0.4934801027429492, 0.00918395554577478, -0.3196956040828301, 0.6303688781805392, -0.5484122439477433, -0.6521512185484076, -0.09147205227415411, 0.6156084235325907, 0.3192005129410793, 0.2487269565492083, 0.11093804862684864, 0.07373919193490541, -0.18271331566730376, -0.7235713233506094, -0.36833056254778057, 0.574858477644854, 0.5679410314823592, 0.7066312583125083, -0.4066452342992024, -0.05449880501249549, -0.6663503338306527, 0.06759242469850313, 0.5295607121905324, 0.6106784302638848, -0.34937570335577495, 0.27530490127475593, -0.32774518960714744, -0.6069410008036444, -0.2527306901434342, -0.5509394011419415, -0.2701011600858607, -0.1681576105958078, 0.240409733426046, 0.058253794774327794, -0.18167309148804378, -0.7270656688927922, -0.2465313994749705, -0.33468348764093164, -0.716870905402168, 0.621099100724839, -0.49765396171047205, 0.5937406185935221, 0.07882346876557933, 0.33382485370048265, -0.7536852289620017, -0.6357954606711096, -0.053337220845421696, 0.37570054383365603, 0.002808603286291622, 0.3058848080106238, -0.3405166022349283, 0.04116615111075528, 0.776543302497382, 0.5640944892811088, 0.6785677416146849, 0.5925597435123195, -0.745027649085023, -0.21054576250203338, -0.10594713072341266, 0.7494478200939778, -0.02635838922932443, 0.30786285594541574, -0.3030184701212509, -0.19571238919150835, -0.5434303774543299, -0.6654018010348688, -0.3423466596219095, 0.7285331643038002, 0.2883436503403356, -0.5900598540737927, -0.238502839821914, -0.32764174656803075, -0.6238169446877997, -0.10222831828154377, 0.4802475913386002, 0.7502332093335635, -0.18821592602487125, 0.3026746668901068, -0.06722842429578524, -0.456346201743275, -0.45567608714579716, 0.5251012533708126, 0.6164531176429653, 0.1413842604039519, 0.7275626430832227, -0.011737172842917531, -0.3333931936961218, -0.023362490285307458, -0.4944545647393028, 0.0344422031658812, -0.6720465278356035, -0.19032045816105714, -0.44703079190246825, 0.502495813795427, -0.10124634463832805, -0.6565937173540297, -0.11215879131915452, -0.03762286033748308, -0.5652429829617355, -0.25149527566443675, -0.07438179862346639, 0.49657254612319335, 0.5766882704736946, 0.013871758307519522, 0.04557891865588348, -0.2175939977333311, -0.20844656710012122, -0.2729727049554279, 0.49174380835702314, 0.7432291651070091, -0.7053888978307852, -0.5716795850716324, 0.03221918961466341, -0.1994225240993558, 0.1454179814815646, -0.528210101667344, 0.4524051289908171, 0.7734348959562127, -0.7120813331115867, -0.6353972005750766, 0.05906940967057006, 0.33481182790183195, -0.3688868102611986, -0.15394236199394995, 0.12385133887177047, -0.550095610568836, 0.24339796418013115, -0.09379885698198132, 0.5963230418644934, 0.5841649776267397, -0.639761631266749, 0.5331691231592244, -0.13170275311034962, -0.11632372812468661, 0.1813935709370309, -0.5825735547231847, 0.2726337368660985, -0.6057155741801662, 0.7604768380982327, -0.26985852507379493, -0.4486411584152878, 0.3000083551968138, 0.2661972507111716, -0.16800579027345164, 0.329474879408292, 0.5253059601533703, -0.2788094340203354, 0.15777946968882384, -0.5176008842488309, -0.7401610612139582, 9.103989506267229E-4, -0.6387710977337218, 0.7865341338066381, -0.17155769956049893, -0.5983873205964516, 0.4935380942660723, -0.6059660358808103, -0.756935047381964, -0.5369709450882136, -0.07185231355954258, -0.5256068202357507, -0.6624871020559244, -0.6421123377486234, -0.2666103696077492, 0.41704819332410303, -0.600113948338866, 0.0370015984321832, -0.5663271488406094, 0.6907426925719937, -0.7183348417662535, 0.6452088970922991, 0.7889440552499944, -0.5930281199331771, 0.6764653512361747, 0.3000089457649806, 0.16122311536359424, 0.6363822701464543, -0.5744628993119628, -0.24869571403504231, 0.026073768077510606, 0.5785666279160822, 0.521156688307925, 0.11721777989248072, -0.5740659999124799, 0.38725582593171426, -0.05688850238966503, 0.617519189125314, -0.5487079862583766, -0.5955277671621517, -0.42245208181886246, -0.7972440022894443, -0.6252430840241576, -0.041228243283251365, 0.4315112795718148, -0.7962527858024165, 0.25213526227743976, -0.2657366801765495, -0.029428926663720212, -0.7973390070521408, -0.3563126644782919, -0.5813413214241434, -0.729013666631241, -0.5465414164973088, 0.7977995470954669, 0.6901661865204181, 0.79192847664483, -0.4439490771930304, -0.6216282661570599, -0.19539404346258027, 0.7373419918272242, -0.08492387675672552, 0.20628062746633846, 0.6956858096282108, -0.008914400063604333, 0.1907679201821969, 0.3243434884516545, 0.20293961853262288, -0.7269414568667174, -0.5240509804478407, -0.6157319624113754, 0.7933931188326357, -0.5219198226099411, 0.5097445796131732, -0.10686232782721083, 0.5445834156712281, 0.32335242847158274, 0.665174182427547, -0.1539567664431759, -0.5918777801402477, -0.5556021717195933, 0.5243429530103183, 0.3105349415879406, -0.7254452508317739, -0.05657136553560682, 0.5815151599060415, -0.5823686359067921, -0.08817205439556941, 0.30816380583900527, 0.7909159170370457, -0.44681620049109533, -0.5487537607525894, -0.6168252773037743, -0.09733109158701259, 0.3324572697512722, -0.053646666532133125, 0.6899016155198687, -0.19315843322465542, 0.5798525186618597, 0.4317421199039049, 0.05554615778827543, 0.03213003977616502, -0.7752450615687577, 0.6603577297242949, -0.574892369328408, 0.7222801756945183, 0.5635592779099183, 0.6994197937773119, -0.10510716013402899, 0.4399027912376654, -0.6730185370102417, -0.7833456081254639, 0.4198922700907628, -0.3760964698362392, 0.63083164322291, -0.6099133987546728, -0.288522507679021, 0.6533107323406533, 0.7774843115516732, 0.32620887393214537, 0.3559376641615637, 0.04684731101660533, 0.21434476726622198, 0.472901839966267, -0.2515650595168619, 0.5541540139514636, 0.5446729205433003, -0.23495292247927824, 0.45102152767022563, -0.4288641106664505, -0.27481143041025846, -0.05766616135916003, 0.6474232539687519, -0.5615357909434704, 0.2739441005479999, 0.43032393186306206, 0.6813576309154674, 0.35882991092767247, 0.45101380773053457, 0.777402180826261, -0.5707840328653525, -0.504892936805466, -0.03638891516853027, 0.29180159746165435, -0.7279974008754835, -0.1118535937516556, 0.5863069555033598, 0.024455132912543975, 0.2954859093300599, 0.5594827630889048, 0.576086890809596, 0.7949886214674196, -0.1384209139110938, 0.14080164521576377, -0.4989558555004015, -0.04026787824543887, -0.3419696757080212, 0.5985736479503971, 0.6905713117062875, -0.1278115253800337, 0.34756542157843584, 0.2988266763572227, 0.35397390625476155, -0.31203838590706623, -0.3983125591727845, 0.7835900091357022, -0.09650806550721813, -0.2822911856902328, 0.21840152810798985, -0.7928946713165438, -0.04322108849949324, 0.7332438260248251, 0.38719442446634167
-0.6042935075546434, -0.4254442067486979, -0.5481318163830047, 0.1727499302379405, 0.5622831817655036, -0.14592887722043257, -0.5625021893776172, 0.5373342216524015, 0.7495539104860895, 0.17091388123778872, -0.0970940266673459, -0.6130272444078377, -0.7134318265524353, 0.5821057754948222, 0.6755146231268312, -0.6914712040393154, 0.18295693835527105, -0.49645044008275757, -0.015241486141669647, -0.5876402809355477, -0.1055237130645773, -0.4157584204095967, -0.06108481991905723, 0.18415491102460302, -0.6288054761928644, 0.42441899942493566, 0.6877274123170931, -0.026103103892013757, -0.5612384260175463, -0.44121540798818587, 0.2157890349657836, 0.6688694092101883, -0.3352369123204749, -0.40998666075408663, 0.6382269943545533, -0.413301429294825, 0.013723317600220164, 0.6718092840779128, -0.1532241358583264, -0.6365237585396879, -0.6041156801620163, -0.29515805423817043, -0.6190976544652895, 0.0010769809598605296, 0.46645006361012364, 0.6229557411513313, -0.12479876627463204, 0.07684184986833298, 0.13354831525512778, -0.7888934635998054, 0.3608452989720021, 0.20786626028542798, -0.21527591579468985, -0.5894563026529158, 0.6754352175688345, -0.7988102058632629, 0.24334177650959044, 0.4308171848757112, -0.7378420639585775, 0.3102500821711187, 0.3178358239734167, 0.40225267037272183, -0.6842766234429087, -0.7429759267213591, -0.6916888181576998, 0.7665993921507883, -0.24088618330078615, 0.768343213883171, -0.613441352269332, -0.282381388036969, -0.48825945476451715, 0.7139314581873799, 0.5671115152822093, 0.7674426773212508, -0.06383317187892101, 0.5227771188923087, -0.16146645209371702, -0.47140300534626844, 0.027117329374508947, -0.20648722480986237, 0.5256897069607056, -0.7343593997690023, 0.23305761785090695, -0.49646069921574104, 0.10531430964163258, -0.31555780992649524, -0.22281089516850583, -0.43930705638910567, 0.09875363046633256, 0.5911722289472572, -0.6287321779679536, 0.23031670725875153, -0.08267760204755437, -0.7328465232686784, 0.6922178147078684, 0.4096599816400186, 0.037275936489271744, 0.06977488045368696, -0.4819280523742435, 0.41059275584346455, 0.6329625538766002, 0.08373704372031965, -0.6036636090758686, 0.4506829861915673, -0.20171675225787788, -0.7890416496512374, 0.7444366304307801, -0.7582512351554004, 0.3381479467232791, -0.2984649206662845, 0.7584657038206188, -0.09594099697760239, 0.21318038779709814, -0.007789456646796311, 0.4330180218783457, 0.5234187908768881, 0.2724859766343888, 0.4328703692606197, 0.3714544023479416, -0.792561338336061, -0.4891401530389079, 0.045644541599945354, -0.7074935815508381, -0.713651379268077, -0.4616259605097495, 0.27525819669204576, 0.215691131222707, 0.14278100404067062, -0.14815359183177124, -0.2466629894105209, 0.034568755556494524, -0.15599133005385324, 0.2492552635659242, -0.5865660190740889, 0.5634396902681842, 0.48918684488434927, 0.32972683798813995, 0.657608087072427, -0.43036133613259175, -0.02678933440042619, -0.7267151468067061, 0.28944760041536544, -0.4198532942379778, 0.3078613669994028, 0.7961147683853758, 0.5924925414538154, -0.022195635800677627, -0.47002164553533704, 0.7286561070818831, 0.4470743031235045, 0.4789717948851706, -0.03454462706496586, -0.3345991230160277, -0.657347462205154, -0.08895615137554191, -0.5930778502007906, 0.5868368776837478, 0.1567915646452549, -0.7152092174687932, -0.7979642350107685, -0.34446197344363566, 0.23598165287641182, 0.4830581842029822, 0.33836749298643953, 0.7399661710646546, -0.77242728512898, 0.26392120055170176, 0.549934496286298, 0.6211115549371653, -0.12384970141377916, -0.6970479348876533, 0.2594872605486911, -0.1113392165609286, -0.588253127533199, -0.7241793593822458, 0.00972679135074439, 0.6349449840483796, 0.22134276937743635, -0.4909877292203037, 0.5256880761843687, 0.20648211490555268, 0.409175280768719, 0.5030077033732716, -0.5104118468994732, -0.3255094594656711, -0.7845647396415422, 0.2588337875940716, -0.30149939198495623, 0.3373133307214158, 0.27699402544102947, -0.38454437369796113, 0.7142801082965129, 0.6692551500835142, -0.22213419506158416, -0.4679567376318172, 0.4042234126691684, 0.08189640268590725, 0.25117314404904545, -0.3742914643600521, -0.08998473066616142, -0.13448869014337572, 0.5584452510903546, 0.501870606089158, 0.7715712766170861, -0.6702205010060163, -0.013857784815579643, -0.3090295833246442, -0.22854920581577243, 0.4645432507584022, -0.5366402397595511, 0.33181780816065953, -0.04542318231843245, -0.2070755660561583, 0.01873235384771077, -0.08158338336127335, -0.3829388319181313, 0.6906784019399599, -0.2413852534525326, -0.14632418456143503, -0.3530034048382225, -0.7027756998466241, -0.13731552577198336, 0.029978177180318477, 0.2391396867851514, 0.6453536036740053, -0.6428297958609767, -0.6168614279746099, -0.10552940121673693, 0.7881813165337863, -0.26002588386658665, 0.5428486795068499, -0.4453211383279532, 0.7034669750592453, 0.29601742351533367, 0.7292652767814436, 0.7106860430467898, -0.593005235663992, -0.04479736339266549, -0.47803618427059313, 0.363379782152526, -0.19173541532679772, 0.6094470089242348, 0.6540397518620966, 0.6037948021048394, -0.6066910150864683, 0.319304788803249, 0.760703595991173, 0.7190403337907194, -0.7789877058120921, 0.004758638992548692, -0.1617220326817692, -0.48066507701948746, -0.6291281281990451, -0.7711773792169869, 0.04606720227145078, 0.22057243875043042, 0.08170307939781973, -0.053338220917255263, 0.6101328177250409, -0.2940940543516931, 0.17235300820773547, 0.4069959666507479, -0.23542949427707804, -0.07110205722465979, -0.46295093381383057, -0.04338184279122115, 0.6924468263274526, 0.009848241293859195, 0.15957253817757433, 0.5129192600318282, 0.10511629420139723, -0.3840261959243977, 0.19200900311160862, 0.33337546231957016, 0.22520226605799132, 0.3051760853511962, -0.6046103278266038, 0.025014620443755797, 0.3150869765054938, -0.3478043281096371, 0.041100944583159715, -0.49905741197408987, -0.28068073437299557, -0.43498531144448693, -0.7764983588430134, 0.20507159821959364, 0.6659102987435863, -0.7615689534602919, -0.7642502900247709, 0.1902560593931938, 0.5980512112271317, 0.28079134368439207, 0.21240279862549438, 0.5491030874563618, -0.6156526970963432, 0.6889305484519139, -0.35607999870291585, 0.660788097005991, -0.4177719045015669, 0.33543018404881453, 0.21975376676232838, 0.33126782841185864, 0.005753146489898997, -0.528631166313565, 0.7582843513778943, 0.368345991689631, 0.5755972792681474, 0.23680100943010562, -0.46658916123539707, 0.24710916379438586, 0.20556062126907482, -0.6897361377475479, 0.7091762487399385, 0.28531285070416645, -0.6934879087861652, -0.3823280026107554, -0.35463457378369867, 0.5623603869223393, 0.7652363104975313, -0.7399745035402573, 0.33857850519074595, -0.7204201462878843, 0.38221805282896315, 0.5084162668865919, 0.21484372780652095, 0.5735662865934932, 0.12895921075094618, -0.7461174233239292, 0.6913968665998362, -0.4415802902134477, 0.41198671276531873, 0.08872238631983387, 0.7768167062851996, -0.21322885680555437, -0.3927276819886325, 0.6349394398069357, 0.680268515658311, -0.6164481528484007, -0.7446529194129078, -0.7754410997934444, -0.24783010569541253, 0.02052341269928204, -0.11604341309889199, -0.6243892939932144, 0.4801559558450479, -0.3363512949431874, -0.5483351294913273, 0.6966424778611575, -0.28421646672861767, 0.03944633980896184, 0.28237777463898484, 0.4916855254351915, 0.608975937318686, 0.2305335521891514, 0.6873192709696323, 0.22666031857618352, -0.5212269215422642, 0.3246253686897267, -0.15244421873574265, -0.6427295914096904, -0.14948628869664782, 0.4053197613076789, -0.2432725136182764, -0.5925039052073026, 0.3411394181659386, 0.7870617236922479, -0.29979330031946816, -0.7731387759342487, 0.37587209487338535, -0.33925871498825644, 0.4734668026641575, -0.356289753416289, -0.1289204326283373, 0.2304426351191564, 0.11900753277192444, 0.2707936660771222, 0.019706097621243424, -0.6140749866536903, -0.012255612860803344, 0.6085236347539291, -0.23279254217807144, 0.3694776658691783, 0.6073335884879583, -0.1696768310049931, 0.0674924132999074, 0.7598538402436512, -0.03353522293987443, -0.0764443599388146, 0.3599348578360142, 0.010051673630162794
0.516962335085771, 0.6308829893800532, -0.14488860464189857, -0.1338607036679933, -0.29884564526640656, -0.5937086097334062, -0.10858670911736235, 0.06905074909815556, -0.5451526105202611, -0.6994430892363472, 0.7928003016036373, -0.338383607098511, 0.33991220966001934, -0.6324671059944015, -0.20396565400526379, 0.699873283027437, 0.21723257260546358, 0.44020979850592834, -0.37737539931392416, 0.5506398299053443, 0.014426621484246005, -0.3922232363404694, 0.5477518979584024, 0.6749867919451389, 0.7759668691328199, 0.2859829093274562, -0.18666480931049156, 0.3505403303545398, 0.30082651771761193, -0.155871426039082, 0.25989850562487726, 0.09672843861131519, 0.12434089909703894, 0.5660792990282058, -0.6715411837286137, 0.006144735960263659, 0.5025364811116921, 0.786757217561451, 0.1102183179860512, 0.2742657404018731, -0.3912586204951648, 0.5596276995232372, 0.29840648650007884, 0.5588205757574332, 0.15385503066773398, -0.625238880831028, 0.7231805505770657, -0.6108255964009702, 0.4932155385990524, -0.5388872715319437, -0.17294546584668002, 0.2851494193780322, 0.7845678622429668, 0.27072515181531087, -0.03510931447098131, 0.7337698222375555, 0.7131958736579127, -0.5433784391656614, -0.6109515474562297, 0.11147928291578779, 0.5018465260566023, 0.6202193531911433, -0.5931505491282639, 0.22844271508432668, 0.5746348147003948, 0.31815695933860844, 0.27407931811237907, 0.21060566987026763, -0.654318167734083, -0.11751105145995311, -0.08519086003199006, 0.32424833124744357, 0.3547999591551869, 0.7222667573217949, -0.6656171724325873, -0.11316811533929161, 0.17410283146403194, 0.5385855978759679, -0.7810220653533572, 0.1969999960156571, 0.3609789511066519, -0.5007603924642499, -0.3082888487995156, 0.4556578793325776, -0.16556918375814555, -0.516809541179201, -0.07817840974009083, 0.5391162247685626, 0.0033449205147636496, 0.019117412299734404, 0.2600272139249442, 0.024348306709962353, -0.6231817272457285, 0.7063781841240506, -2.869610555922275E-4, -0.7445281214649111, -0.7617680267450382, 0.5207739027760117, 0.34017171295632354, -0.12037061367627155, 0.06632328939573517, 0.27157267165896215, 0.6546794004411391, -0.43049680299188664, -0.26192931822036114, -0.009690252935225963, -0.05724697987800875, -0.611235566175555, 0.349769005818386, 0.5959440793476922, -0.4275031505345812, -0.3541832584816407, 0.34423393747502207, -0.004985975583661428, -0.7044906401918052, -0.07974115961801354, -0.26636190320208386, -0.560502780524875, 0.44338307932196996, 0.43555233411491523, -0.640957231191777, -0.7208578766042519, -0.2086060768684206, 0.2904433156599846, -0.07074737480116089, 0.20910147665316514, -0.3984627018441403, 0.05074960802301853, 0.6331825936265767, 0.7277600562698012, -0.5663675118427014, 0.24218655041584336, 0.42148891283742684, -0.6162880056537349, 0.6397780339764263, -0.6260310887224615, 0.004779187838965471, -0.4950949075204369, 0.23400386104386994, 0.061986529547000346, 0.417277560838192, 0.06703235766655558, -0.5444713747597834, -0.7905841669041425, -0.553614600875093, -0.027686998508391847, 0.6205927198578121, -0.758309218593664, 0.3301387331984009, 0.2738686484795445, -0.6155998156280038, 0.0818194868212091, 0.6761274468267298, 0.5949614621841064, 0.7112653785940184, 0.6910955452259377, -0.44299746286672087, -0.6435749829177502, -0.3223776002320671, 0.18931516606514676, 0.7892616578566836, 0.03968001250750386, 0.7091180650658246, 0.20767401134189756, 0.5035643635768774, 0.7767903484715102, 0.17957180868794487, 0.2165803992338069, 0.06639146921141081, -0.3269235815590028, 0.276147812968214, 0.5096830796175549, 0.41442593932279315, -0.568133272252002, -0.13835203381404004, 0.11447534093172318, 0.5145942475443692, 0.4650293472264597, 0.7413961459036407, -0.06110062511662184, -0.6357292498341027, -0.26301089614025563, -0.7312529409614333, 0.5524367757673592, -0.30229134954169656, 0.7039975934498186, -0.40018464434931716, 0.7392342151304028, 0.366325409073349, 0.6744863197889015, -0.2654167413094053, -0.2501239110713963, -0.7879682895804397, -0.2696044835461081, 0.75810739749294, 0.617476995736024, 0.3543555452995508, -0.38656636443778947, 0.622107827094329, 0.7928313254383519, -0.4363234075460076, 0.4942851164666171, 0.38378545522788476, 0.49241808020774847, -0.005552747968474492, -0.09315333815059978, -0.554724433873913, 0.14212284607245174, 0.003840051554171331, -0.6563656993596795, -0.1862917417222686, -0.6613998041925246, -0.11717650897653997, -0.3274333244420959, 0.12840935163353184, 0.4392631906082367, -0.1217697093818545, -0.15060826937682736, -0.22166309450118626, 0.2309488642582498, 0.6859457884720943, 0.36408731863462274, -0.14058797906763199, -0.08362935553500961, 0.046904924342413556, -0.1263721136950201, -0.6020355907582593, -0.7034681208249843, -0.4208490813850782, 0.5375727349296262, 0.5930759852569938, 0.7163367736976223, 0.13076902271268565, 0.6869928208049632, -0.19283198771794297, 0.07969729945864135, -0.2599270310924767, -0.17868291327212538, 0.4607405393185673, 0.4294978893211354, 0.5409834282731862, -0.658260080521412, -0.13626604526812847, 0.22684091204812917, 0.45310023292249535, 0.09389556540849742, 0.742546822242544, 0.3530604555876504, -0.5524668341540052, -0.49343346859824316, 0.5983049700498266, 0.19705200146104596, -0.2188822817830517, -0.7227433648180821, 0.4585404139600757, 0.3795302482214966, -0.756793992249034, -0.43047939270450847, 0.2610006044923887, -0.6951115370364107, 0.5607842503948095, 0.7510058747038726, 0.6348715094043971, 0.42039559909921187, 0.6592312873790833, 0.4152238904843317, 0.6212598642634515, -0.7984693667578681, -0.32240464599844504, -0.6058689756136106, 0.7013429764516708, -0.1286855262246821, -0.1111713692208669, 0.48266168892125605, 0.7771568926726053, 0.1005641243991342, 0.17698073650553692, 0.060418735334997864, 0.276555846566763, -0.17494469889179864, -0.3250829074987822, 0.5097887377515267, -0.06956102109672457, -0.5453585237803678, -0.23231274201969698, -0.10618769413284956, 0.7969024606469197, 0.33844210008920594, -0.6817655750383715, 0.7712017168900684, 0.5835374218871472, -0.010727385492021568, -0.7263031077649788, 0.6899612710899261, 0.2456574746749054, -0.14044688020554275, -0.6378836642366346, -0.38487203115242785, -0.7851990318814075, 0.799994562250268, -0.2090699982762454, -0.489787904270791, 0.2384164350746285, -0.4785764743584032, -0.4898140251632242, -0.694019102166571, -0.11179802264327932, 0.01916968806732311, -0.6950163653635171, 0.5542902754047525, 0.32113175883202105, -0.5914979249523858, 0.7332037323322398, -0.02126846423396067, 0.2537651184952687, -0.44133693015611225, -0.07384494078574178, 0.49792413366414023, -0.4630032061305611, -0.09788843534857183, 0.5213270050038623, -0.2886535656464764, 0.5949688568363174, -0.365351253243011, 0.4980003271378972, 0.7016596305329512, 0.11842725829455181, -0.7888366620956531, -0.5619699045373994, -0.0784575463200865, 0.5793694754433991, -0.019205265745686928, -0.6643218355209041, -0.7028831128733469, 0.5603903406213266, -0.6056245197800199, 0.7319344623214452, -0.3058927167632652, -0.03130207242722527, -0.5439228883526483, 0.2503289463005829, -0.24306203142081562, -0.6686683940299636, -0.01975483069933137, -0.43720100314699994, -0.15496298314641344, 0.7446790602026523, 0.5534729734236663, -0.5842612207871684, -0.6453238589243431, 0.47794940621837556, 0.29102472438550153, 0.3979204368937179, -0.4712604421370191, 0.5068238990497771, 0.11578227976165978, -0.16646123016096637, -0.27912360441634865, -0.019932929759168716, -0.023048309093232744, 0.7351940108476487, 0.5945548540879693, -0.6015558582974848, 0.7648284807987045, -0.24681048458322596, 0.5015975852007561, -0.6881473443450995, 0.4669827546394185, -0.29091587549926623, 0.09884137079705246, 0.01713960886450283, -0.44971170415704304, -0.5969993558513906, -0.07437418625925685, 0.2656364070810757, -0.7577183331416824, -0.6642445661619871, -0.2211210928547731, -0.6339916870620725, 0.32440029558205796, 0.388435644185781, -0.7133706848123277, -0.5054241903764443, -0.3612890850167995, 0.15361377086783679, -0.7051619655265182, -0.49817092860358464, 0.7488021558791029, -0.2860483937985334, 0.7465046642961084
