0.15491712918447648, 0.26743064302586167, 0.2763003382208724, 0.1989491593094643, 0.2388573801037555, 0.48, 0.48, 0.16331677741031686, 0.48, 0.48, 0.051057680474758615, 0.48, 0.08957761935685515, -0.06967528923221955, 0.2798589094088636, -0.2212721041261177, -0.48, -0.1578463733595425, -0.48, 0.4344388906495564, -0.10606048807229074, 0.48, -0.48, -0.48, 0.027209118584528007, -0.3347463983706942, 0.19145168441440563, 0.48, 0.48, -0.32679957204962945, -0.19877316985030374, 0.48, -0.48, 0.48, 0.32240183568488334, -0.47980859133703563, 0.48, -0.48, -0.48, -0.22138734710330626, -0.05463468511536303, 0.4598193204564123, 0.07311837233554105, -0.13669482879091222, -0.48, -0.48, 0.17603608416761432, 0.10160393061425091, 0.2654508140839472, 0.30570818487737644, -0.48, 0.3444402337437744, -0.48, 0.43554540124300817, -0.08077770540757145, -0.21941468682431617, -0.35766674078149485, 0.48, 0.48, -0.48, 0.48, 0.43072115038110104, -0.48, -0.4722415658479734, -0.48, 0.48, 0.13248509442096534, 0.48, 0.2978533203130239, -0.13836403469469505, -0.2536064354075884, -0.2819847781229633, 0.48, -0.48, -0.22810828740768993, 0.48, 0.48, -0.18274960296809567, 0.03692352406333016, 0.47633907892846755, -0.10451793754127514, 0.48, -0.48, 0.33158372237846107, -0.2095497673685959, -0.28203540336516414, -0.48, -0.48, 0.48, 0.0863779507177902, 0.4303991730396109, -0.48, 0.48, -0.48, 0.48, -0.48, 0.48, -0.48, 0.05143409356369291, 0.48, -0.19865193083147295, 0.48, 0.48, -0.48, 0.2894612301924309, 0.17455884782577447, -0.3000607531149156, 0.48, -0.305681132490561, 0.1859595147328736, 0.48, 0.273864819860928, -0.2726567651335296, -0.033743221610399166, -0.48, 0.12915873769060487, -0.20504975686982513, -0.48, -0.48, -0.48, 0.33209164084015125, -0.48, -0.48, -0.48, -0.48, -0.27124907408364984, -0.48, -0.31338397367182624, 0.06532823906092128, -0.48, -0.48, -0.48, 0.48, -0.005194350178064244, -0.246620747994786, -0.48, -0.2587433648714827, 0.48, -0.48, -0.19494902387566956, -0.48, -0.11161058336250207, -0.48, 0.2305929239652866, -0.48, 0.23648876499222288, -0.06688186389084062, 0.48, 0.48, -0.3375413979935325, 0.2138490452947283, 0.1377855823587853, -0.48, 0.48, 0.2657939955086185, 0.48, -0.48, -0.0877334037921141, 0.1026711131826219, -0.02751182920470996, 0.22964716193256907, 0.047987235250884885, 0.48, 0.009052726333691585, 0.48, 0.48, -0.48, 0.030173578258683026, 0.48, -0.48, 0.48, -0.4757852966372196, -0.48, 0.19908333179893276, -0.2484786520045054, 0.3501995551249859, -0.37722638809118286, -0.3992182287463526, 0.1636543703691753, -0.48, 0.48, -0.3655754314050346, 0.34316268620479523, -0.48, -0.14878208729242545, -0.48, -0.48, 0.48, 0.48, -0.48, 0.48, -0.48, -0.48, 0.48, -0.4541730286401812, -0.4792476244446195, 0.22487667153937438, 0.13235800111147422, -0.48, 0.31939665362942576, 0.11809526805444681, -0.48, 0.48, 0.274659755271828, 0.4707534933005097, 0.11037284865917396, 0.22835638747186407, -0.48, 0.08409190412936218, 0.48, -0.48, -0.05888939201241106, -0.0024202086544442003, -0.48, 0.05189376198355529, -0.30415246749221836, -0.48, -0.032918261983594266, 0.48, -0.4733190050962449, 0.1522399389782522, -0.23178853897945748, 0.48, -0.48, -0.48, -0.2798047020362643, -0.09008677047981042, 0.48, -0.3128572393862973, 0.18155587502577766, -0.3201076037891324, -0.48, 0.042037645490209136, 0.37776448336677754, 0.48, 0.14763982490210412, 0.48, -0.13905689645222707, -0.48, 0.48, -0.1524015125757668, 0.43823078251595815, 0.316387112237125, 0.48, 0.48, -0.48, 0.3121447185887925, 0.48, -0.06861405997560571, 0.055720738546278153, 0.12567693169321814, 0.48, 0.31430425654369065, -0.003914706934851853, 0.48, 0.48, 0.30413868927808296, -0.20241590883512212, 0.48, -0.48, 0.2378925163587014, -0.0640492976090174, 0.20412028594678397, -0.01579647762225459, -0.48, -0.14512514330437723, 0.2439939037073386, -0.48, -0.2653856144326592, -0.03808928395021638, -0.325671197847645, -0.1821518868839703, 0.48, 0.473097360824412, 0.48, 0.025367866609595835, -0.18563209389661103, -0.48, -0.13954794174095586, 0.129409226764513, 0.01818561317425399, -0.48, -0.2843910114642278, -0.48, 0.48, 0.004372601339712512, -0.48, -0.48, -0.13225154604876083, -0.26904844449458865, 0.3685152397619523, -0.48, 0.48, 0.19378672156433335, 0.48, 0.27594171949509727, -0.48, 0.48, 0.42078834759529654, -0.48, 0.48, -0.48, 0.42244999277593, 0.1293195035438774, -0.48, -0.48, 0.48, 0.48, 0.15867098011543626, 0.48, 0.10897622998137513, -0.3755744211418741, -0.0033213618176255455, 0.48, 0.07734261905962192, 0.2735937502467331, 0.31570336266653837, 0.48, -0.48, 0.48, -0.48, 0.48, 0.3967303150928196, -0.08183993680582266, 0.4514438145259438, -0.48, 0.48, 0.48, -0.023551282547718544, -0.13787068104015776, 0.48, 0.48, -0.48, 0.48, -0.1405390120394159, -0.179445808375326, -0.049785863346209186, 0.25201494250230405, 0.48, -0.2070694579325449, -0.48, 0.027963275730048143, -0.017885716343223557, -0.25644559790566546, -0.48, 0.48, -0.48, 0.48, -0.48, -0.10942703580438629, 0.2826554831356432, 0.4759997759711714, -0.48, 0.48, -0.48, -0.48, -0.48, 0.3521180712443637, -0.027915879380701947, -0.48, -0.48, 0.48, -0.48, 0.48, 0.09139503885274225, 0.08670568532877537, 0.48, -0.48, -0.04635277808673138, 0.48, -0.48, -0.03765413559019459, -0.019405408144061498, -0.11222389220685428, -0.48, -0.2513177954586448, -0.2283150301283555, -0.48, -0.48, 0.25549667671025944, -0.48, 0.47531420938378593, -0.03773277349712073, 0.16990891397229613, 0.48, 0.19138418570991508, -0.48, 0.3013003272601025, -0.48, 0.48
-0.48, 0.047505248388325066, -0.48, 0.04350241015978762, -0.06713400756175879, -0.38457986412414974, 0.48, -0.48, 0.280917976289336, 0.17194831230425078, -0.48, -0.48, -0.48, -0.48, 0.12310840983490248, 0.472690996082886, 0.04808288771834637, -0.48, 0.48, -0.48, -0.48, -0.48, -0.48, 0.48, 0.11834724532264755, 0.48, 0.12933996965587288, -0.19903330127580812, 0.47232511896946294, -0.21563114288921303, -0.31291769567218375, -0.48, 0.4738229264742725, 0.48, 0.052709735367432314, 0.28700621097919143, -0.02972173558170582, 0.48, -0.48, 0.04996013480948705, 0.28548624675866074, -0.48, -0.48, -0.4105800886309216, -0.15250882381715164, 0.03902586669183655, 0.48, -0.48, -0.48, 0.48, 0.48, 0.48, 0.25812236141579703, -0.031290683194373614, -0.013729083708774292, -0.48, -0.48, 0.4717110515165106, 0.48, -0.48, -0.47849045474708984, 0.1496594948277276, 0.48, -0.48, -0.4063616036456037, -0.18213234259670122, 0.03176654535826062, -0.48, -0.48, -0.48, -0.47905980225223027, -0.05080264940759016, 0.10856741742318293, 0.48, -0.48, -0.48, 0.4748067891949542, 0.48, -0.27949904177137286, 0.48, 0.3850075439075587, -0.48, -0.48, -0.13270848897631166, 0.4789137685663729, -0.48, 0.48, 0.07136026633092707, 0.479979348888619, 0.48, 0.25214138817369997, -0.03582298761020347, -0.48, 0.23128386752380953, 0.055066253721343356, -0.07134458661149767, 0.48, 0.4717110515165106, -0.47607048128861335, -0.48, 0.22734716950609427, 0.48, 0.14907720485377807, 0.48, -0.34489522386097393, 0.48, 0.0424952818941135, 0.043315293462036775, 0.48, -0.08299888920772569, 0.48, 0.48, -0.015155986823821799, -0.48, -0.17312486727262544, 0.48, 0.1479738493469594, -0.48, 0.17721674845109445, -0.48, -0.06257660005173624, -0.48, 0.48, -0.47626937392881263, -0.48, -0.48, 0.11376979919499203, -0.3444812509863937, 0.48, -0.48, 0.20160007300882243, 0.48, -0.48, -0.48, 0.48, 0.48, 0.48, -0.48, -0.48, -0.05467329116669532, -0.48, 0.031143107427702377, 0.48, -0.1541300720804481, 0.18176118515299206, -0.4717110515165106, -0.3691531960152524, 0.48, -0.047889297300190425, 0.48, -0.139782043557919, -0.48, -0.48, 0.17092437104343466, 0.48, -0.48, 0.4600684186270094, 0.48, -0.07132406620256876, -0.48, -0.15258459039996436, -0.48, 0.48, 0.48, -0.24476783827233495, 0.4777554844668946, -0.48, -0.48, 0.48, 0.47639571021707655, 0.48, -0.48, -0.48, 0.1464640306504143, -0.043647228974928565, -0.40635764035772637, -0.3934233596696929, -0.48, 0.08588333049811733, -0.48, -0.48, 0.025897337762682715, -0.48, 0.48, 0.48, 0.48, -0.22357909087670944, 0.04947082204934902, -0.35687291111822916, -0.48, -0.48, -0.024427737872539337, -0.48, -0.14882170541239353, -0.05104031054252556, -0.48, 0.48, -0.05829488163477445, -0.48, 0.25849040398520284, -0.030036461549334648, 0.48, 0.23392886882861932, 0.48, -0.48, -0.05435736883815567, 0.2099032877766792, 0.48, 0.48, 0.48, 0.48, 0.48, -0.4597614290313213, -0.16517435294243493, 0.18517134838466245, -0.48, 0.48, 0.48, -0.48, -0.48, 0.477655653114672, 0.48, 0.20154743062179004, 0.48, 0.04313057058511899, 0.48, -0.48, -0.48, 0.48, -0.48, 0.14835882551696278, -0.48, -0.07083352482613736, 0.25526589168632247, 0.47998638420224093, -0.48, 0.48, 0.48, 0.48, -0.31856913993453806, 0.3964270871701801, 0.15087325921460742, -0.48, -0.06810078246168222, -0.48, -0.48, 0.4781942438043345, 0.2819553630349611, 0.3400666788012845, 0.4464346941281024, 0.045201901918722476, 0.48, 0.48, -0.4717110515165106, -0.48, -0.48, -0.48, -0.48, -0.48, -0.23803574897520707, -0.4118146952979681, 0.48, -0.4718583328528116, -0.48, -0.48, -0.48, 0.48, -0.48, 0.48, 0.48, -0.48, 0.05335388311834227, 0.3529073917388697, 0.48, 0.48, 0.11005519330074012, -0.48, -0.48, -0.48, -0.48, 0.48, 0.48, -0.48, -0.22294282559872333, -0.48, -0.48, 0.48, 0.16552162308051488, -0.48, -0.016580523312433038, -0.18623907843501375, 0.48, -0.016797422949517526, -0.48, -0.48, 0.20917515614792004, 0.0018924699748507634, 0.48, 0.48, -0.48, -0.4773429929342085, -0.48, 0.48, 0.48, -0.22178929715324855, 0.48, -0.40993374081955825, -0.48, -0.02422962663687861, 0.48, 0.48, 7.898741806397491E-4, 0.17962612396093394, -0.48, -0.48, -0.06669268504601777, 0.48, 0.48, 0.4346007198117431, 0.48, -0.48, -0.4446210278252764, -0.4378709893721453, 0.48, -0.48, 0.48, 0.48, -0.48, 0.48, 0.48, 0.48, 0.4717110515165106, 0.48, -0.48, 0.040021391080208385, 0.008955779445593011, -0.48, -0.2447241586430723, -0.10257928532174126, -0.11823589089741705, 0.48, -0.48, 0.48, 0.48, 0.48, -0.1487015230514393, 0.48, 0.48, -0.48, 0.03979750669207682, 0.14446083582862873, -0.11910810980284336, -0.48, -0.4374089102651385, 0.48, 0.48, 0.48, 0.48, -0.48, 0.48, 0.48, -0.48, -0.09938411201708552, 0.48, -0.48, -0.48, 0.48, -0.48, -0.16284807479660385, 0.48, -0.48, 0.14607746720949524, 0.25336945107322384, -0.19292747529327037, 0.48, -0.48, 0.17946989130695032, -0.48, 0.48, -0.48, 0.48, 0.47704225908874853, -0.07802128414108159, -0.019856143982765195, 0.04941641478414838, 0.03811214051934872, -0.30969460466894877, -0.08090084064257777, 0.07217755543981053, -0.4751919889684551
-0.242305184639553, 0.28134056709769206, 0.02021886502152879, -0.27367037182108317, 0.48, -0.48, 0.48, -0.22302718872566768, 0.48, -0.17801663456222044, 0.48, -0.2166545995447396, 0.2655747627186122, -0.48, 0.48, -0.004450189829110919, 0.2842793663401258, 0.1617488571669634, -0.23352951366055597, -0.48, -0.3026789179977605, -0.42718543177088897, -0.46970644945029544, -0.35234771021606287, 0.48, -0.48, -0.2935113785183624, 0.48, -4.858359165978883E-4, -0.48, -0.48, 0.48, -0.21854782277027418, -0.48, 0.4547961712039096, 0.48, -0.3319479310835042, 0.48, -0.14912937973169366, -0.48, 0.48, -0.16019426736592035, 0.48, 0.3017018263075084, -0.3713491604857866, -0.2096194423870473, 0.48, 0.18692263654873137, 0.48, -0.12638420151476845, 0.17476068301741057, -0.48, 0.28859838720616465, 0.023129247697580207, 0.48, 0.48, -0.48, -0.2768530996644488, 0.31070580760540056, -0.1696905670021756, 0.48, -0.2568959621053752, 0.48, -0.48, 0.10995726396597852, 0.48, 0.28465187457369656, -0.3270607046373923, -0.10303365448110147, 0.12829230129029826, -0.24046076511168468, 0.22558887829878208, 0.48, -0.31977801812431783, -0.26174317974389205, -0.48, -0.13723927330904157, 0.48, -0.02561868066152006, -0.1535582075822532, -0.23077492015679818, -0.15188178819365175, 0.48, 0.2809163262373306, -0.48, 0.2519506808485886, 0.48, -0.48, 0.06779378718908388, -0.34977209189517466, -0.48, -0.3466792225686612, 0.10630621089341707, 0.13955285224537275, 0.32184062174877004, -0.24315750337367426, 0.48, -0.48, 0.04300691631447976, -0.2827625977483901, -0.25304635301515166, -0.48, 0.48, 0.15677210538169511, 0.330978723695484, 0.26513528126108654, 0.48, 0.48, 0.22744347375694582, 0.48, -0.2825516641300203, 0.48, -0.25725849471064755, 0.2831312991894317, 0.48, 0.17808682472214968, 0.21035429189063415, -0.3678489676457883, 0.48, 0.16646827044681892, 0.04983327631017853, -0.15034661319899487, -0.48, 0.48, 0.48, -0.48, -0.48, 0.20675127026838158, -0.48, -0.3223219661945782, -0.48, 0.48, 0.16537108532067413, -0.42582697758610655, 0.48, -0.48, -0.17857957450402429, 0.48, -0.48, 0.23996747570217924, -0.48, -0.48, 0.48, -0.48, 0.46217019139487114, 0.48, 0.48, -0.48, -0.48, -0.04651767437393912, 0.22014730665492993, 0.48, -0.48, -0.48, 0.2120016678748326, 0.21617276245587108, 0.48, 0.08688647009933678, -0.48, -0.29271525276797145, -0.17920308877289537, -0.48, 0.3247544977072487, -0.48, -0.48, -0.48, -0.2836606668063087, 0.10712578584162116, -0.48, -0.2743416082433471, 0.2227965439103981, -0.012165671943076651, 0.1773078365842075, 0.48, -0.1802272838590445, -0.06589378742392296, -0.48, -0.16637131415629447, 0.44260080050358414, 0.48, 0.1589166346196329, -0.48, -0.48, -0.06990748692584275, -0.22734467875917336, -0.48, -0.48, -0.48, -0.1709698578026314, -0.2414036842246145, -0.18836918910718337, -0.15219204839262282, -0.48, 0.2999883329072995, 0.48, -0.1463403446557956, 0.41364405562462836, 0.48, 0.23093578218522431, -0.48, -0.17688594839281394, -0.3369724675563332, 0.23756217966232782, 0.24471907177770888, -0.20477801690713962, 0.13540653268165861, 0.14491831383537454, 0.48, 0.48, 0.08670999115513475, 0.48, -0.29164233021912533, 0.48, 0.4428042440687104, -0.019802447411476617, 0.14884611974620354, -0.17375234281921073, 0.1578545968133549, 0.48, -0.15524054155824135, -0.48, 0.012930078324886587, -0.48, 0.10468083809448794, 0.48, 0.01955795680152362, -0.48, -0.48, -0.2920140509335257, -0.22653758210425493, -0.48, 0.016871408066910065, -0.18626877660154312, 0.21672543376535552, -0.48, 0.48, -0.48, 0.16066034175568583, 0.48, -0.48, -0.332743003393942, -0.48, -0.48, 0.2832459601613525, -0.48, 0.0029849485522204957, 0.16848110766266866, 0.48, 0.16977149181470214, -0.48, -0.006569751536886485, -0.4550874285236799, -0.48, -0.48, 0.28393023561061226, 0.12526872837398353, 0.15296340390531835, -0.1451063201851112, 0.48, 0.4542757566535104, -0.09921643781174076, 0.2106724990756045, 0.48, 0.48, -0.48, 0.2910738748125742, 0.2492916151095384, -0.146840610881134, 0.48, 0.48, -0.017321190920028373, -0.1973367927471684, -0.48, 0.48, -0.1703492616459321, 0.1515663388038721, 0.2920265714847046, 0.48, -0.3083874514137703, -0.48, 0.48, -0.48, 0.13133015855379376, -0.48, 0.4465511461802695, -0.1640323121835539, 0.24059414772233917, 0.39524492582417303, 0.48, 0.48, -0.26066383621326356, 0.48, -0.48, 0.48, 0.16168401164807106, 0.2151268518146693, 0.48, 0.24610226679826597, 0.2516854975136414, 0.20100234637923423, -0.07886861171253662, 0.48, 0.06605479858938831, -0.48, 0.2446279208473638, 0.4342005554759798, -0.33813517083728195, -0.48, 0.48, -0.48, -0.024333945719191525, -0.36597335244811907, -0.48, 0.26487283220987423, 0.48, -0.23801934346101872, 0.48, -0.48, 0.48, 0.48, -0.48, -0.43122106096765833, -0.48, 0.48, 0.48, -0.21870429257023288, -0.48, 0.48, -0.024993114283954634, -0.48, 0.48, 0.2418836011699753, 0.48, -0.48, -0.21661347439396864, -0.48, -0.1900301541121423, 0.47851597552358377, -0.18974349674114815, -0.48, 0.48, 0.18698228079198032, 0.3474980335380518, -0.48, 0.41878519449175616, -0.48, -0.031106137811761067, 0.2500297953879135, 0.21531768055625017, -0.32466053784094595, -0.48, -0.48, -0.23435020110824095, -0.09235941100032397, 0.2967237555123065, 0.48, -0.48, 0.48, -0.1796252218607508, 0.24314417867197327, -0.30129186792855167, -0.48, 0.48, 0.26789460204474, 0.15085813098236986, 0.48, -0.043170605753872784, 0.48, -0.45197060584443566, -0.007565194792723537, -0.48, 0.48, -0.19479381421856892, -0.0074666487001271015, -0.1682865958540445, 0.48, 0.03046408397610882, 0.48, 0.3399129771289809, -0.20809443524056542, -0.48, -0.48, -0.06925283665937323, 0.48, 0.05531994576874524, -0.10878319605715683, -0.48, 0.38594820699066684, 0.20092431597514343, 0.48
0.48, -0.48, -0.48, -0.48, 0.48, -0.4103150327038747, -0.48, 0.48, 0.1313871375733006, 0.48, -0.48, 0.07597485759043912, -0.48, -0.48, 0.48, -0.48, 0.48, -0.48, -0.020767002132539333, 0.48, 0.48, 0.48, 0.48, -0.48, -0.48, 0.48, 0.48, -0.48, 0.2705969065450027, 0.48, -0.48, 0.48, 0.06788527205906889, 0.18030434350312652, 0.48, 0.31936416044293797, -0.48, 0.48, 0.48, 0.48, 0.48, 0.48, -0.48, -0.10273639278585915, 0.48, -0.48, 0.48, -0.48, 0.48, -0.48, -0.48, -0.48, 0.48, 0.37694784519062025, -0.48, -0.48, -0.48, 0.48, 0.48, 0.48, 0.1117882872900102, -0.48, 0.48, 0.48, 0.48, -0.47458817015049537, 0.48, 0.48, -0.48, -0.33442568649124327, 0.061816099924292336, -0.10032514454135287, 0.04808222105840659, 0.48, 0.48, -0.10123094268109735, -0.48, 0.48, 0.48, 0.48, -0.04372434122400656, 0.48, -0.37353394320605704, -0.1553040854411657, -0.48, -0.22880047477236315, -0.05570704528099321, -0.48, 0.48, 0.44667891919437885, 0.48, 0.021909775462414273, 0.48, 0.48, -0.48, 0.48, 0.48, -0.48, 0.48, -0.48, -0.48, -0.48, 0.48, 0.19478612405507842, 0.48, 0.48, 0.48, -0.009303933326115694, -0.030306934369435767, 0.48, 0.48, -0.48, 0.48, 0.48, -0.48, 0.1022645389650795, -0.48, 0.48, 0.2641676944540363, 0.48, -0.48, -0.48, 0.48, 0.4256042347046502, 0.48, 0.48, 0.02758376718177339, -0.0902490711797665, -0.1857440460138756, 0.48, 0.48, -0.37685988320126196, 0.11250679341645464, -0.16471034394593242, 0.21652285446614272, 0.48, -0.48, 0.48, -0.48, -0.48, -0.48, 0.01955652099003874, 0.48, 0.48, -0.48, 0.48, 0.48, 0.48, -0.48, -0.2058001658263154, 0.48, -0.48, -0.48, -0.48, 0.48, 0.48, -0.48, -0.17966462533658706, 0.1048941881854471, -0.1297666761323122, 0.05905144895827999, 0.48, 0.48, 0.3996968494010732, -0.48, -0.28736859196072717, 0.39193995417766425, 0.48, -0.48, 0.48, 0.48, -0.07568583278348638, -0.48, -0.09190745587415777, -0.014345795509227918, -0.48, -0.48, -0.48, 0.48, 0.10004958353725088, -0.48, 0.0015663274682498063, 0.378877719239073, 0.02369165866500168, 0.48, -0.48, 0.48, 0.25833633481187157, -0.48, -0.48, 0.48, 0.48, -0.48, -0.48, 0.48, -0.22647922227702005, -0.1777749796983106, -0.241992736584958, -0.48, 0.48, 0.131035707553595, -0.48, -0.48, -0.09749873470145112, -0.06327648813914832, 0.48, 0.48, 0.48, -0.48, 0.48, 0.48, -0.48, -0.48, 0.031363280514154254, -0.2819900464095366, 0.48, 0.48, -0.48, 0.48, 0.48, -0.48, -0.48, 0.48, -0.48, -0.48, 0.48, -0.21237548887812346, 0.48, 0.48, -0.48, -0.48, 0.3510300080638075, -0.48, -0.48, 0.48, -0.48, -0.48, -0.48, 0.48, -0.48, -0.48, -0.48, -0.20393665551866288, -0.48, 0.48, 0.48, -0.48, -0.2746466305766371, -0.48, -0.48, 0.48, -0.48, 0.48, 0.4533452236284108, 0.17911247876629025, 0.48, 0.48, 0.48, -0.4126052322723418, -0.48, 0.48, 0.48, -0.48, 0.48, 0.015527681417885505, -0.48, -0.48, -0.48, -0.48, -0.11201696965365682, 0.29527223469930336, -0.08979663839885739, -0.35772115895870166, -0.48, -0.48, -0.48, 0.48, 0.48, 0.48, 0.48, -0.48, 0.48, 0.43890472029780964, -0.48, -0.09460765193622507, 0.48, 0.042627624157792476, 0.0893159006164267, -0.48, 0.17409235647142593, 0.48, -0.48, -0.48, 0.48, -0.48, 0.48, 0.48, 0.4135591105737455, 0.48, -0.48, -0.48, -0.20609512330952917, -0.010228673850153136, 0.48, 0.48, 0.48, -0.48, -0.48, 0.48, -0.48, 0.10592146688278284, -0.48, -0.48, -0.48, 0.48, 0.48, -0.10862398764187131, 0.48, 0.48, 0.48, -0.42271839951371615, -0.48, 0.48, -0.48, -0.48, -0.48, 0.48, -0.48, 0.48, 0.48, -0.48, -0.4035138303397412, -0.3549275180029912, 0.48, 0.2522278974916516, 0.48, 0.48, 0.0035211375014765622, 0.20905629572273499, -0.48, 0.48, 0.48, 0.48, 0.48, 0.48, -0.48, 0.48, -0.48, 0.48, -0.48, 0.48, 0.07957321595073433, 0.48, -0.02349766365129191, 0.48, 0.48, -0.09321931569115455, 0.48, 0.48, -0.48, 0.48, 0.48, -0.48, 0.48, -0.48, 0.48, 0.08339021339231312, 0.48, 0.48, 0.48, -0.48, -0.48, 0.48, -0.48, -0.48, 0.48, -0.48, 0.31141822589796647, 0.48, 0.48, 0.48, -0.48, 0.30925916661589553, -0.48, 0.48, -0.48, 0.48, 0.48, -0.48, -0.48
0.48, 0.04730925024038399, 0.11063604155686589, -0.48, -0.48, -0.48, 0.48, 0.16849340154577785, -0.48, -0.48, -0.48, -0.02782450455964615, -0.48, 0.48, 0.48, -0.18169474620724707, -0.48, 0.48, -0.48, 0.48, -0.3949742527563111, -0.48, 0.48, 0.48, 0.48, 0.48, -0.48, 0.48, -0.48, 0.48, 0.31774849479709494, 0.48, 0.48, 0.48, -0.48, -0.48, -0.48, 0.48, 0.19665558752880022, 0.08407570362898631, -0.48, 0.48, -0.2836387844334352, -0.48, 0.48, 0.28388180949303116, -0.48, -0.48, 0.48, -0.48, 0.48, -0.48, 0.48, -0.48, -0.38624430095238704, 0.48, -0.3066485453721943, 0.48, 0.1985179114142395, 0.48, -0.48, -0.14447066384855023, 0.48, -0.48, -0.48, -0.48, -0.48, 0.48, -0.401858829189798, -0.48, -0.48, -0.48, 0.48, -0.48, 0.48, -0.27553152169488404, 0.48, -0.48, -0.48, -0.48, -0.19156990618445396, 0.3709969152015074, -0.48, -0.3121633437689696, 0.20768855216345677, -0.11971623522742368, 0.48, 0.48, 0.48, 0.48, -0.48, 0.48, -0.48, 0.48, -0.20668202118976314, 0.48, 0.11320919229053503, 0.48, 0.48, -0.48, -0.48, 0.0011082954205878792, 0.48, -0.48, 0.48, 0.4318600889776239, -0.48, -0.48, -0.09566136517974205, -0.16741048145981485, 0.25441739021535287, -0.48, 0.3893644575253246, -0.48, -0.48, 0.48, 0.48, 0.48, -0.2706452210426834, 0.15740136109570496, 0.1473559381380961, 0.48, 0.32478312711159724, -0.15856700979248492, 0.21102339934813688, -0.48, 0.48, 0.48, 0.48, -0.48, -0.48, -0.48, -0.2301976107937615, 0.48, 0.48, 0.48, -0.48, 0.48, -0.20029203922356886, 0.26410737665651074, 0.48, 0.48, 0.48, 0.48, -0.48, -0.48, 0.48, 0.48, 0.48, -0.17482348135157624, -0.20425497195246417, -0.48, -0.48, -0.48, 0.05261825854354324, -0.48, -0.48, -0.48, 0.48, -0.4314673488301454, 0.48, 0.48, 0.48, -0.48, 0.030228937602341077, -0.48, 0.48, -0.48, -0.2019102833240547, 0.48, -0.27900217485105316, -0.48, -0.48, -0.48, 0.24576855069001377, 0.48, 0.48, 0.369970306631209, 0.48, 0.48, -0.48, -0.48, 0.39086557762212853, 0.48, -0.48, -0.48, -0.48, -0.48, 0.48, 0.3933024235824788, -0.48, 0.48, 0.48, 0.2021131654128758, -0.2172094581986932, -0.357070667095017, 0.48, 0.06525978038526528, 0.4549765827090852, -0.33075971222178147, -0.48, -0.48, -0.48, 0.48, -0.11675779590329821, 0.48, 0.48, -0.48, -0.48, -0.48, 0.4625186874688585, 0.48, -0.48, -0.44279173763424023, 0.48, 0.48, -0.2072350605126213, 0.22110546161759642, -0.15610552859736054, -0.48, 0.48, -0.3703721332267786, 0.04979496066359912, 0.29278982292229877, -0.23652911296771684, -0.48, -0.36195742928507485, 0.48, 0.48, 0.20622130666704916, -0.48, -0.48, -0.48, -0.3618689243128049, -0.48, -0.1795929151268131, 0.4493307988477146, -0.48, -0.48, 0.48, 0.48, -0.25389107635189967, 0.48, 0.48, 0.48, -0.3127851025324148, -0.05345302561962176, 0.48, -0.022709568213630425, -0.3141719497873193, -0.3984620194958327, -0.48, -0.38356008648518963, 0.48, -0.48, -0.32799933076499166, 0.48, 0.48, 0.48, 0.19271055776963664, -0.48, 0.31434657240919717, 0.030866241272730875, 0.1998489899928022, 0.48, 0.48, -0.1795006851439114, 0.48, -0.48, 0.48, 0.0815683558002811, 0.48, 0.36019335586313145, 0.24575635898715759, -0.4556773317964943, -0.48, -0.48, 0.48, 0.35806733799630525, 0.48, 0.48, -0.48, -0.48, -0.48, 0.48, -0.48, -0.48, 0.48, -0.48, -0.18895784385562026, -0.48, 0.48, 0.4533963895828982, 0.48, -0.48, 0.04772613110277102, -0.2752039674597015, -0.3079474904819489, 0.48, 0.36149932778332045, 0.48, -0.48, -0.4796764225951256, -0.48, 0.38274147019008603, -0.48, -0.48, -0.48, -0.16575987561293093, 0.3860079047222137, -0.2731853488949198, 0.08438130814112835, 0.48, -0.48, 0.3112517590233129, -0.3521712042748768, 0.48, 0.48, -0.48, -0.48, -0.20228248367794782, 0.48, 0.48, 0.48, 0.48, -0.48, 0.48, -0.48, 0.28993293746537735, -0.48, 0.48, -0.48, 0.48, -0.48, -0.48, 0.48, -0.48, 0.48, -0.2386828731553678, 0.48, 0.48, -0.48, 0.48, 0.2241930645415694, 0.20585580706027246, 0.48, 0.48, 0.48, 0.48, -0.48, 0.2417889148710391, -0.48, 0.48, -0.48, -0.25393787601616585, 0.48, -0.48, 0.48, -0.48, -0.48, -0.02236654597021412, 0.48, -0.02705598252381769, 0.48, -0.48, 0.48, 0.48, 0.48, 0.48, -0.48, -0.48, 0.48, 0.48, 0.48, -0.48, 0.011233051312769388, -0.48, -0.48, 0.4263573051394733, -0.48, -0.48, 0.48, 0.48, 0.48, 0.48, 0.48, -0.24458521172020697, 0.48, -0.48, 0.19792120852698586
-0.16626810222181596, 0.2389060722755645, -0.48, -0.48, 0.48, -0.0011754972917854545, 0.48, -0.48, -0.48, 0.48, 0.48, 0.48, 0.12920422442983176, 0.18572333406199218, 0.48, -0.4655232713974484, -0.48, -0.48, -0.47191679442792905, 0.48, -0.48, 0.48, -0.48, 0.47284740747640497, -0.48, -0.2036269525115256, -0.48, -0.48, 0.48, -0.48, 0.48, 0.15184872755176437, 0.3495783170440292, 0.08882707586766418, 0.48, 0.2768894996827572, -0.48, 0.48, 0.48, 0.027153040241124138, -0.48, -0.48, -0.48, 0.48, 0.48, 0.34980054620331696, -0.48, 0.07945750662421092, 0.48, -0.48, 0.48, -0.48, 0.35615896663165497, 0.48, 0.48, 0.48, 0.48, 0.4790759324019259, -0.1628339663186391, -0.48, -0.1728450376626275, 0.16014536353562844, -0.21278355413025676, -0.3849838697362322, -0.48, 0.48, 0.48, -0.48, 0.48, -0.48, -0.48, -0.48, -0.48, 0.48, 0.48, -0.14024871665267585, -0.48, 0.48, -0.21475689309299317, -0.48, 0.48, 0.1575004336625322, -0.48, -0.48, -0.48, -0.48, 0.48, -0.48, -0.48, 0.48, 0.48, 0.48, -0.48, 0.48, -0.2811740850589811, 0.48, 0.48, -0.48, -0.16719205923663272, -0.19502433135076683, -0.48, -0.48, -0.039987554696842814, -0.48, -0.48, -6.271160456935432E-4, 0.48, 0.48, -0.48, 0.48, -0.48, -0.48, -0.27973552870746, -0.48, 0.1691258692514792, -0.48, -0.48, 0.48, 0.46577509357084873, 0.48, 0.3855442980531083, 0.48, -0.48, 0.48, -0.4758298374837062, -0.007313400216032218, -0.48, -0.48, 0.48, -0.1754480687602799, -0.48, 0.41373204028262806, -0.48, -0.48, -0.48, -0.48, -0.48, 0.23913312493514732, -0.3294668081868015, -0.48, 0.48, 0.48, -0.48, 0.48, -0.48, 0.48, 0.48, 0.48, 0.48, -0.14062394611650092, -0.48, 0.48, 0.48, -0.48, 0.48, -0.48, 0.48, -0.48, -0.48, -0.48, 0.48, 0.48, -0.48, 0.48, -0.11558348158677342, 0.48, 0.48, 0.48, 0.48, 0.48, -0.48, 0.4259196102849823, 0.48, -0.48, -0.48, -0.0037508460994022663, 0.48, 0.48, -0.48, 0.48, 0.08441584554325993, 0.48, 0.21429726804085786, 0.48, 0.48, -0.48, -0.48, -0.48, -0.48, -0.48, 0.48, 0.48, -0.48, 0.48, -0.48, 0.04010881665488983, -0.48, -0.48, 0.48, -0.0732994958195222, -0.06592920562344454, -0.48, -0.32002349028438837, 0.48, -0.48, 0.48, 0.48, 0.3824124543583492, -0.48, 0.48, 0.48, -0.48, -0.48, 0.08783011025271355, -0.48, -0.48, -0.48, 0.48, 0.08626988800013535, 0.4161990736839834, 0.48, 0.48, -0.47536329574444147, -0.28384060462316735, -0.48, -0.48, -0.4522597415924377, 0.48, -0.48, -0.48, -0.48, 0.48, 0.48, 0.47168281275040314, -0.48, -0.48, 0.03514296416307405, -0.48, -0.48, 0.48, 0.17021442177741292, -0.32702064166913647, -0.32692396085205155, -0.48, -0.48, -0.48, -0.48, -0.18409014648709435, 0.48, 0.48, -0.48, -0.48, -0.48, -0.41315791208845354, 0.2218977078595132, 0.48, -0.48, -0.17542579384074802, -0.48, -0.17821731268766988, 0.48, -0.272038303520118, -0.16358768483845165, 0.48, -0.48, -0.48, -0.48, -0.48, -0.48, -0.2704596211654913, -0.19584982688500796, -0.040515341983132835, 0.48, -0.48, 0.48, 0.48, 0.48, 0.48, -0.48, -0.48, 0.37117877513637504, -0.48, 0.48, 0.48, -0.48, -0.48, -0.48, -0.44737543429907234, -0.48, 0.48, 0.48, 0.48, 0.48, -0.48, -0.23295750271352983, -0.2773049830890013, -0.48, 0.48, 0.14546754694628386, -0.48, 0.48, 0.3057597677330701, 0.48, 0.13805422242905407, -0.48, 0.20667505089210136, 0.48, 0.48, 0.48, -0.155047359896881, -0.13443963563161454, 0.48, 0.48, 0.2753871276607148, -0.03489938739933479, 0.07128748536361484, 0.38940820822702926, 0.48, -0.3470588306525042, -0.48, -0.48, -0.48, 0.48, -0.48, 0.48, -0.3224309428321069, 0.48, 0.48, 0.48, -0.34533510884434715, 0.48, 0.48, -0.48, 0.31825863746718774, 0.48, -0.12149042370906435, -0.48, 0.48, -0.48, -0.48, -0.1877289026083306, 0.12259794866396864, 0.48, -0.48, 0.48, -0.2550496294974765, -0.48, -0.48, 0.48, -0.11861349587586942, 0.48, 0.48, 0.48, 0.48, -0.48, 0.48, 0.48, -0.48, -0.48, 0.1855757061214103, 0.48, 0.48, 0.48, 0.31607257580701886, -0.17116182390578258, -0.48, -0.48, -0.48, 0.1269685331980502, 0.16779656151483885, -0.48, -0.48, 0.48, 0.32923458041770315, -0.48, 0.48, 0.19659210820194611, -0.03570897189827965, -0.1349979105785342, -0.48, 0.48, -0.065823983598551, -0.0705774159893578, 0.48, -0.48, -0.09461739620057316, -0.48, 0.24125487767098264, -0.48, -0.054299618810514094
0.48, -0.48, 0.48, 0.48, -0.48, -0.48, 0.17632164794296853, -0.48, 0.48, -0.48, 0.10588171457790208, -0.48, -0.48, 0.48, -0.3618268031612498, -0.48, -0.08061658260236809, 0.22613802300993663, -0.48, 0.48, 0.24693297144675636, -0.48, -0.48, 0.48, -0.16274347084530874, 0.19184473994529383, 0.48, 0.48, -0.2183264879870087, 0.48, -0.48, 0.09176696827814847, 0.3417195786886317, -0.48, -0.48, 0.35224862495867376, 0.10138580892379495, 0.48, 0.48, 0.48, 0.48, 0.48, -0.48, 0.13648495494482019, 0.46772213353370584, 0.48, -0.2665825549398966, 0.20850165358773615, 0.48, -0.48, -0.48, 0.48, 0.17183223710802528, -0.48, 0.48, -0.07888867124624532, -0.48, -0.48, 0.48, -0.48, -0.48, -0.48, -0.48, 0.48, 0.48, 0.48, -0.17235509962642942, -0.48, -0.024422863307257195, 0.48, -0.48, -0.10392128758599778, 0.48, 0.48, -0.07960642429439513, 0.48, -0.35549141940616774, 0.48, -0.48, 0.48, -0.48, 0.48, -0.3082017243657891, -0.48, 0.48, -0.48, -0.48, -0.48, 0.2426878256624895, 0.48, -0.48, -0.48, 0.48, 0.06827005358865186, 0.06394545596969009, -0.48, -0.48, -0.48, -0.48, 0.48, 0.48, 0.48, 0.080831383219019, -0.48, -0.23327387467086072, -0.48, 0.3089141840443875, 0.48, -0.48, -0.3821804819527199, 0.48, 0.48, 0.48, 0.3859764617065522, -0.48, -0.10362635004017653, -0.48, 0.1873005639913265, 0.48, -0.48, -0.48, 0.48, -0.48, -0.48, 0.48, -0.12647706094545347, -0.48, 0.48, -0.48, -0.48, 0.48, 0.48, 0.48, -0.48, -0.48, 0.48, -0.48, -0.48, 0.48, 0.48, -0.47004800887668924, -0.48, -0.18381590484540256, -0.36603966698677026, 0.07282964017914566, 0.46186022692760803, -0.48, -0.48, 0.18989720971963395, -0.41955902997245276, -0.48, 0.06596701158785556, 0.3333683909160796, 0.48, 0.48, -0.48, -0.48, -0.48, -0.48, 0.4307197850084985, 0.1337478261693126, 0.48, -0.48, -0.48, -0.48, -0.48, 0.48, -0.48, -0.48, -0.10588564269202067, -0.08917806366263575, -0.3228401349458014, -0.09142949112428972, -0.15668304586086412, -0.48, -0.05205205821397926, 0.48, 0.48, -0.4503850367073631, -0.48, -0.48, 0.48, -0.48, 0.48, 0.17054732717640586, -0.48, -0.24302663083333587, 0.48, 0.442721923601425, -0.48, -0.48, -0.3168201148112566, 0.3651461921063258, -0.48, -0.48, -0.013867700856731696, -0.48, 0.23487240183845265, -0.05902056406589168, -0.3620841669648696, -0.48, 0.48, 0.48, 0.048813864777853516, -0.48, -0.48, 0.29397771507778137, 0.48, 0.33215140587559716, 0.48, 0.48, -0.48, 0.08141173558590042, -0.48, -0.48, 0.48, 0.48, 0.48, 0.48, 0.014732507608251011, -0.055190295780351006, -0.3685215752229024, 0.48, -0.48, -0.48, -0.48, -0.48, 0.48, -0.393320060223186, -0.48, 0.48, 0.19580630849938188, 0.48, -0.48, 0.056083006512127886, 0.44255271810411567, -0.08765440277873318, -0.48, -0.006179780309368554, 0.029022663484877753, -0.31082460912626336, -0.48, -0.3202766765102282, 0.48, -0.3799042719345052, 0.48, -0.48, 0.48, -0.48, -0.48, -0.10930702982548915, -0.014793783408251437, -0.48, -0.48, 0.07247355846419867, 0.48, -0.48, 0.48, -0.48, -0.48, 0.018314796401528055, -0.48, 0.48, 0.48, 0.4068721860423793, 0.2907867951969302, 0.48, 0.48, -0.48, -0.48, 0.48, 0.04457872574674551, 0.15741978064562626, 0.11617787605091423, -0.48, -0.48, 0.48, -0.48, -0.48, -0.48, 0.4315088295056278, -0.48, 0.48, -0.14241767445152786, 0.48, -0.48, -0.21399545750273868, -0.48, -0.33518709778240807, 0.48, 0.48, 0.48, -0.2525459252436833, 0.48, 0.4540623405347809, 0.48, -0.03423166856785009, -0.10505440482382905, 0.48, 0.48, -0.48, 0.48, -0.48, -0.2818200847010066, 0.48, -0.26098401236471325, -0.31235987363951323, 0.48, 0.4606912232746748, 0.48, -0.48, -0.48, 0.48, 0.4506736223603055, -0.48, -0.48, -0.48, -0.14205486662012382, 0.48, 0.1377576857943306, -0.48, 0.15826681081605398, -0.3707100646576792, 0.48, 0.48, 0.48, 0.48, -0.24624644235479354, -0.20695208132129503, -0.48, 0.48, 0.48, -0.11361220146463472, 0.48, 0.48, -0.48, -0.48, 0.48, -0.48, 0.48, 0.48, -0.08963156228844416, -0.48, 0.48, -0.48, -0.36698296827402277, 0.03828981944829056, 0.48, 0.48, 0.48, 0.48, 0.25596570936010254, 0.4296694929072957, 0.07460910892140923, -0.48, -0.258487760007996, 0.48, 0.48, 0.48, -0.17517373961883848, -0.2611033316226797, 0.48, -0.4346075879971648, -0.48, 0.48, 0.48, -0.42955685982684905, -0.48, -0.48, -0.48, -0.48, -0.2146800833051282, -0.48, -0.48, 0.48, 0.05916464880090755, 0.2911651575636074, 0.48, -0.48, -0.48, -0.48, 0.48, -0.3260031648979229, -0.48, -0.00877649148544768, -0.48, 0.48, -0.48, 0.48, 0.48
0.48, 0.48, -0.48, 0.25341214376648946, -0.36737975797875677, 0.48, 0.16713013443413288, -0.09267293758748853, 0.48, 0.48, 0.08955825071905403, 0.48, 0.48, -0.48, 0.48, -0.48, -0.47865356578397517, -0.48, 0.48, -0.48, 0.48, -0.48, 0.17582915361296475, 0.3161751713189481, 0.48, 0.11094016111298946, 0.48, -0.48, 0.09702872106569538, -0.48, 0.22231141281449146, 0.2261041613494948, 0.48, -0.48, 0.37819021146361875, 0.48, -0.48, 0.48, 0.48, -0.4358750643776724, 0.3663089992669765, -0.48, 0.48, 0.20976984974312546, -0.48, -0.48, -0.48, -0.48, 0.21104519290857582, 0.48, -0.48, -0.15173744670870074, 0.47886028739034153, 0.48, -0.48, -0.48, 0.48, 0.4772930778276626, 0.48, 0.3511444673106401, -0.48, -0.48, 0.48, 0.3067685588020689, 0.15799811465695446, 0.2696405657772116, -0.009003927045776502, 0.48, 0.48, -0.48, -0.48, 0.1078072419695537, -0.1404094569142138, -0.3692079721626929, -0.48, 0.1326879748199202, -0.48, 0.48, 0.21397486122785345, -0.2758637884545689, 0.37338486430622997, 0.48, 0.48, -0.30224564532133436, -0.48, 0.43797594133088974, 0.48, -0.48, -0.4774267022746909, -0.45349884947200403, 0.26661641455119545, -0.48, -0.48, 0.38438313631475474, -0.48, 0.48, 0.4347725648383806, -0.1332743214397735, 0.48, 0.2397060874290376, 0.48, 0.3683924944769324, -0.48, -0.48, 0.48, 0.48, -0.48, 0.48, 0.4792425165191751, -0.3217468968385932, -0.24033138454043584, 0.48, 0.29402270440370704, -0.4129229901573653, -0.48, -0.48, 0.48, 0.48, 0.48, -0.48, 0.2337963867995287, -0.48, 0.48, 0.40695388802051674, 0.48, 0.48, -0.44479692955104666, -0.48, -0.48, 0.478441196291501, -0.04748193635232646, 0.48, 0.48, 0.48, 0.29956615876919773, 0.48, -0.26350802935092144, 0.22999515949279759, -0.2537494585247752, 0.48, 0.48, 0.08270238828216558, -0.4775100704323551, -0.45714996059519664, 0.30818024674567457, 0.05451421815196433, 0.48, 0.3609456045407057, -0.48, 0.23092286250523125, 0.48, 0.28901905888081664, -0.47983230301196755, -0.48, -0.2727081589343713, 0.48, 0.13258119982358066, 0.4771821753669872, -0.3920730741488172, -0.48, 0.48, -0.48, -0.48, -0.4790155199639787, 0.48, -0.48, 0.48, -0.48, -0.48, -0.237512305790476, -0.48, 0.48, 0.48, -0.42862559855865356, -0.48, -0.3566859453835109, -0.48, -0.48, -0.18948932859112047, 0.48, -0.48, -0.48, 0.48, -0.48, -0.48, -0.17296981333289707, -0.48, 0.48, -0.48, -0.35559094239055083, 0.48, -0.48, -0.15377695658023974, -0.404666736148839, -0.48, -0.24309785460204913, -0.48, -0.34842321340769367, 0.48, 0.033932404598535956, -0.48, -0.14294296585516417, 0.48, 0.42271064198290187, 0.1615799638505359, 0.48, 0.48, -0.24236706031936373, -0.48, 0.48, -0.48, 0.15339262251729271, 0.48, 0.48, -0.3172609126640288, 0.1430945211428504, 0.43603208262792836, -0.48, -0.48, -0.48, -0.48, 0.030818153830447795, 0.24833794500588502, -0.48, 0.48, -0.48, 0.48, -0.025115353896198053, 0.47877006016990115, -0.4778683079645812, -0.3864924190998121, 0.48, 0.48, -0.48, 0.006514076201147495, 0.48, 0.48, 0.48, 0.48, -0.47565443639787086, 0.24048814670689045, 0.4694271336673859, 0.48, -0.48, 0.48, -0.48, -0.48, -0.24379351984057068, -0.48, -0.48, 0.48, -0.48, -0.14210825298298205, -0.48, -0.4108855880179711, 0.2858215179199328, -0.48, -0.48, 0.48, -0.21856937226696316, 0.40703737421305375, -0.17766802917874336, 0.4773905049067356, 0.48, 0.48, -0.48, -0.48, -0.21175150414338734, -0.48, 0.48, 0.3220770564333575, -0.48, 0.30206339619071065, 0.48, 0.4785491050619026, 0.20867037853643294, -0.48, -0.48, -0.23918616808031623, 0.48, -0.254383940083886, 0.48, 0.48, -0.38635183568528525, -0.48, -0.48, -0.48, -0.15390799299435942, 0.2056282351857821, 0.48, 0.48, 0.48, 0.30578304698863445, -0.48, -0.31214200806476367, 0.4221154205350236, -0.48, 0.48, 0.31859440575306097, 0.2390963084373029, -0.48, -0.48, -0.48, -0.06809599842864511, 0.48, -0.48, -0.4606111744335163, 0.16875658492021553, 0.414330737335153, -0.4790045240039692, -0.12251747874208026, -0.48, -0.32885835791533385, 0.35256798837214937, 0.48, 0.24026331493344888, 0.48, -0.1345747605534021, -0.025628281102686543, -0.47907630876625446, 0.48, -0.48, -0.48, -0.19243693936668868, -0.02862331955103193, 0.22114500943516807, 0.3385123593433589, -0.48, -0.48, -0.48, 0.44902880106226994, 0.20264525676688605, 0.48, 0.48, 0.48, -0.48, 0.48, -0.48, -0.2343040206573222, 0.19797036849193828, -0.48, 0.48, -0.48, 0.48, -0.11543001359268279, -0.48, 0.48, -0.48, 0.1680856962483538, -0.48, 0.48, -0.3201974790824713, 0.23782270901500951, 0.48, -0.16458161932739757, 0.265013723524103, -0.3299690799451206, 0.4493127540905845, -0.23663970367987094, -0.47580311132275593, -0.33106545602094695, 0.2919786869100807, 0.48, 0.2162798484619291, -0.48, 0.22562643760832965, -0.26460011193952265, 0.2833734339214083, 0.28514302376315254, -0.44755715526452966, -0.20926427048307827, 0.48, -0.16776213117460542, -0.48, 0.4603919931219316, -0.014949603457955166, -0.48, -0.48, 0.137669824409796, 0.1999186412808966, 0.127224527274508, -0.2389078262969811, -0.31573559812845764, 0.48, -0.48, 0.21848294807463023, 0.48, 0.22563148511509362, -0.48, 0.48
0.08274171607025363, 0.2992723722136936, 0.33075917036448255, 0.48, 0.48, -0.2926194731941195, -0.39767219312229984, 0.3652503897778203, 0.21165463520356995, 0.48, -0.19735741009121993, 0.19976071214456237, -0.07373896680346517, 0.48, 0.48, -0.48, -0.4604704513722092, 0.48, -0.13816937556666253, -0.48, 0.06260032342402475, -0.48, 0.48, -0.19282357472550252, 0.1809126570771875, -0.33066572995506793, 0.48, -0.48, -0.06682059328447815, -0.48, -0.11203963469668736, 0.48, 0.48, -0.30332658049563804, 0.07504136902250419, -0.2558641830067962, 0.48, 0.48, 0.48, 0.48, -0.48, 0.12682171116795554, -0.14701816581651223, 0.48, 0.48, -0.48, -0.3894777272802594, -0.19860987150820297, 0.11686307065813853, -0.48, -0.48, 0.12366951385354422, 0.48, -0.48, -0.48, 0.079906324825775, 0.07312596338153005, 0.034689713347689055, -0.45184955118702763, 0.2026348177319433, -0.12089617886404977, -0.12754265465295309, 0.31309110602565327, -0.38418553243858217, 0.16178238237832482, 0.3390307837223811, -0.48, 0.48, -0.24392890706150672, 0.18170617309142348, -0.11277038566853012, 0.3315424620858163, -0.40951129896369165, 0.4194006521439586, 0.48, 0.48, 0.3544521099960447, 0.11622434500708223, 0.48, -0.37587511946003016, 0.48, 0.48, -0.48, 0.19202876813273964, -0.48, 0.48, 0.3984276697701613, 0.48, 0.10236078623204045, 0.2610926871597234, 0.04579568073221929, 0.07353097767094421, -0.48, 0.03588748664546701, -0.48, -0.4696034150707067, 0.48, -0.48, 0.23879650847475326, -0.48, 0.2792231509148618, -0.48, -0.48, -0.019633443764711267, -0.1333635470885507, 0.14801841966441312, 0.15398882400743957, -0.14607774626916534, 0.15262645672549469, -0.38621944302964917, 0.48, 0.48, -0.48, -0.43434596440763407, 0.48, 0.48, 0.05822761377725926, 0.341186137625833, 0.395325727513357, -0.16354416191021767, -0.1273766175011803, -0.48, -0.1797571527671072, 0.14840531652374525, 0.17808293106211193, 0.4717950189159246, -0.48, 0.08091436424073958, -0.48, -0.1315832608705003, -0.09463585553626505, -0.48, 0.48, 0.256893593724425, 0.48, -0.48, 0.48, 0.0827653940567666, 0.030635981993497374, 0.1830171527176318, 0.1747051299643077, -0.48, -0.48, 0.48, 0.4384506970939645, -0.45578264730846835, -0.14681494406756906, -0.48, 0.42043342693727825, 0.23198091463469947, -0.2650459157984553, 0.48, 0.2301467477404534, 0.48, 0.15325903930872908, -0.044530381135660824, 0.48, 0.48, -0.48, -0.48, 0.3908615771952804, -0.48, 0.39621652263377244, 0.1556833736720031, -0.4301975537707781, -0.48, -0.13381750802473238, 0.48, -0.13235945544683458, -0.48, -0.48, -0.48, -0.48, -0.4229578278669075, -0.48, 0.09963222796015078, -0.48, -0.48, 0.14844769139556158, -0.34156933173817633, 0.1499251874468836, 0.3839091004534922, -0.28752040037434373, 0.15427266724329075, 0.48, 0.1228210233451073, 0.48, 0.3581749580886294, 0.42108515873969415, 0.09795323975802685, -0.23608299966994578, -0.36853764896361785, 0.30693288238158273, 0.48, -0.11324174111380024, 0.4720440709865898, -0.48, 0.22068332866070425, 0.46593058688756916, 0.48, 0.17167329176447416, -0.48, 0.0581804010059013, 0.45450091786398783, 0.48, -0.10599780504587036, 0.48, 0.48, -0.48, -0.1660420706300072, 0.48, -0.25539104213380104, -0.48, 0.48, -0.3868275056994762, -0.48, 0.42312201567145097, -0.48, -0.48, -0.48, -0.48, -0.48, -0.29189885873356025, -0.48, 0.48, 0.3852644588968249, -0.2963114718258816, -0.20267494741153982, -0.4502361385154622, 0.48, 0.48, 0.48, -0.48, 0.28356592714157947, 0.17139629777043142, 0.48, -0.48, 0.06073530572238181, 0.48, -0.47124187714853205, -0.395405044255675, -0.48, 0.43554705472234867, -0.23373366497133607, 0.461093468068032, -0.48, -0.48, -0.2143674182561823, 0.23449222372762518, 0.2467827749142462, -0.48, -0.11255713528180461, 0.15070895562214406, 0.03760072845250198, -0.45371895807417495, -0.042205829942460915, -0.47709112903480166, -0.3369998551849438, -0.48, -0.48, -0.43547172387913785, -0.13034835975849868, -0.16481304415871495, 0.18282271432752797, -0.06806672069566538, 0.4462807519584289, -0.48, 0.15349636165576605, -0.48, 0.21928953568128529, 0.41850987695216796, -0.16008818829634086, 0.168585967846398, 0.48, -0.48, -0.4587029387332706, -0.37754722807213026, -0.42458647344404454, 0.3658249545294911, 0.47177421242811324, -0.12290881994637431, 0.3912695264945573, -0.14387627010045717, 0.48, -0.48, -0.48, 0.48, -0.48, 0.48, 0.48, -0.45578005323677134, 0.48, 0.33302176950775403, -0.3209128606684551, 0.48, 0.48, 0.43195851391521795, 0.48, 0.48, 0.24634373725455913, -0.48, -0.48, 0.06501927998221768, -0.15274288012308915, 0.48, 0.48, 0.4563794272229934, 0.029369810373119865, -0.09855094443856222, -0.48, 0.48, -0.48, 0.48, -0.44173984652285037, 0.48, 0.48, 0.48, -0.48, 0.31120619257363485, 0.48, 0.26499233661640814, -0.18999338021239975, 0.12573877820884918, 0.43723323738561415, -0.48, -0.16143873118232682, -0.48, -0.48, -0.31972421878280183, -0.22217038013371698, 0.48, 0.4765159475136563, -0.48, -0.05989459147517867, 0.48, 0.46180515425265417, 0.42790912871124037, 0.2369894921389624, -0.2093505389148625, 0.14954039979540767, 0.48, -0.4632993235697553, 0.2033093139930261, 0.48, 0.48, 0.48, 0.152771148560078, -0.48, 0.48, -0.35194571342171405, 0.10457045405343263, 0.34610588212632915, 0.2425735194073816, -0.16101329822701393, 0.48, -0.4348441418893724, 0.3357357818451458, -0.48, -0.14583390167266957, 0.48, -0.48, 0.06116292034962115, 0.39443276219309414, -0.48, 0.13087548812196514, -0.48, 0.3809289337021216, 0.11427891242180088, 0.48, -0.20537821920776306, -0.48, -0.48, 0.41044040253815844, 0.14127913785058085, 0.018741714669678416, -0.12970093847588787, -0.48, 0.20230917268500864, -0.4629349900442887, 0.1639404588232144, -0.48, 0.06705961087466655, 0.48, 0.312118526555451, -0.48, -0.48, -0.48, 0.1730636718599967, 0.420958230480909, -0.1139028137486669
-0.48, 0.48, -0.48, -0.48, -0.3192352509338009, -0.48, 0.13349352509878662, 0.11801203137724131, 0.48, -0.053823877139821646, -0.48, 0.48, 0.48, -0.48, 0.48, 0.48, 0.48, -0.48, -0.48, -0.48, -0.3914057517345818, -0.48, 0.1341208311667205, -0.48, 0.48, -0.48, 0.48, 0.35025859119141467, 0.42768380352683216, -0.48, 0.09875293114034081, 0.48, 0.48, -0.48, 0.08081668788615066, 0.05812916358916814, 0.14336754330824789, -0.48, 0.16582321703004727, -0.2872861645146249, 0.48, 0.10517178227896079, -0.4353672932551221, 0.48, 0.48, -0.48, 0.48, -0.48, 0.48, -0.48, -0.48, 0.48, -0.48, 0.027725948487562962, -0.48, -0.48, -0.48, -0.48, -0.48, 0.48, -0.48, -0.10060596919755233, 0.19454391228182685, 0.48, -0.48, 0.041143749991928096, 0.48, 0.48, 0.48, 0.09512771740177367, 0.48, -0.48, 0.48, 0.48, 0.48, -0.48, -0.48, 0.48, 0.48, -0.48, -0.05135473347120656, 0.48, -0.48, 0.48, -0.10266970179084639, 0.1603875661199115, 0.2150147781727906, -0.48, -0.10618886771485206, -0.48, 0.48, 0.48, -0.48, 0.48, 0.48, 0.48, -0.48, -0.48, 0.48, -0.1051174741854369, -0.48, 0.016219661314162442, 0.48, -0.48, -0.0437342831849452, -0.09539568586311996, 0.07756588965274065, 0.48, -0.07533967257531393, -0.48, -0.06098076326644333, -0.48, -0.2632714924872292, 0.48, -0.40788717966104954, 0.48, 0.48, -0.48, 0.48, 0.48, -0.48, 0.48, 0.48, -0.48, 0.48, -0.14378152388396373, 0.4644169155169486, 0.48, 0.48, -0.48, -0.48, -6.194855775577754E-4, -0.48, -0.48, 0.48, 0.48, -0.013344873545036474, -0.48, -0.48, -0.48, 0.48, -0.298702750151494, -0.48, -0.48, 0.48, 0.48, 0.13360672448307093, 0.48, 0.027253875862656332, 0.48, -0.48, 0.4758856891864099, -0.48, 0.48, -0.1550597215332559, 0.48, -0.48, 0.48, 0.41244372594478396, 0.48, 0.48, 0.09739984734154375, -0.48, -0.23800102501464465, -0.48, -0.48, -0.06628393673283961, -0.48, 0.48, 0.48, 0.3861769842489025, -0.48, 0.33233423272005097, -0.48, 0.48, -0.48, 0.48, -0.10990320147954769, 0.48, 0.48, 0.1984997055402641, -0.48, -0.47122017764481566, 0.243842256978715, 0.48, 0.48, -0.48, -0.48, 0.48, -0.48, 0.48, 0.48, 0.48, -0.48, 0.15933567538119217, 0.48, -0.48, -0.48, -0.48, 0.48, 0.48, 0.48, 0.48, 0.48, 0.48, -0.043099595488740754, 0.48, 0.48, 0.48, -0.48, 0.48, -0.44636657944430636, -0.48, -0.07614980691626455, -0.48, -0.48, -0.48, -0.48, -0.21119326504837, 0.48, 0.48, 0.48, -0.48, 0.005723842882427221, -0.48, 0.48, -0.48, 0.48, 0.48, -0.16589837807369204, 0.48, -0.16320924497202, 0.48, 0.48, -0.48, 0.09617888178655766, 0.48, -0.48, -0.3588679648366153, -0.48, 0.48, -0.15259439946948455, 0.48, 0.19093901373146943, 0.48, -0.48, -0.08626248298007591, 0.48, -0.48, -0.38513575404176076, 0.48, -0.48, -0.48, 0.48, 0.2293982112076735, 0.48, -0.48, 0.11126158832154048, -0.48, -0.06974911935770971, -0.48, 0.48, -0.48, -0.11337636674683638, 0.3552195285663543, -0.48, -0.48, 0.48, 0.48, 0.1156332516970938, 0.48, 0.48, -0.3916390417983184, -0.48, -0.15655626216290308, 0.48, 0.3488396783189078, -0.48, 0.26465459001305136, 0.48, 0.48, 0.48, 0.48, -0.30913222938046825, 0.0498263734403409, -0.48, -0.25026829286845154, -0.048311216967456015, -0.2576420391906736, -0.48, -0.48, -0.2580571858145887, -0.29239032667408726, 0.48, -0.48, 0.48, 0.1744798375441186, -0.48, 0.48, -0.48, -0.23238275131959973, -0.48, -0.2797677126274864, 0.1213567927663661, 0.06585208656182653, 0.09376454503767188, -0.48, -0.48, -0.48, -0.10238796947069134, -0.48, -0.48, -0.48, 0.48, -0.48, -0.48, -0.48, 0.48, -0.48, 0.48, -0.48, -0.48, 0.1673257323555433, -0.1554270168964617, 0.48, 0.48, -0.48, 0.12934087754788443, 0.48, 0.48, -0.17688070522988797, -0.48, -0.48, 0.48, 0.48, 0.48, 0.48, 0.05940482117136894, -0.3129477733887851, -0.48, 0.48, 0.48, 0.48, -0.48, 0.266175087267656, -0.48, 0.3999114066289114, 0.48, 0.48, 0.48, -0.2585351423098514, -0.2663670199450928, 0.48, -0.48, -0.48, 0.043246550944942744, -0.48, 0.48, 0.48, -0.48, 0.48, -0.48, 0.48, 0.48, 0.48, -0.2095890248694916, -0.1269433727615487, -0.48, -0.48, -0.48, 0.48, 0.48, 0.2720851338075662, -0.48, -0.16453595248816694, -0.48, -0.48, -0.12673326045630912, -0.07731945271405478, -0.48, -0.1874889913624438, -0.48, -0.48, 0.48, 0.48, -0.48, -0.48, 0.009089874201182825, 0.03816482389223908, -0.48
0.16754446368361958, 0.48, -0.27575925174266314, -0.48, 0.48, -0.48, 0.48, 0.48, -0.48, -0.3940836714085835, 0.48, -0.48, -0.010134413078826631, 0.48, -0.2998889263435602, 0.48, 0.48, -0.48, -0.48, -0.48, 0.48, -0.48, -0.48, 0.04236208573614421, -0.48, -0.48, -0.48, 0.48, -0.48, -0.48, 0.4175124539730015, -0.48, 0.40541840627957365, 0.48, -0.48, -0.48, -0.48, -0.48, 0.48, -0.48, -0.09981151120145103, -0.48, 0.48, -0.41885761229582025, -0.48, -0.48, -0.48, -0.2825536640212587, 0.14482880451715094, 0.32642626832793437, 0.48, 0.04027136816900015, 0.3909648733282207, -0.15580386886523584, -0.21936436888193805, -0.48, 0.197906788670252, 0.48, 0.48, -0.48, -0.48, -0.48, -0.48, -0.48, 0.48, 0.48, 0.049497014829723754, 0.2661858777234562, 0.48, -0.48, 0.4664476615698579, -0.48, -0.23159790364710625, -0.2724696346443747, 0.48, 0.18235725084128424, -0.48, 0.2647823785579725, -0.4068920067825108, 0.2870750195594465, 0.48, -0.48, 0.32332304608449125, 0.24304729799569336, -0.48, -0.138119186036018, 0.48, 0.48, -0.30663031694459675, -0.48, 0.48, -0.48, 0.48, -0.2856366012089079, -0.48, 0.48, -0.48, -0.48, 0.48, 0.48, 0.48, 0.48, 0.4303248379827965, 0.4398189878242713, -0.48, -0.48, -0.48, 0.48, -0.48, -0.48, -0.48, -0.48, 0.48, 0.12394682944455035, 0.48, 0.48, 0.48, 0.48, -0.0887880755029474, -0.48, 0.48, 0.48, -0.48, 0.48, -0.48, 0.3971136961907841, 0.48, 0.48, 0.48, 0.39282614616828887, 0.48, 0.2853390744840073, -0.48, 0.48, -0.48, -0.31013837102984887, -0.48, 0.48, 0.48, 0.48, -0.48, 0.2106942329136363, 0.48, 0.48, -0.32263276478717684, -0.4319848839030669, 0.48, -0.48, 0.4053032879197613, 0.48, 0.48, -0.17222636262044416, 0.19315905786514997, -0.48, -0.15174216328301884, 0.33788760818676083, 0.09527905044444697, -0.48, 0.48, -0.48, -0.38583499199509746, -0.48, -0.4029171798464618, -0.4399570745032145, -0.16477858630294306, -0.41753900148381523, 0.48, -0.48, -0.4771917116553367, -0.48, 0.3465701594760987, 0.48, -0.48, -0.48, -0.48, -0.29662752248016433, 0.48, 0.227711323114034, 0.193307860879396, 0.05226577968994563, -0.48, -0.33406514745953014, -0.48, 0.48, 0.48, 0.48, 0.3516481733204921, -0.48, -0.48, -0.48, 0.41650606287998604, -0.48, 0.31523289939511445, 0.48, 0.19559235367395875, 0.45834255646188743, -0.48, -0.48, 0.48, 0.29784433851998937, -0.48, 0.48, 0.48, -0.48, 0.48, -0.48, 0.48, -0.48, 0.48, -0.48, -0.48, -0.4516922979351529, 0.3041503597066458, -0.3432148106880546, -0.48, 0.48, 0.3328554640818417, 0.48, 0.45009818444930183, -0.48, 0.29190343989282996, -0.48, 0.48, 0.48, 0.48, 0.23814774100313152, 0.48, -0.48, 0.48, -0.48, -0.48, -0.48, -0.48, -0.48, -0.48, -0.48, -0.48, 0.48, -0.48, -0.48, -0.48, 0.42255568996621024, 0.3473253857136787, -0.3038733643710112, -0.48, 0.37860309774798145, -0.48, -0.366715773112303, -0.48, -0.48, 0.48, -0.48, -0.48, -0.48, 0.48, 0.48, 0.48, -0.05879993987587964, -0.48, -0.48, -0.1837306220042189, -0.48, -0.2177105824329225, -0.48, 0.48, 0.48, 0.48, -0.48, -0.48, 0.1918329524939717, -0.48, -0.48, -0.48, 0.2783898650232627, 0.48, -0.48, 0.48, 0.4601576803706105, 0.48, -0.48, 0.48, 0.48, 0.32881320118864865, -0.48, -0.48, -0.3494100461761213, 0.48, -0.48, 0.48, 0.48, -0.2796112342804029, 0.279083139300857, 0.29596726121442, -0.48, 0.48, 0.18649233706771878, -0.3307256115742842, -0.48, 0.48, -0.48, 0.48, 0.48, 0.48, -0.48, 0.48, 0.48, -0.48, -0.48, -0.48, -0.48, 0.2023109767494954, 0.48, 0.48, -0.48, -0.19836137449505656, 0.48, 0.3986051677306208, 0.37339620957647535, 0.48, -0.48, -0.48, -0.48, -0.12043034824664636, 0.48, 0.48, 0.3931609265979672, 0.42615691454105065, 0.48, 0.48, -0.48, 0.12739729572857503, 0.48, -0.28791749476018835, -0.48, -0.4751439226736329, 0.48, 0.48, 0.48, -0.29529028793384954, 0.48, 0.48, 0.48, -0.48, -0.48, 0.48, 0.48, -0.38968987171711916, 0.48, -0.48, 0.39892628096074034, 0.48, -0.17440665767156885, -0.48, 0.48, 0.48, -0.48, 0.34356159013070203, 0.48, 0.48, -0.48, 0.19328541747465158, -0.48, -0.4673060199413699, 0.48, -0.48, 0.48, -0.48, 0.11288563927095119, -0.48, -0.48, -0.48, -0.3764279760829027, -0.48, 0.48, 0.48, 0.4728160098813467, -0.48, 0.48, 0.08451344956702256, -0.4155643918878964, 0.13772694806383678, -0.2402979161602416, 0.48, -0.48, 0.19028162195358367, 0.1564158404840815, 0.1719452222554807, -0.48, 0.48, 0.4650622845117493
0.48, -0.48, 0.10800629099895079, -0.48, 0.48, -0.12320634713922825, 0.48, 0.48, -0.48, 0.48, -0.48, -0.48, -0.48, 0.48, 0.48, 0.48, 0.13578987741142176, 0.48, -0.48, -0.48, 0.48, -0.3207128250949832, -0.48, -0.48, 0.48, -0.48, 0.48, 0.48, 0.48, -0.48, 0.48, -0.48, -0.48, -0.48, -0.48, -0.48, -0.48, 0.48, -0.48, -0.48, -0.48, 0.48, -0.48, -0.48, -0.48, 0.48, 0.48, 0.48, 0.48, 0.48, -0.48, 0.04759588504192451, 0.2528122024894116, -0.48, 0.21427642979025702, -0.48, -0.48, -0.48, 0.21517180999326602, -0.48, 0.48, 0.48, -0.48, -0.48, 0.48, 0.48, 0.48, -0.48, 0.48, 0.48, -0.48, -0.2907983059163518, 0.48, 0.48, 0.48, -0.3032560866416323, -0.23046902782815862, -0.48, -0.13354918679086117, -0.48, 0.45906690907994346, 0.48, 0.48, 0.48, -0.11920421146569192, -0.48, 0.48, -0.48, 0.48, 0.48, 0.48, -0.48, 0.48, -0.23123716213581486, -0.48, 0.48, 0.48, -0.48, 0.48, 0.48, 0.48, 0.4550616736537463, 0.48, -0.48, 0.48, 0.48, 0.48, -0.48, 0.48, -0.48, 0.48, 0.48, -0.48, 0.48, 0.48, 0.48, -0.055641399612874745, -0.48, 0.48, -0.48, 0.48, 0.48, -0.48, 0.48, 0.48, 0.48, -0.48, 0.48, 0.48, 0.48, 0.38147323476252526, -0.48, 0.48, 0.48, 0.48, 0.48, 0.48, 0.48, -0.48, 0.48, 0.48, 0.48, 0.2647722551429028, 0.48, 0.48, -0.48, 0.48, 0.48, -0.48, -0.48, 0.48, -0.48, 0.48, -0.48, -0.48, 0.48, 0.48, -0.48, -0.48, 0.48, 0.48, 0.48, -0.48, -0.48, 0.1605337075337161, 0.03157552411321448, -0.06752803245133107, 0.10459086704087035, -0.48, 0.48, 0.48, -0.48, 0.12955200195794617, 0.45613064831731737, 0.12661584516334465, -0.48, 0.48, 0.48, -0.48, -0.48, 0.48, -0.48, -0.23980082490020777, 0.3456474310976236, 0.48, 0.48, 0.48, 0.0886219285808398, -0.48, -0.48, 0.48, 0.48, -0.18450811206495998, 0.48, -0.48, -0.48, 0.48, -0.07362403434971837, -0.48, -0.48, 0.48, 0.48, -0.2731365953658452, -0.48, -0.48, -0.48, -0.48, 0.48, 0.48, -0.48, 0.24002105603300677, 0.48, 0.48, -0.25057272093079735, 0.48, 0.48, 0.48, -0.48, 0.48, 0.20251235992141314, 0.48, 0.4559740831383039, -0.48, -0.48, 0.27200307883305824, 0.48, -0.48, 0.2555595009096959, 0.48, -0.48, -0.48, 0.48, -0.48, 0.48, 0.48, 0.48, 0.10631951471709342, -0.48, 0.13995651877501056, -0.48, -0.20386565818113173, -0.48, -0.48, -0.48, 0.48, 0.08087823115011165, -0.48, 0.48, -0.48, 0.33268569502292905, -0.48, 0.48, -0.48, -0.48, 0.48, -0.48, 0.48, 0.48, 0.48, -0.48, -0.48, 0.48, -0.2101469839804848, 0.48, 0.48, -0.10898735099553161, -0.48, 0.07037341643997369, -0.48, -0.48, -0.48, 0.3949819986341276, 0.48, -0.48, 0.17128653060401688, 0.48, 0.48, -0.48, 0.48, 0.48, 0.48, -0.48, 0.48, -0.48, 0.48, 0.48, -0.4579565431229305, 0.48, -0.48, 0.13754603248660963, -0.48, -0.48, -0.48, -0.48, -0.48, -0.48, -0.48, 0.48, 0.48, 0.48, -0.48, 0.48, 0.48, 0.48, -0.48, -0.48, 0.48, -0.4791699120937926, 0.48, 0.48, -0.48, -0.48, -0.48, 0.48, -0.48, 0.36116860449302063, -0.48, -0.48, 0.006040576351528618, 0.13612970744017971, 0.48, 0.48, 0.48, 0.16790560281636824, -0.48, 0.48, 0.1939687036504224, -0.48, -0.48, -0.48, -0.48, -0.48, -0.48, 0.48, -0.48, -0.48, -0.48, 0.48, -0.48, -0.48, 0.48, -0.0814960598749146, -0.48, -0.48, 0.48, -0.48, 0.48, 0.1759812027769006, 0.10907692545261363, 0.16085174543047556, -0.48, 0.48, 0.48, -0.48, -0.48, 0.42201899463816644, -0.200458586908792, 0.48, 0.48, 0.48, -0.48, -0.12942013322689902, 0.24022273833525637, 0.48, -0.0038134712178381353, 0.48, 0.014419006316929245, -0.48, 0.48, 0.48, -0.48, -0.48, -0.48, 0.48, 0.48, -0.48, 0.48, 0.48, 0.48, -0.48, -0.48, 0.4549832290223106, 0.48, -0.48, -0.48, 0.09289821986127111, 0.48, -0.18318707354589694, -0.48, 0.48
0.48, 0.48, 0.250949787268707, -0.10586203504165259, 0.48, 0.32189780027323434, -0.48, -0.3431030927503256, -0.48, 0.03413602333762028, -0.48, 0.48, -0.4587234208553419, 0.48, 0.48, 0.48, -0.2904711753891346, 0.46204835400380523, 0.08830284736228533, -0.48, 0.48, 0.006631439264276118, -0.48, 0.48, 0.48, 0.28605759843378453, -0.48, 0.28739545646231235, -0.2809879316488104, 0.48, 0.40106943389410116, -0.48, -0.48, 0.2803619928372967, 0.48, -0.2841034495224365, -0.48, -0.48, 0.2710114477414618, -0.45232419264419893, -0.48, 0.4549170940763676, -0.3307704822421911, 0.48, -0.48, -0.48, -0.48, 0.26508926286575585, -0.48, 0.45474535308413616, 0.48, 0.48, 0.20162042610736425, -0.48, 0.2436458635863235, 0.0991777299158646, -0.48, 0.28773505991000126, 0.48, -0.24026038428201, -0.48, -0.45823738988919205, -0.48, 0.48, 0.2519722677633406, -0.19638900737867665, 0.48, -2.8645901505236493E-4, -0.48, -0.48, -0.15137122479688983, 0.42444879831009474, -0.48, -0.26542021300680957, -0.48, -0.48, -0.48, -0.48, 0.48, 0.48, -0.452058947445084, 0.09528450699556903, 0.48, 0.36346270593015656, 0.48, 0.48, 0.48, -0.48, -0.3562594573244004, 0.48, -0.445637310669179, -0.48, -0.033210762666185334, -0.48, -0.48, 0.48, 0.17680308606808304, 0.04424034393505588, 0.48, -0.48, 0.48, -0.43020642587429353, -0.2817290855035602, -0.4656016927492477, 0.27933775245346726, -0.48, 0.48, -0.48, 0.4074126060864356, 0.48, 0.08749847239264788, -0.48, -0.08735404816242981, -0.07538810824528336, -0.21198731229021633, 0.28547001366652625, -0.48, -0.48, 0.48, -0.48, -0.39291992180691737, 0.48, 0.19147224214512165, 0.48, -0.3859483231797213, 0.14184091772260243, -0.404748498036678, -0.4552363431311125, 0.17806574386916152, -0.2390336471862159, 0.28392484577532917, 0.48, -0.48, -0.48, 0.48, 0.48, 0.48, 0.48, 0.27268257042879884, -0.48, 0.48, -0.48, 0.38596451549754596, 0.48, -0.48, -0.29334949819687284, 0.21860273164505045, -0.48, -0.48, 0.17080654856564917, 0.48, -0.48, 0.48, -0.026003010808254234, 0.48, -0.48, 0.3514832985672758, -0.48, 0.48, 0.48, 0.48, 0.48, 0.48, -0.48, 0.14405913292747569, -0.0780062896008829, -0.1354495751183285, 0.4465423225024356, 0.1279971539075173, 0.04300528242370641, -0.48, 0.3711394005623574, 0.41772412147129906, -0.48, 0.48, -0.48, -0.48, 0.04576690786822046, 0.48, 0.4600588723015119, 0.26158141661583995, -0.48, 0.48, -0.020675436025358762, -0.48, -0.2452547153848103, -0.48, -0.2269061398731514, 0.48, -0.24865653901431195, -0.06437107385992247, -0.48, 0.48, 0.48, 0.20536869652614614, -0.48, 0.14092870984423223, 0.39438680069896503, 0.2736258822354882, 0.25351853652891726, -0.48, 0.28439044048070505, -0.25400338432030317, 0.48, 0.11230980645950545, 0.06248327009128685, -0.28300926878688787, -0.09599999999999997, 0.48, 0.11028506804711652, -0.32621479800527653, 0.48, -0.4429397053532889, -0.48, -0.48, 0.3405439627616113, -0.48, -0.48, -0.48, 0.48, 0.48, -0.48, 0.4096698673319669, -0.48, -0.2638432031235451, -0.09690961704113082, 0.32939019540011716, 0.09599999999999997, 0.38042207569598463, 0.48, -0.48, -0.48, 0.48, -0.23513549870624467, -0.28614074643342846, -0.2697507389355891, -0.04446077271657217, -0.48, -0.04421984390966732, 0.48, 0.48, 0.27041789764707874, -0.48, 0.48, 0.48, -0.48, -0.30155637831767884, -0.03134776541927503, -0.37600668058962583, 0.48, 0.2669822074477955, 0.24643226704606186, 0.48, 0.48, -0.04846382837441876, -0.08328923659683879, -0.48, 0.48, -0.48, -0.48, 0.48, -0.2939379762636866, -0.48, 0.43815837682689485, -0.059543219228468336, 0.48, 0.48, 0.48, -0.48, -0.3269552812651749, -0.3683059513430004, -0.41359452924141965, 0.48, 0.48, 0.48, 0.48, 0.48, 0.48, 0.03486033991017007, 0.48, 0.3726317186693548, -0.19085250699621453, -0.46341640463002387, 0.48, -0.3580087980914831, 0.4311234470831383, -0.48, 0.08294724232731199, 0.48, 0.48, 0.2736582245329052, -0.48, -0.48, -0.15837095951189636, 0.2512283989719641, -0.03824264511659903, -0.4595699741991378, 0.48, -0.29486108144701784, -0.48, 0.288384225343134, -0.48, 0.48, -0.48, 0.14624994397537372, 0.48, 0.48, 0.48, -0.48, 0.48, -0.3045443475222802, 0.48, -0.2229431343361507, 0.07448799598789779, 0.2792120170439275, 0.2690534012195113, 0.48, -0.48, 0.24878481850878803, -0.48, 0.3137275354592576, 0.48, 0.48, 0.48, 0.2720251646906213, -0.2573764807418326, 0.2989770227561328, 0.48, -0.48, -0.48, 0.2798360223648402, -0.48, -0.48, -0.03343570667833101, 0.48, 0.48, 0.18328460254620438, -0.48, -0.2698042096445634, -0.48, 0.48, 0.44360907265856636, 0.25208664889536, -0.48, -0.3257068293601726, -0.03264415701528428, -0.25100399366253306, 0.3362253957285703, -0.05921419901413755, -0.42681585997798627, -0.06779586507798285, -0.2902089041546035, 0.48, 0.48, 0.48, 0.48, 0.48, 0.48, 0.42291373037717206, 0.48, 0.48, 0.48, -0.48, -0.4020962438837186, 0.48, 0.48, 0.48, -0.4341313829251154, -0.48, 0.48, -0.48, 0.02571039500204203, -0.2841979509628305, -0.48, 0.12159892781690382, 0.2821864135434477, -0.48, 0.48, 0.20545247525770502, -0.48, 0.38965674555002133, 0.17423284367753933, 0.30278044888675326, -0.24765281154417504, -0.04856262104327605, -0.2302963817342566, -0.21784879954401537, -0.36257978805568214, -0.48, 0.48
-0.3701619382163229, 0.13642506695547307, -0.48, -0.48, -0.22159335327160198, 0.11620951597866375, 0.48, 0.48, 0.48, 0.48, 0.40520709394953724, 0.48, -0.48, 0.48, 0.48, -0.4037927454034915, -0.48, -0.48, -0.48, 0.48, -0.48, 0.46192043532798643, -0.011058304976602137, 0.40757252217439566, -0.48, -0.33640287274417535, 0.48, 0.48, -0.48, -0.2823423719594256, 0.3431862047728987, 0.21417225599186265, -0.4143207760734319, 0.48, 0.13254025239268735, -0.4275063513735269, 0.016637698922777625, 0.48, 0.4434828460307712, -0.48, 0.48, 0.40413577764363084, 0.23969800764873458, 0.32707802910210704, -0.48, 0.48, 0.48, 0.48, 0.48, -0.41609366522389324, -0.48, 0.2458494592284255, -0.30689055150432076, -0.1564418777092303, 0.48, -0.30526680575048476, -0.3823994317592285, -0.12047509026858588, -0.06155757098124309, -0.48, -0.02763408562489276, -0.48, -0.48, 0.03136970121611546, -0.48, -0.47169239317143347, 0.04399544997973433, 0.2578108133329477, 0.012918367236837168, -0.48, 0.48, 0.48, 0.1710839682712335, -0.48, 0.010128733395391706, 0.30561395255187734, 0.48, 0.01790798813618044, -0.11154199482274912, 0.002001175138977275, 0.18082958487627593, 0.1068483722189579, 0.27220087491007344, -0.08982943935379628, 0.48, 0.48, 0.001465445362513522, 0.48, -0.48, -0.48, 0.48, 0.48, -0.3799238914274981, -0.03836169159415381, 0.48, 0.14038024110805827, 0.11859815926426392, 0.01539841016892568, -0.29307522846613737, -0.13510293313431443, 0.48, 0.40741156564147474, -0.363882519874017, -0.4473395762275121, -0.24014485676745645, 0.48, 0.48, 0.3258388375714697, -0.03536859196032019, 0.48, 0.48, 0.36574568259368234, -0.09237188946839994, 0.25911897980152, 0.34983585548555224, -0.48, -0.48, -0.0033374433281892005, 0.007018181090839043, -0.48, -0.16353131331905052, 0.48, 0.48, 0.48, -0.48, 0.019933524917995465, -0.412522241981357, 0.033695847442097, 0.48, 0.21733617424328516, 0.48, -0.24993997717277983, 0.18219395739067828, -0.09192421129224909, -0.3633769282503836, -0.19274083291433786, 0.48, -0.48, -0.26215434270253246, 0.48, -0.48, -0.48, 0.0714267359854428, -0.15776233061236994, 0.48, 0.48, 0.48, -0.09710556295122119, -0.48, 0.48, -0.3362044144040013, 0.02844565738584448, 0.48, 0.48, 0.48, -0.28920449745319077, -0.48, -0.48, -0.39765121369478734, -0.37800685479274426, 0.35018012480664873, 0.48, 0.3991017901637716, 0.48, 0.48, -0.48, 0.21404424810047712, -0.17704856583598522, 0.2552369889050595, -0.3872724889805438, 0.48, -0.48, 0.36902580359799436, 0.3855938071932296, 0.02361630327435829, 0.48, 0.31068274640499793, 0.48, -0.010398833686739623, -0.48, 0.48, -0.48, -0.48, -0.48, 0.32412748076870174, -0.48, 0.06574146017141178, -0.48, 0.48, 0.3270245123064217, 0.48, 0.30536215549181883, 0.48, -0.48, -0.48, 0.48, 0.48, -0.48, 0.48, -0.3583402962362733, 0.48, 0.48, -0.12116701058415486, 0.40068728389134617, -0.48, -0.35373710869637237, -0.3282378879592222, 0.48, 0.48, -0.48, 0.3053388157410448, -0.48, -0.48, 0.43696734554298367, -0.40565798995868146, -0.48, -0.13345509273838302, 0.48, -0.48, 0.39067228964967965, -0.48, -0.48, -0.48, 0.48, 0.30542662242551916, 0.48, -0.48, 0.48, -0.3239882608859046, 0.3903517996952311, -0.31100972915904823, -0.4617974319823061, -0.48, 0.38661301627268047, -0.48, 0.4137486150098874, 0.14803732035735223, 0.48, -0.1950606792639648, 0.3445154765442633, -0.1541682672578336, -0.48, 0.48, 0.32245720121622445, 0.48, -0.48, 0.48, 0.019332018346511305, -0.48, -0.4175623332928548, -0.48, -0.3346973411982087, 0.16559825933550792, -0.4602401742225677, 0.48, -0.18418617609693583, -0.48, -0.48, -0.48, 0.027542185515179857, -0.48, 0.36266981209533317, -0.48, -0.48, 0.308929438300581, -0.20104107090770534, -0.48, 0.48, 0.4091941017538222, 0.48, 0.48, -0.48, -0.48, -0.3767795722221654, -0.48, -0.48, -0.14028796935824597, -0.48, 0.23173701775469258, -0.01680287412553673, 0.48, 0.48, 0.48, -0.48, 0.3054388381927427, 0.48, 0.35912866876664573, -0.4729326472346294, 0.48, 0.3787736350758697, -0.48, 0.48, 0.013435905507340168, 0.48, 0.48, 0.4199087843921273, -0.48, 0.48, -0.1642641532713302, -0.48, -0.4213401870682718, -0.48, 0.33484902754855406, -0.48, -0.48, 0.31818896121003276, 0.48, -0.48, 0.48, 0.4685187940855091, 0.48, 0.48, 0.03241311807965294, 0.48, -0.48, 0.48, 0.004289678762791398, 0.20883497973563217, -0.09588361403731199, 0.13298182467266284, -0.48, 0.48, -0.48, 0.1050868202320982, -0.24437272085636588, -0.48, -0.48, 0.346681319198632, -0.48, 0.48, 0.48, -0.48, -0.48, -0.48, 0.48, 0.48, 0.3049993526482883, -0.4214539808467789, -0.23723506210108475, 0.48, -0.2857886792666432, 0.017766028261104738, -0.3365048736449882, 0.3828749205125951, -0.48, 0.48, 0.4686404422724524, -0.48, -0.3846698400622885, -0.48, 0.32931267131429104, 0.48, 0.48, -0.48, -0.48, -0.3372442822539827, 0.16130873026471565, -0.17216965380375954, -0.31370435145083647, -0.48, 0.3977691264049462, -0.48, -0.48, 0.48, -0.48, 0.41180826314707064, -0.32947379271636223, 0.2946444759799909, -0.48, -0.48, 0.11317625104069318, -0.04797445167512319, 0.32374828816202816, -0.4724495959887864, -0.007560773687757684, -0.48, -0.48, 0.26605539362103464, -0.48, 0.3302085761030524, -0.48, -0.48, -0.48, 0.48, 0.48, -0.1314427685093346, -0.48, 0.005365872591591714, -0.1973214699206174, 0.48
0.48, 0.48, -0.48, -0.48, -0.48, 0.48, 0.48, 0.48, -0.48, 0.19809276783378932, 0.48, -0.48, -0.48, -0.48, 0.48, 0.48, 0.48, -0.48, -0.48, 0.48, 0.48, -0.48, -0.48, -0.48, -0.15243746254842985, -0.48, 0.48, -0.235517864388336, -0.48, -0.48, 0.48, -0.48, 0.48, -0.06974996990355761, 0.48, -0.48, 0.48, -0.48, 0.48, 0.48, 0.48, -0.48, -0.2536242628480363, 0.48, -0.48, 0.48, -0.48, 0.48, -0.48, -0.48, -0.48, -0.48, -0.48, 0.48, -0.48, 0.48, -0.48, 0.010428693113342047, 0.3882919429346142, 0.48, 0.48, 0.48, -0.48, -0.48, -0.48, -0.48, 0.48, -0.48, 0.48, -0.48, 0.48, 0.38740893220829953, -0.48, -0.37755287898940665, -0.48, 0.48, 0.48, -0.48, 0.48, 0.48, 0.48, 0.48, -0.48, 0.48, -0.48, -0.48, -0.48, 0.48, 0.48, -0.48, -0.48, 0.48, -0.48, -0.48, 0.48, -0.48, -0.48, 0.48, 0.48, 0.48, -0.48, -0.07982686732580961, -0.48, -0.48, -0.48, 0.48, -0.48, 0.48, 0.48, -0.48, 0.48, 0.48, 0.48, 0.48, 0.3211953291834899, -0.48, 0.48, -0.48, -0.48, -0.48, 0.48, 0.48, -0.48, 0.48, -0.48, -0.48, 0.48, 0.02885396318026557, -0.48, -0.48, 0.48, -0.48, 0.48, -0.48, 0.48, 0.48, -0.48, 0.48, -0.3798669013715511, 0.48, 0.48, 0.48, -0.48, 0.48, 0.48, -0.27754296358613323, 0.48, -0.340886148330065, 0.48, -0.48, 0.48, -0.48, 0.48, 0.48, -0.48, -0.48, -0.48, -0.48, 0.48, -0.48, 0.48, -0.48, -0.48, 0.48, 0.48, -0.48, 0.48, 0.48, -0.48, 0.48, -0.48, -0.48, 0.48, 0.48, 0.48, -0.48, -0.48, -0.48, -0.48, -0.48, -0.48, 0.48, -0.48, 0.48, 0.48, -0.48, -0.48, 0.48, -0.4051078036324111, -0.48, -0.48, 0.48, -0.48, -0.48, -0.48, -0.008679888439711708, -0.48, 0.48, -0.48, 0.48, 0.48, -0.48, 0.48, -0.48, 0.48, 0.48, -0.48, -0.48, 0.48, 0.48, -0.48, -0.48, 0.48, -0.48, 0.48, -0.48, 0.48, -0.48, 0.048366460500197994, -0.48, 0.48, -0.48, 0.48, -0.48, 0.48, 0.006913102490921613, 0.48, -0.48, 0.48, 0.48, 0.2642447617461542, 0.11363067106711745, 0.48, 0.48, -0.48, 0.48, -0.48, -0.48, -0.48, 0.48, 0.48, -0.48, 0.48, -0.48, -0.48, 0.48, 0.48, 0.48, -0.48, -0.48, 0.48, -0.48, -0.48, 0.48, -0.48, 0.48, -0.48, 0.48, -0.48, 0.18853402104905026, 0.48, -0.48, 0.48, -0.48, 0.48, 0.48, 0.48, 0.48, 0.48, -0.48, -0.48, 0.015949532097035174, 0.48, -0.48, -0.48, 0.48, -0.48, -0.48, 0.48, 0.48, 0.48, -0.48, -0.48, 0.48, 0.2839319578776317, 0.48, 0.48, -3.6400950195017434E-4, -0.03174250859565403, -0.48, -0.48, -0.33260670090031624, 0.48, -0.48, 0.06016520241629137, -0.48, -0.48, -0.48, 0.3987986251523394, -0.48, -0.05582181222635618, 0.48, -0.48, -0.48, -0.48, -0.48, 0.48, 0.48, -0.48, -0.48, 0.48, 0.48, 0.48, 0.48, 0.48, 0.48, -0.305313212864177, 0.48, -0.48, -0.46871503010912485, 0.04071550528175745, -0.48, -0.48, 0.48, 0.48, 0.48, -0.48, -0.48, -0.48, 0.48, 0.48, 0.48, -0.07867815596946351, 0.48, -0.48, 0.48, -0.48, -0.48, 0.48, -0.48, 0.48, 0.48, -0.48, -0.48, -0.3733884455849986, -0.48, -0.48, 0.48, 0.48, 0.48, 0.48, 0.48, -0.2674271329464014, -0.48, 0.48, -0.039986956019802816, -0.48, 0.48, 0.48, -0.09282289950050553, -0.48, 0.48, 0.48, 0.48, 0.48, -0.36712994435853535, 0.48, 0.48, -0.48, 0.48, 0.48, 0.48, 0.48, -0.48, -0.48, 0.48, -0.48, -0.48, 0.48, 0.11292672722908997, -0.48, 0.48, 0.48, 0.11883955887571779, 0.48, 0.48, -0.48, 0.48, 0.48, -0.48
0.48, -0.3425463281992659, 0.4485526052916632, -0.48, -0.19201090711168517, 0.48, 0.48, -0.48, 0.48, -0.16135949912829017, 0.48, -0.4151280501945576, -0.15729963046500262, -0.4037666936921992, 0.07951301401103136, 0.46197327697286317, -0.48, 0.05360734977290006, -0.42359744412210254, 0.42677837481108644, -0.48, 0.48, -0.48, 0.48, -0.37073092731528756, -0.3789201401711023, 0.48, 0.018426508878823994, 0.48, -0.48, -0.48, -0.29676175521110826, -0.48, -0.016749771868766222, -0.48, -0.4461585058546867, -0.48, -0.48, 8.472354957619888E-5, -0.48, 0.17208519380916812, 0.04235216417829457, -0.48, -0.4374944612319488, -0.11315996017248703, 0.013703358963117668, 0.48, 0.26558756994658234, 0.3825636218950672, -0.48, 0.48, -0.2613915940954882, -0.17154507001998132, 0.48, -0.4655606657036119, -0.48, 0.36494972510322743, 0.39695454502230376, -0.48, -0.48, 0.1409258297748541, 0.3183716031648759, -0.3334663452005801, 0.48, -0.03580069703935293, 0.48, -0.17755790867013552, -0.4560298011641846, -0.05353849351152906, -0.48, -0.25520722252160044, -0.48, 0.3984878668138986, -0.15972959872403017, 0.48, -0.48, -0.09001194094812015, -0.48, 0.48, 0.3512503618037644, 0.48, -0.48, -0.4646608689249567, -0.23179429391801246, 0.4047385515497404, -0.11163398611551825, -0.48, 0.23485268760282663, 0.43289376343417935, 0.48, -0.4417633293284408, 0.03272836070844484, -0.1307405149704823, -0.48, 0.3723038522189101, 0.43940334733227626, -0.48, -0.12000381202791571, 2.724149083731253E-4, -0.45892930391014364, 0.3962891025560885, -0.48, -0.2649726588014825, 0.12237909812499284, 0.48, 0.22893363474716802, 0.021066287219537502, -0.48, 0.4518939398067252, 0.06086881903153964, 0.46205034268418704, -0.48, 0.11130502460359726, 0.48, -0.4395184162422998, 0.48, 0.2981562350591386, 0.48, -0.48, -0.46696038908790033, -0.3477871180230677, 0.3796683441200969, 0.02128217336788613, 0.12505494206158205, -0.48, -0.0900052191387728, 0.48, 0.48, 0.48, 0.48, 0.48, -0.48, 0.48, 0.48, 0.48, -0.48, -0.11211250360777167, 0.48, 0.3053180655880804, 0.48, -0.48, 0.12631530459255172, 0.48, 0.48, -0.0848473190681173, -0.48, -0.48, -0.48, -0.3626639849032488, -0.26226998302764115, 0.25510457870784153, 0.48, 0.48, -0.48, 0.48, 0.052654048336232454, -0.2597393100651679, -0.0788924552337169, -0.39255309182527, 0.48, 0.48, -0.48, 0.18126962525190515, -0.48, -0.20935229347810014, 0.029745226059021013, -0.014094809626046534, 0.4338378406471551, -0.48, 0.4273684586353824, -0.25230575508701203, -0.48, -0.48, 0.33004776633196087, -0.48, -0.48, 0.48, -0.48, 0.48, 0.2220209390765049, 0.39554020866480194, 0.3973728064967673, 0.48, -0.25901570525154316, -0.2454184397391771, 0.45456396554323064, 0.23410429735279192, 0.4533820213161319, -0.050519413370609736, 0.003218945622330077, 0.48, 0.48, -0.48, -0.2772265565828871, -0.48, 0.019140949244296823, -0.03517351604741892, 0.04075416258697928, 0.48, -0.48, -0.33691573735667407, -0.34571452469412006, 0.48, -0.48, -0.48, 0.48, -0.48, 0.48, -0.48, 0.4377902553312493, -0.48, -0.48, -0.48, -0.48, -0.48, -0.48, -0.20745879580631638, 0.03626787448231675, 0.48, 0.48, 0.18204904054526255, -0.3792701864583084, 0.48, 0.07468926578543714, -0.13547591798826433, -0.48, -0.48, 0.48, -0.33547221444571695, 0.43024784998686183, 0.48, -0.48, 0.48, 0.18726090397467884, -0.42795796105033823, 0.48, -0.48, 8.466173380800301E-4, -0.48, 0.440981591294647, -0.48, 0.48, -0.48, -0.48, -0.146809004069055, 0.28928695981115343, -0.48, -0.48, 0.06911238267936844, -0.11353264517789341, 0.48, 0.48, -0.48, 0.18218192254324422, -0.48, 0.2962533447858074, -0.25285539339906193, -0.48, 0.48, -0.15467365527298027, -0.43053515071176757, 0.48, -0.48, 0.22227561327271073, -0.4318608023948869, -0.48, 0.08876467594876582, 0.046269584566198244, 0.27271758798958856, 0.48, 0.48, 0.48, 0.4249617061999323, -0.48, 0.48, -0.4518947437585419, 0.47574221000891503, 0.48, 0.48, 0.48, 0.48, 0.48, 0.48, 0.40002637645692585, -0.08716598380155172, -0.010077749867201086, 0.48, 0.4370068556542693, -0.37193928817610833, -0.31887637022826454, 0.039552570699937895, 0.43709149923441976, -0.35219582067012356, -0.4591671584496331, -0.48, 0.1020240528921866, -0.3094649145478148, 0.14374514264428412, 0.48, 0.2489964406314852, 0.48, -0.12583769710015255, 0.47650816709745286, 0.4546728818094973, -0.48, -0.38355042966781366, -0.05593158596118278, 0.45402274538938403, 0.48, 0.48, -0.2353025972726527, -0.48, -0.48, -0.4437892967039984, 0.3567187213738322, 0.2636980734060562, 0.48, -0.2291416840497559, -0.09220564919502494, -0.48, -0.45191153889341507, 0.48, -0.3611778523286721, 0.48, -0.19544159475568273, 0.48, 0.48, -0.0033556623173066624, -0.37159303667041504, 0.46736366854981104, 0.48, -0.48, -0.21793441083372572, 0.11408602655624259, 0.48, 0.18379231795852397, -0.17251987876227198, -0.12385115244022529, 0.3012899198652319, -0.29406385782212663, 0.22374910027313932, -0.48, -0.11306303128398099, 0.43721841188389043, -0.11426533729135603, -0.13940176274823418, 0.48, -0.29263599329201845, -0.13614944222030514, 0.38950619043108753, -0.48, -0.48, -0.2550487505373332, 0.48, -0.48, -0.44792390680048244, 0.48, 0.03971618037978973, -0.399313083678397, 0.42408106674690016, -0.48, 0.48, -0.4312547397830312, -0.2706557444929485, -0.33603016562535026, 0.09215078138455088, 0.48, -0.08325141075300085, -0.1585746215743248, 0.48, 0.48, 0.45853367802043044, 0.48, 0.48, -0.48, 0.4706668432820182, -0.022688658745370578, -0.267660645462076, 0.34074748000210736, -0.48, 0.48, 0.4543891800198088, -0.4279886518662683, -0.48, -0.48, 0.19373583027658564, 0.3868024839346354, 0.0028012222789199764, -0.37404649839673404, 0.48
-0.21335924628313133, -0.48, -0.48, -0.4567410618855672, 0.48, 0.4433436543855105, -0.16411765062769706, -0.48, -0.48, 0.48, 0.48, -0.1844209123692895, -0.48, -0.18911754423928867, 0.18271415972551197, 0.4656382126702231, -0.48, 0.48, 0.48, -0.3265161106649431, -0.04379045835127843, -0.48, 0.20142036166391164, -0.36387526642416596, 0.48, 0.48, 0.07755077120868403, 0.022372113875267163, -0.48, -0.48, -0.14146844822785754, 0.48, 0.39932456572015496, 0.10784153147698916, 0.48, -0.06923535917687379, -0.48, 0.46436886862859117, 0.48, -0.38694555646755013, 0.04982120607943222, 0.04598804642061924, 0.48, 0.48, 0.48, -0.47562471221032665, 0.48, -0.48, -0.48, -0.046417116739214004, 0.48, -0.40179576389472976, 0.08826385981494914, 0.48, 0.4242305824145748, 0.20427297174809178, -0.48, 0.48, -0.47463047307398515, 0.48, -0.48, 0.0554004080348493, 0.48, 0.12935448833600374, 0.48, -0.28455954050473525, 0.4701489534878062, 0.48, 0.47091310607031145, -0.011619646525285798, -0.48, 0.44767906821539977, -0.48, -0.17231606022661547, 0.48, 0.48, -0.2835399324496949, -0.48, 0.025936690281949726, -0.28944430283105205, 0.10137790200463252, 0.04550843964919271, 0.041471720008693536, -0.48, 0.48, -0.0339945246255452, 0.37846162848259074, 0.022053236028259038, 0.18230256816706591, -0.36326404930052425, 0.48, 0.05147819957588759, -0.48, 0.03978244854645083, -0.1852435105380838, -0.48, -0.3751230349689504, 0.3660238058035287, -0.48, 0.12474678896590706, 0.48, 0.30637671186885923, 0.48, 0.48, 0.030667659075811676, 0.1399062172095529, -0.48, 0.047348692863186825, -0.3608113692521222, -0.1540652763749207, -0.48, -0.48, -0.48, -0.48, 0.48, -0.45414889924758584, -0.48, -0.48, -0.3393652819096723, -0.48, 0.45760990725529527, -0.34051555987945015, 0.2941923087633837, 0.4454147807223391, 0.48, 0.46671479716432057, 0.48, -0.2042596198217092, -0.48, 0.48, 0.33582757625518816, 0.48, -0.4027974528586755, 0.2408220125733227, -0.48, -0.48, -0.48, -0.022554804248934718, 0.4751021610125988, 0.48, -0.46073121923677857, 0.48, -0.09409467363843473, -0.050811722010809024, -0.04501327043323797, -0.4631623096303807, 0.29627475062823494, -0.48, -0.48, -0.48, -0.46456484128892367, 0.04526836123918407, -0.033618360607954284, -0.17943398410798694, -0.48, -0.09351094827619583, 0.48, 0.48, 0.48, 0.39625815002990844, -0.04243694427967831, -0.48, -0.042225420184319684, -0.1981875328430228, -0.23093630886062597, -0.04547320892758833, 0.48, -0.48, 0.27856605961271513, 0.07679383848631788, 0.48, 0.48, -0.48, 0.4359960830281991, 0.48, 0.23622132312782682, -0.48, 0.48, 0.48, -0.10309374644502234, 0.24860300812809732, -0.48, -0.4714825274854463, -0.0422202158044645, -0.458635011971254, -0.48, -0.48, 0.48, -0.48, 0.48, 0.2873345853381613, -0.48, -0.3194368806995401, -0.04495333530307016, -0.3908804021003928, -0.04141375175682266, 0.2052073089491622, -0.48, 0.4631256796023172, -0.25734676965261355, -0.48, 0.0874431680905684, -0.3780000988292782, -0.48, -0.48, 0.3676695401258162, -0.48, 0.351655918141089, -0.045193504464645956, 0.48, 0.48, 0.04180926819283087, -0.32409074971661667, 0.405112131817238, -0.48, -0.48, -0.48, 0.20826372438804058, -0.04667877143862961, -0.42338091197643185, -0.0451306480664275, -3.0363512166201034E-4, -0.48, -0.08344392282508996, 0.26231157551380047, -0.011914616047733119, 0.23350589523663773, 0.3285575643488125, 0.47500400040841095, 0.48, 0.14506015915937917, 0.04768339545816616, -0.044539398250730194, -0.48, 0.4179667388869673, 0.48, 0.3484535260479367, -0.389174210083439, -0.48, 0.48, -0.09347272768711085, 0.48, -0.12159156194054388, -0.48, 0.48, 0.4442727699488473, -0.19819894051206974, 0.04383237776509036, -0.4744511839620243, 0.48, 0.21703742818835267, 0.47459182711622816, 0.46998388083676346, -0.4750259206042855, -0.04306003757021304, -0.48, -0.48, 0.3343717938117678, -0.48, 6.123706999942025E-4, -0.03253754090911634, -0.462609897461929, 0.22400223247461926, 0.12163418096223425, -0.1377363914316585, 0.48, -0.4758169025868221, 0.48, 0.31105645932753795, 0.20869096152799055, 0.15828089254257444, 0.0034926623296111237, -0.16782317388951803, -0.4147647540167995, -0.48, 0.48, 0.47458252576377935, 0.3076715842739589, 0.003244264839503297, -0.48, 0.48, -0.21706729761285426, -0.3688617447510604, -0.0950121322180153, -0.48, -0.046034688316780925, 0.44182962178326773, -0.48, 0.48, -0.0415255808585927, 0.38552004352485025, -0.04451703980718352, -0.48, -0.4773445164427729, -0.48, 0.48, -0.48, -0.044614815476479136, -0.48, -0.42684775690395155, 0.48, -0.06434608628904886, -0.2252867923352003, 0.4779879588552024, 0.48, -0.48, 0.48, 0.17035753314394847, -0.29322800445690095, -0.48, 0.48, -0.02470298097167256, -0.48, 0.48, 0.48, -0.48, 0.48, -0.48, -0.1307550906433957, 0.48, 0.47539565143268864, 0.48, -0.26534972183786665, 0.3364442931767607, -0.48, -0.37459723960341945, -0.48, -0.48, 0.48, -0.18993244038901233, 0.48, 0.47642103049164014, -0.17645377497050213, -0.35941154779024326, -0.35600785537828306, 0.0057494462216570175, -0.48, -0.08819780749477661, -0.48, 0.48, 0.48, -0.48, -0.04393195474199618, -0.0739573172045474, 0.040769791086820883, -0.48, -0.48, 0.48, 0.48, -0.48, -0.48, -0.08160086045989506, -0.4226616093797157, 0.26611810458025825, 0.1361441250836637, -0.48, -0.36913470469424225, 0.4746088561988712, 0.48, 0.47801146539586686, 0.21128254831596732, 0.1865603084491697, 0.22342652676111496, 0.37918513538287274, 0.33354902341793646, 0.04533247738455631, -0.10535735380790491, -0.04741139452779308, 0.4339295789321037, 0.2320743385704129, -0.1833257469406922, 0.16731758558085325, 0.3493767308828525, -0.040357253079310984, 0.48, -0.03545063714095431, -0.309907851325349, -0.048261272755979245, 0.48, -0.48, -0.4083932418467344, 0.03921564200405772, 0.4672594081245375, -0.48, 0.48, 0.1962773560840259, 0.028316396635967966, 0.10563618429385019, -0.48, 0.48
0.48, 0.48, 0.3877405695673364, -0.48, -0.36858213572531373, 0.48, 0.48, -0.13225007860829785, 0.48, -0.34811137947206927, 0.3857689897481118, -0.07564969328371662, -0.29238241238547763, -0.2155394873450377, -0.48, -0.13498285437449276, 0.4567769769972009, -0.48, 0.48, -0.48, -0.48, 0.48, -0.48, -0.39811620849906704, -0.48, -0.48, -0.4267351193238631, 0.08662346316002256, 0.48, -0.48, -0.059266078557955515, -0.34811155842216224, -0.48, 0.48, 0.20375862134136036, 0.08467486481374559, -0.48, 0.48, 0.35921763027975073, 0.48, -0.48, -0.48, -0.48, -0.10242125107797906, 0.2346453517291719, -0.48, -0.48, 0.48, 0.2397403744946941, 0.31288679776224604, -0.39588465810706985, 0.38156747344773767, -0.48, 0.1647813286919313, -0.1007137235804334, 0.3884872170420923, 0.48, 0.12678817358249372, 0.4395179077558098, 0.3773784045096761, 0.48, -0.48, -0.2836013405585446, 0.34198541241162994, -0.48, 0.25786564406997636, 0.375749563406768, 0.07202823471122366, 0.24666329029885248, 0.16410732806611794, 0.10229565862529255, 0.0409832183113511, -0.48, 0.48, -0.37618703889635097, 0.03613886896444274, 0.48, -0.48, -0.13870777228136477, -0.19611791494576636, -0.3117620672665784, -0.48, 0.39706236546881124, 0.48, -0.48, -0.48, -0.2398044848725761, 0.48, 0.4658676132400613, -0.48, 0.061778431793156896, -0.48, -0.22975653569298182, -0.3885325426881375, 0.48, 0.48, 0.48, 0.12822809393440482, -0.2609718353251619, 0.44818868047494, -0.43001311011293086, -0.08201918738860581, 0.48, 0.45314584021815363, 0.22245341338608293, -0.48, 0.030828289768768058, -0.48, -0.2364071443259289, 0.022175554195876912, -0.15525233570232333, 0.25702346529717945, -0.48, -0.48, -0.13393504188120375, -0.48, 0.03975380854660904, -0.48, 0.2855645614346404, -0.48, 0.28390821632375896, 0.13764870978322508, 0.48, 0.48, 0.48, 0.48, 0.48, 0.48, 0.43592176146029016, -0.48, 0.08909000879384144, -0.17143821162365835, -0.4171069420698389, 0.48, 0.22354527438177202, -0.22674116697593738, -0.20809838109982104, -0.2959088971038477, -0.48, 0.48, 0.48, 0.48, -0.48, 0.48, 0.1906929743833793, 0.2903048893683853, -0.48, 0.3950409655576059, -0.48, -0.07405128699963848, 0.48, -0.22423170636128198, -0.48, -0.48, -0.48, -0.48, -0.48, -0.09279127951450838, 0.26290796692859886, -0.024992972385410206, 0.48, -0.3720242453162591, -0.3711251902358067, 0.07383297704732206, -0.33733871619701083, -0.48, 0.48, -0.42592760511474304, 0.005694474558100904, -0.48, -0.22730092369374622, 0.48, 0.48, 0.05944528898266299, 0.4350819968840479, -0.48, -0.48, 0.48, -0.10317444393933484, 0.48, -0.3322477631689853, -0.48, -0.48, -0.39054503202946345, 0.48, 0.48, 0.48, 0.08100269078606914, 0.48, 0.1732284718733802, 0.3223825611458486, -0.19725393248675893, -0.48, -0.3151495307847255, 0.48, -0.2264354435733682, -0.48, 0.10480688388399728, 0.48, 0.47970589120778895, -0.48, -0.48, -0.4645267158125532, -0.48, -0.20008410322818243, -0.48, -0.02217441981058721, 0.17142246510319237, 0.48, -0.4217426807371012, -0.48, -0.48, 0.48, 0.09893442772524452, 0.48, 0.017455041042871655, -0.48, -0.48, 0.48, 0.48, -0.43563092199014486, -0.48, -0.45121989526914597, 0.04413004534521037, -0.48, -0.48, -0.48, 0.032547221193772624, -0.48, 0.48, 0.22921718304328564, -0.12305858084145316, -0.48, 0.2209643839054397, 0.06965037748470748, 0.48, 0.48, 0.12348648872674428, -0.28323070084322766, 0.0834546888669786, -0.04395263928719284, -0.38969672283438506, -0.11280578448123235, -0.48, -0.3604166574038231, -0.4622657229583944, -0.48, -0.07156451038477585, -0.48, 0.48, -0.48, -0.19432461903769654, 0.032275134406750006, 0.48, 0.48, 0.48, -0.48, -0.48, 0.48, 0.20673738413210174, 0.48, 0.2962308580986537, -0.48, -0.48, 0.48, -0.48, 0.48, -0.48, 0.48, 0.48, 0.48, 0.48, 0.4036852184071179, 0.48, 0.003752623846298042, 0.48, -0.48, -0.48, -0.48, 0.48, 0.008914479762628935, 0.007133147694742825, 0.48, 0.48, 0.48, -0.16738926612217186, -0.32941142709938454, -0.34077972573968673, -0.48, 0.48, 0.48, 0.47344021862586416, 0.22195546435284091, 0.48, 0.22956364635575544, -0.48, -0.39324561938050007, 0.2201781831350299, 0.2941774328525455, -0.4603158923913137, -0.48, -0.48, 0.48, 0.20967895935708214, 0.4147910261446176, -0.48, 0.48, -0.21783714836283952, 0.28239584718061606, 0.48, -0.06889737421008502, 0.48, -0.48, 0.4528723404762586, -0.48, 0.1701945829104371, -0.48, -0.48, -0.48, 0.45182461594465617, -0.010002150564401568, 0.48, -0.48, -0.14070439334822338, -0.48, -0.09874938650656351, -0.192, -0.3943320766657187, 0.32374025482476476, -0.48, -0.11368079731578018, 0.24332293601232935, -0.48, 0.3061278270894616, -0.34579381404915466, 0.48, -0.09015900121245723, 0.2156489889633122, 0.27575037530252344, -0.48, -0.1674460552720357, 0.48, 0.39106751166789266, -0.48, -0.48, -0.48, -0.48, 0.3618732295516002, 0.48, 0.48, -0.48, 0.09206690722101885, 0.48, -0.48, 0.2514548050621508, 0.48, 0.08384755591418802, 0.1650382885009789, 0.06848187681460449, -0.17458031635012394, -0.48, -0.34582487144307694, -0.48, -0.21968392527000613, 0.46588081861122366, 0.02192990969065922, -0.48, 0.3068876580144617, 0.48, 0.048770369429061544, 0.48, 0.05793813438683271, 0.48, 0.24632021611421862, 0.48, -0.48, 0.48, -0.48, 0.48, 0.4368769272501333, -0.4214703224083389, -0.48, 0.40841492047651173, 0.48, 0.16472763233446286, -0.48, -0.15954202823450836, 0.48, 0.48, 0.48
0.48, -0.48, 0.48, 0.48, 0.027682951110768322, 0.48, -0.07640792424204461, -0.3581460729252702, 0.30073416587498814, -0.20155536094535081, 0.48, -0.051824402431522976, 0.48, -0.30864904377191393, -0.47967789510973474, -0.48, 0.48, 0.48, 0.07814203046463475, 0.10053528328518646, -0.3411822816100549, 0.2219038259519531, 0.023359321825657087, 0.11882459813849817, -0.028782918580510256, 0.2908351362843973, -0.48, 0.0685993725303346, -0.3612223661199482, 0.48, -0.48, -0.386850083121473, 0.10828178693710624, -0.17769904022728933, -0.48, -0.377713002594756, -0.48, -0.48, -0.4390026669229656, 0.48, 0.48, -0.48, -0.48, -0.3813200342182743, 0.021561653875445216, -0.48, -0.24055932559409202, 0.03144935150942674, 0.031238789505538628, 0.48, 0.02499352392155238, 0.02907074083820782, 0.4700932414620058, -0.0320001442345679, 0.1393412170333565, 0.3674392367927738, 0.48, 0.48, 0.48, -0.48, -0.32868266978526495, 0.48, -0.1422527634508554, -0.48, 0.0961405467930247, 0.37418408005518666, 0.41115953156490487, -0.4402803694566218, -0.038142657917770745, 0.09701850640700468, -0.020600631337834643, 0.48, -0.03153782389359361, -0.48, -0.48, -0.48, 0.48, 0.24882066841290723, -0.15400176726868717, -0.48, -0.48, 0.2009372980790065, 0.48, 0.19156734450558208, 0.38604480552695886, 0.48, -0.48, -0.48, -0.48, -0.48, -0.48, 0.48, 0.48, -0.3966682565852321, 0.24732365453076458, 0.033901177756901296, -0.48, 0.48, 0.029688018521764753, 0.48, 0.48, 0.37253600141611365, 0.03431818182082175, 0.48, -0.48, 0.48, -0.4614278441739371, 0.2223772428623263, -0.48, -0.37087284138593446, 0.22873124763519628, 0.04364202600850975, 0.48, 0.016348080304741247, -0.09185070364238213, 0.48, -0.48, 0.0644521645189767, 0.03217636571357249, 0.48, -0.48, 0.2827656056519892, -0.48, -0.10334672677126688, 0.48, 0.48, 0.01047009590957032, -0.48, 0.48, 0.48, -0.2044711722055514, -0.48, -0.07998371848457463, 0.38101104817907117, 0.05177453572492721, -0.48, 0.48, 0.48, -0.48, 0.38825736563522784, -0.48, 0.48, -0.48, -0.08389474079805352, 0.48, 0.48, -0.03240270183678029, 0.48, 0.48, -0.48, 0.2194114687764408, -0.48, 0.24637484944392055, -0.22083129048906408, -0.48, -0.3678988834816226, 0.48, 0.48, -0.25057091633843004, -0.48, -0.48, 0.032233497493614816, -0.48, -0.16237386448336644, -0.24972618285918008, -0.11216304466184476, 0.48, -0.17338843827844796, 0.48, -0.2186386294504008, -0.48, 0.08359759034269497, -0.48, 0.48, 0.4261794236299934, -0.48, 0.344265190138083, 0.27043339610396855, -0.031366553022804056, -0.4110120760847572, 0.48, -0.48, 0.06737901221097536, 0.48, -0.012926369425965742, 0.48, -0.2838245368636543, 0.2639750102410018, -0.48, -0.48, -0.48, -0.48, -0.16114215477310742, -0.48, -0.258853144810172, 0.3858075187221124, 0.1808595466958814, -0.48, 0.48, 0.48, -0.2937309600939847, 0.47694431490020167, 0.3680617718410488, -0.48, 0.1304977182826001, 0.22398137001525928, 0.23957901973630666, -0.48, 0.48, 0.48, 0.48, -0.23242274461937312, 0.48, -0.03128675742719217, -0.031742950960144456, -0.48, 0.48, -0.08120418462139445, 0.48, -0.48, 0.48, 0.48, 0.275963618115066, 0.48, -0.15873255994039784, 0.48, -0.29756943051530094, -0.29604476661947576, 0.036401599660317, 0.48, 0.48, 0.48, -0.48, 0.48, 0.48, 0.48, -0.48, 0.48, 0.48, -0.12359766727147169, -0.0841856745442524, 0.16639286888178667, 0.09333380047426615, -0.48, -0.48, -0.06189441759857198, -0.1253100675744386, 0.48, 0.16327613419376477, 0.48, -0.014001399155622318, 0.48, 0.3185821655430775, -0.48, 0.48, 0.4585703195445826, 0.2457412161818244, 0.08327477648052625, -0.48, 0.016248014312490622, 0.0431320166629441, 0.48, 0.33169405943170566, 0.48, 0.034948773075275885, 0.48, 0.07318512449688096, 0.24909250369481314, -0.4484780845995341, -0.025511172008052127, 0.48, -0.48, -0.48, -0.33993335240243205, -0.48, 0.48, -0.3735492094039272, -0.0027995239501734104, 0.03356054164154784, 0.48, -0.02084565768929869, -0.48, 0.46294004602853733, 0.3559444289859583, 0.48, 0.48, -0.48, 0.1157646632982792, -0.48, 0.1614103706441468, 0.07857906358488767, 0.48, 0.34120016310224643, -0.35719270360540273, -0.48, -0.48, 0.2540403105275145, -0.48, 0.04229961036080615, 0.48, -0.42119671846266116, 0.48, 0.028680412662249133, -0.23266000099622328, 0.031694240721214045, 0.48, -0.02756008015444547, -0.48, 0.48, -0.48, 0.12546415371029335, -0.48, -0.48, -0.48, 0.48, -0.35773266081983024, -0.48, -0.48, -0.423675067707791, 0.3979463948956754, -0.48, 0.14058560355164773, -0.08379279131940237, 0.48, 0.43970702711060755, 0.026595537500401223, 0.30846791382412986, -0.48, 0.032944377600296726, -0.16053533876803466, -0.48, -0.48, -0.48, -0.4236591589002001, -0.48, 0.22519874684560923, -0.2959960107313453, -0.48, -0.48, 0.33366871535870357, 0.008141043467938036, 0.48, -0.48, 0.48, 0.024066647997825874, 0.48, 0.48, -0.48, 0.300076187654321, -0.1764108597452897, 0.1663068386192217, -0.48, 0.10977734109951073, -0.031644752187354575, -0.48, 0.27976571746090134, 0.48, 0.27733887653113476, -0.48, 0.03093952709340278, -0.2237228909833721, 0.3694014733461002, -0.19246651993941344, 0.48, -0.09005625418029603, 0.3050876433161673, -0.48, 0.48, 0.07611167339975336, 0.48, 0.41833652181100145, -0.19404270990424718, 0.48, -0.48, -0.09308395259398719, -0.22660199033878994, 0.026314003698834576, 0.011677406599725881, 0.16005984489824648, -0.07683380489666664, 0.023425169047313232, -0.48, 0.48, 0.41677574739729495, -0.24874219487594984, 0.48, -0.48, 0.2505573552845267, -0.09631802911004216, 0.08339026666186838
0.48, -0.48, 0.48, -0.3680719709009752, 0.48, -0.48, 0.48, -0.26774908657482294, 0.48, -0.48, 0.48, 0.48, 0.48, 0.48, -0.30620092021404266, 0.48, 0.48, 0.23146549766321603, 0.18197444386158984, -0.48, 0.36371250990138454, 0.3094023722611069, 0.48, 0.48, -0.48, 0.013444702057755109, 0.48, 0.013060456268738134, -0.09219341095644307, -0.09346031298614094, 0.43598340266786023, -0.48, -0.48, -0.48, 0.48, -0.48, 0.48, -0.07925560314403138, 0.3404431527026849, -0.48, -0.48, 0.32815705065863787, -0.48, 0.15488123142821, 0.48, -0.48, -0.4350443708843755, 0.48, 0.09722100418055563, -0.15574067875181988, -0.48, 0.08968781420807004, 0.3043976081448941, 0.48, 0.48, 0.48, 0.48, 0.48, 0.165033694852675, 0.2805200016838155, 0.10463450775522753, -0.48, -0.023083064307137385, -0.19939382488271337, 0.3327595188184216, -0.48, -0.48, 0.48, -0.48, 0.35455958115353575, 0.48, 0.26917031874088837, -0.48, 0.48, -0.09692057805240285, 0.4581096509689896, -0.48, 0.48, -0.48, 0.48, 0.48, 0.48, 0.17087656718441538, -0.48, 0.48, -0.48, 0.48, -0.1818772040449725, -0.181790257425718, 0.39270387790570055, -0.48, -0.48, -0.48, 0.48, 0.48, 0.48, -0.48, -0.48, 0.020202825969420968, 0.09309948671355173, 0.48, 0.48, -0.11728127415702905, 0.4445758087639332, -0.48, 0.09123863211112043, -0.36614360094622644, -0.48, -0.48, 0.48, -0.48, 0.48, -0.36989084302587805, -0.396822032237, -0.48, 0.36245923842162686, -0.48, -0.48, -0.19347853124735154, -0.2652959873214268, 0.04997492294226802, -0.17473806430617758, 0.48, 0.48, -0.48, -0.14626264502601866, 0.48, -0.48, -0.48, -0.48, 0.2861366979776053, -0.3055020515144285, -0.48, -0.48, 0.48, 0.4226573926665563, -0.48, -0.48, -0.1964024723055177, 0.48, 0.16578476156536187, 0.48, 0.48, -0.48, 0.21449975964052947, -0.02250879169298642, -0.23577117407589962, 0.23523827922049784, 0.48, 0.48, -0.09068042995098508, -0.48, -0.48, 0.2534019121706572, 0.15682244434204962, 0.48, 0.48, 0.48, 0.48, -0.17378299146819462, -0.14449858646954547, 0.161333449765442, 0.48, 0.09161971939940883, 0.3531156494825692, 0.48, -0.48, 0.48, 0.14480594417310974, 0.48, -0.470634515702813, -0.48, 0.1480095701102583, 0.15227077912937412, -0.48, -0.21495603469328572, -0.48, 0.09389196908115469, -0.3290197648415077, -0.13061435620639555, -0.08466250873014469, -0.48, -0.012623974973688556, -0.4305665254375715, -0.17518753133730708, -0.48, -0.38466990448651894, -0.45486628195476103, -0.1802658495884696, -0.48, 0.19864467634181063, -0.48, 0.48, 0.23664056600196326, 0.20555003972823271, 0.32276647718907897, -0.48, 0.48, 0.48, -0.48, -0.48, 0.48, -0.48, -0.48, 0.48, 0.36804453049537683, 0.15942430985835948, 0.48, 0.48, -0.48, -0.48, 0.11874276566401451, 0.2138997210509519, -0.26988891720590646, 0.3959699787525012, -0.48, -0.48, -0.48, 0.48, 0.17754364783976795, 0.3323253078181686, 0.48, 0.39431623421182604, -0.48, -0.48, -0.21096043947626286, -0.48, 0.10367613917764973, -0.18153582251894027, 0.48, -0.1661545805286823, -0.48, 0.33382863022695936, -0.48, -0.21564539048613662, -0.48, -0.48, -0.48, -0.48, 0.48, 0.48, -0.3700447181073898, 0.48, -0.48, 0.48, 0.48, -0.48, -0.48, 0.3253436824241467, -0.48, -0.17994415359712868, 0.48, -0.48, -0.19680405617641125, 0.37201801317276667, -0.48, -0.48, -0.48, -0.3066785426312434, -0.48, 0.48, 0.48, -0.36644990539663497, -0.48, -0.48, -0.3941270893119329, 0.06924473181308696, -0.48, -0.16730915818069075, -0.12083564846710387, 0.48, 0.48, 0.48, -0.14544314223801746, -0.2073914471455306, -0.48, -0.48, 0.1985899173875879, -0.48, 0.48, -0.21913973928788885, -0.26044864959591985, -0.48, 0.09008931095807016, 0.48, -0.48, 0.48, 0.31592137543064813, -0.48, -0.33770486853658926, 0.42996802392213596, -0.22164139837401797, 0.48, -0.48, 0.1831371319628076, -0.48, 0.00475716748148558, 0.48, 0.17787434570625593, -0.3509643770345874, -0.23489769778630815, 0.48, -0.09408331054663593, -0.48, -0.48, 0.48, 0.337325134561014, -0.08809491920417814, -0.48, -0.09311364746758771, -0.48, 0.48, 0.48, -0.48, -0.48, 0.48, -0.48, 0.48, -0.48, 0.3180583685567752, 0.21579631840535823, -0.23532194008328106, 0.48, -0.369460316515347, -0.48, -0.48, -0.48, 0.26785104683894223, 0.33189408604721937, 0.48, 0.48, -0.48, -0.48, -0.10818632162087716, 0.34831368759584996, -0.48, 0.23359854149957865, 0.09895014162873322, 0.48, 0.08812528708662476, -0.48, 0.15906713230713743, 0.2768296675470302, -0.012110528721157088, -0.48, 0.48, -0.13871017964224552, -0.10805721179046901, -0.48, -0.27650748597280084, -0.48, 0.29917400379899944, 0.33565013381822856, -0.48, -0.13098536575402137, 0.07246672856259948, -0.05668001360000595, 0.48, -0.09739438959674135, -0.48, -0.48, -0.48, -0.48, -0.48, -0.3493158832229222, -0.3276033664564889, -0.13114393033417687, 0.33630251034969594, 0.2925323075635805, -0.48, 0.48, -0.48, -0.46713409071250406, 0.48, -0.48, 0.48, -0.35297715435264976, 0.48, 0.08838923032481383, -0.48, 0.48, 0.4336504109589804, -0.48, 0.13720202518644664, -0.19363147910042977, -0.48, 0.48, 0.48, -0.48, -0.22927940541247394
